309 128
279 0.046373 -0.023386 -0.144965 -0.002970 0.172902 0.177910 -0.160281 0.019045 0.039185 0.217827 -0.048864 -0.082980 0.098418 -0.094580 -0.329376 -0.394158 -0.188347 0.192310 -0.054966 0.218674 0.207217 0.127751 0.131429 -0.166738 0.254305 -0.097018 0.170071 0.092655 0.028262 -0.115677 0.110285 0.079532 -0.177817 -0.340012 0.148880 0.227773 -0.437577 -0.139840 0.136034 0.065487 0.053090 0.437489 0.115841 -0.182707 -0.307455 0.174052 0.106147 -0.094434 0.252192 0.018989 -0.387905 -0.051836 0.399736 0.187232 -0.251036 -0.284142 -0.020231 -0.071423 0.096783 0.364105 -0.366740 -0.081963 -0.383228 -0.210813 -0.499151 -0.093794 0.025616 0.296318 -0.156078 -0.054746 0.093985 0.319544 0.414658 -0.588457 0.046986 -0.294026 0.344231 0.461755 0.030612 -0.442330 -0.135854 -0.101880 0.134904 0.151329 0.263421 0.308712 0.651525 -0.316945 -0.222105 0.128755 0.327035 -0.015404 -0.113401 -0.192252 -0.289112 0.114502 0.057265 -0.163434 0.111566 -0.090619 -0.361604 0.130595 -0.119771 -0.380786 0.106271 0.097415 0.545312 0.291453 0.105941 0.017196 0.049166 0.175478 -0.198115 -0.120765 -0.157153 -0.095942 -0.245810 0.290392 -0.161528 0.008012 -0.217334 -0.234657 -0.128655 -0.408634 -0.120200 0.086915 0.009984 -0.159191
90 -0.055403 -0.202661 0.027859 -0.594269 0.435963 -0.089155 -0.223871 0.183511 -0.126861 -0.122698 -0.254088 -0.191392 -0.377161 -0.169969 -0.269963 -0.150747 0.133792 -0.154415 -0.303253 0.116491 0.599022 0.083210 -0.244515 0.068954 -0.592651 0.190290 0.070253 0.094635 0.215093 -0.110940 0.405132 -0.268289 -0.587714 -0.068341 -0.199009 0.567999 0.294782 0.147888 0.088456 0.096251 0.148700 0.504800 0.076657 -0.097187 -0.034158 0.055731 0.132771 -0.080635 0.178432 -0.244297 -0.519815 0.295578 0.102743 0.283193 -0.184430 -0.241197 -0.168544 -0.087312 0.174858 0.215066 -0.221688 -0.526047 -0.335783 0.125116 -0.098371 0.013731 -0.182967 -0.119360 -0.097168 -0.196881 0.043995 -0.016999 0.318938 -0.468430 0.152171 0.079612 0.577194 0.286204 0.209575 -0.169497 -0.000887 -0.138475 0.290050 -0.424020 -0.101366 -0.084451 0.194151 -0.021396 0.135951 0.230683 0.148421 0.209118 -0.153844 -0.245378 0.277139 0.683287 0.213766 -0.190506 0.284680 0.152655 -0.610596 -0.601921 0.255718 -0.212859 0.418412 0.204274 -0.226718 -0.018131 -0.445252 -0.241871 0.337544 -0.279943 -0.148359 0.056609 0.135404 0.216203 -0.583870 0.314600 -0.220423 -0.333509 -0.460213 -0.464687 0.443109 0.331125 -0.318739 0.322582 0.170818 -0.329678
28 0.075935 -0.039458 0.166411 -0.004508 0.179259 0.433474 -0.047384 -0.214659 -0.355807 0.179825 0.146420 0.095657 -0.187049 -0.248534 -0.114087 -0.365824 -0.101924 -0.050581 -0.040153 0.290077 -0.010900 0.378691 0.042181 -0.107507 0.022700 0.009566 0.614969 -0.441336 0.265438 0.141028 0.175351 -0.408919 -0.202516 0.099394 0.269687 -0.085894 -0.013351 -0.121952 0.099868 0.272865 -0.254744 0.042224 0.031291 -0.057433 -0.304021 0.542519 -0.354484 -0.319863 0.245740 -0.366736 -0.285574 -0.166613 0.229791 0.341136 0.251684 0.059347 -0.313078 -0.520081 0.102827 0.309805 0.337472 -0.565336 -0.280758 0.338622 0.116823 -0.096888 -0.254544 -0.263581 0.046087 -0.432013 0.216547 0.201463 -0.113190 -0.436131 0.430154 0.063643 0.470026 0.426211 0.122284 -0.020852 -0.516609 -0.301976 -0.123242 -0.081441 0.040989 0.500963 0.036827 0.000671 -0.103271 -0.023636 0.223956 -0.282094 -0.122275 -0.061214 -0.028209 -0.057544 -0.153793 -0.125491 0.249774 -0.302504 -0.530945 0.234809 -0.124849 0.140311 0.644379 0.223030 0.170608 -0.496568 0.070536 -0.922529 0.029581 -0.632044 -0.367996 -0.197460 0.364673 -0.040211 -0.316815 0.113769 -0.221652 -0.358673 -0.596475 -0.431533 -0.300213 -0.214771 -0.045496 -0.388309 -0.078495 -0.449607
26 0.054491 -0.021798 0.171392 0.013233 0.155192 0.452080 -0.026844 -0.224017 -0.330630 0.168768 0.136581 0.074792 -0.148954 -0.279010 -0.134960 -0.349390 -0.100722 -0.022441 -0.059790 0.297402 0.010760 0.387442 0.071852 -0.147302 0.023001 0.009203 0.598382 -0.434777 0.271314 0.106954 0.194398 -0.412051 -0.232280 0.063292 0.268380 -0.067487 -0.024312 -0.087746 0.115834 0.289873 -0.258610 0.035618 0.028243 -0.078135 -0.293718 0.530172 -0.352280 -0.343679 0.234011 -0.331630 -0.260147 -0.186146 0.226365 0.290149 0.237363 0.057846 -0.293705 -0.525255 0.112095 0.323685 0.345112 -0.551214 -0.268808 0.338122 0.149583 -0.102420 -0.240407 -0.287861 0.064056 -0.391584 0.214822 0.186173 -0.087510 -0.437980 0.430364 0.032101 0.475074 0.398741 0.074740 -0.035147 -0.513298 -0.309319 -0.102452 -0.123894 0.055698 0.512162 0.041855 0.012022 -0.131488 -0.019598 0.229729 -0.271915 -0.082400 -0.015708 -0.044272 -0.068704 -0.175737 -0.127471 0.233687 -0.286621 -0.477596 0.208830 -0.111066 0.150583 0.603473 0.215254 0.166084 -0.470162 0.079600 -0.897304 0.021705 -0.611627 -0.336205 -0.202540 0.365325 -0.048279 -0.314249 0.117382 -0.207909 -0.354339 -0.593878 -0.423225 -0.334957 -0.194722 -0.036552 -0.388027 -0.054859 -0.472648
230 -0.048844 -0.169055 0.012372 -0.606264 0.459782 -0.023409 -0.259294 0.186155 -0.111214 -0.066064 -0.216371 -0.155624 -0.390132 -0.156984 -0.284495 -0.175781 0.091941 -0.178790 -0.331091 0.123976 0.612885 0.089357 -0.265109 0.116621 -0.589890 0.157956 0.065025 0.084677 0.223255 -0.087416 0.369646 -0.238308 -0.537895 -0.054029 -0.198929 0.521041 0.277976 0.101661 0.086735 0.093156 0.160956 0.510644 0.055584 -0.133132 -0.059178 0.067413 0.123766 -0.074841 0.178805 -0.250397 -0.482995 0.294853 0.113367 0.330429 -0.137430 -0.230242 -0.200451 -0.088197 0.195783 0.220375 -0.217400 -0.543246 -0.345045 0.099041 -0.102425 0.033145 -0.146347 -0.145146 -0.118304 -0.224221 0.113368 -0.026158 0.294694 -0.467417 0.179079 0.098802 0.556788 0.320505 0.266712 -0.155408 -0.029673 -0.129512 0.242725 -0.386592 -0.114344 -0.105023 0.182769 -0.029702 0.122615 0.236421 0.141764 0.172705 -0.173261 -0.287320 0.269791 0.641548 0.177446 -0.231796 0.325186 0.139899 -0.606241 -0.576247 0.219953 -0.217657 0.432131 0.197408 -0.187804 -0.048590 -0.436658 -0.303602 0.301722 -0.348602 -0.166794 0.028547 0.129114 0.224689 -0.598720 0.277787 -0.246167 -0.329876 -0.496105 -0.476507 0.466014 0.347719 -0.314817 0.291539 0.180217 -0.323235
57 -0.052994 -0.103065 -0.246787 -0.093285 0.101096 0.165742 -0.247659 -0.049067 0.062111 0.240183 -0.026347 -0.065818 0.049829 -0.093563 -0.363040 -0.553993 -0.228401 0.204336 -0.005294 0.182404 0.147166 0.098907 0.095367 -0.271761 0.257937 -0.150015 0.112574 0.032143 0.087343 -0.096761 0.081007 0.151654 -0.108878 -0.194818 0.120712 0.265977 -0.575872 -0.082825 0.029035 0.097048 0.035736 0.453216 0.000812 -0.188332 -0.331430 0.204299 0.122336 -0.154449 0.192862 0.079277 -0.354815 -0.154722 0.372760 0.196742 -0.258233 -0.277769 -0.024762 -0.148157 0.038925 0.310122 -0.334880 0.046397 -0.333473 -0.164336 -0.490744 -0.138892 0.046367 0.295142 -0.053518 -0.083157 0.011905 0.321803 0.406008 -0.557818 0.103649 -0.357465 0.287697 0.421144 0.077903 -0.443004 -0.101598 -0.174726 0.111450 0.082669 0.313883 0.395468 0.656532 -0.180041 -0.309608 0.132598 0.282437 -0.048357 -0.242456 -0.179684 -0.402434 -0.022705 0.036707 -0.128232 0.193160 -0.079820 -0.303587 0.159658 -0.213368 -0.392692 0.137076 0.070254 0.431552 0.263897 0.144302 -0.059323 -0.038990 0.163461 -0.183343 -0.128509 -0.091665 -0.156515 -0.081997 0.268935 -0.238873 0.062623 -0.169274 -0.234902 -0.259098 -0.454682 -0.121041 0.125460 0.009534 -0.231911
132 -0.196911 -0.221743 0.034508 -0.216609 -0.105377 -0.320068 -0.334097 0.047405 0.174816 0.315035 -0.269206 -0.243611 -0.212701 -0.412610 0.058517 -0.356341 -0.115150 -0.095283 0.061688 -0.007994 -0.159435 0.480411 -0.313613 0.166194 -0.158684 -0.033985 0.642405 -0.147826 0.471046 0.094433 0.301931 -0.369121 -0.296430 -0.210444 -0.076440 0.358114 -0.163228 0.163674 -0.360089 -0.154204 -0.036250 0.178372 0.375530 0.259129 -0.136687 0.445154 0.276258 -0.158694 0.322350 -0.026116 -0.679609 0.040405 -0.508991 0.008945 -0.247766 -0.154626 0.226077 -0.059178 0.187751 0.147332 -0.071193 -0.183384 -0.409962 0.112470 -0.024262 -0.163744 -0.650065 0.152308 0.226237 -0.554496 -0.177381 0.011342 -0.235987 -0.072164 0.125313 0.244995 0.379626 0.161145 -0.105430 -0.373814 -0.245643 0.087609 0.110541 0.145013 0.085725 0.396338 0.412821 0.062309 -0.123985 -0.279360 0.285432 0.025692 -0.395016 0.118837 -0.410377 0.250307 0.271991 0.147885 0.543318 0.021857 -0.491234 0.240629 0.070981 -0.061389 -0.119245 0.001529 -0.132986 -0.563079 -0.027031 -0.368256 0.375595 -0.331273 -0.174559 0.107793 0.496765 0.222603 -0.068835 0.807146 0.130629 0.178448 -0.401196 -0.312664 -0.308273 -0.627517 -0.255810 0.262135 0.014620 -0.335082
157 -0.383636 -0.066265 -0.517523 -0.026202 -0.058253 0.454048 -0.571345 -0.261220 0.030842 0.413873 -0.069776 -0.383351 -0.244433 -0.182805 -0.319498 -0.264164 -0.230117 0.395704 -0.187599 0.491955 -0.106400 0.407905 -0.044523 0.517276 -0.428657 0.362316 0.522085 -0.206893 0.023210 -0.235661 0.655498 -0.577269 0.175735 0.257558 -0.342462 0.093878 -0.410121 -0.007335 -0.021654 0.113845 0.051489 0.797194 0.161526 0.141810 -0.702589 0.342673 -0.381053 0.158109 0.550326 0.436523 -0.477521 -0.341574 -0.248262 0.248735 -0.350150 -0.456525 -0.449956 0.003522 0.196895 0.285303 0.165146 -0.869183 -0.293355 -0.387795 -0.442335 0.064967 -0.602154 -0.539516 -0.513090 -0.249655 0.123679 0.596201 0.263255 -0.069301 0.166239 0.141772 0.828240 0.412160 0.448381 -0.599733 0.024278 -0.278920 0.608952 0.251925 -0.305125 -0.118047 0.123402 -0.127126 -0.017478 -0.127809 0.057622 0.055428 -0.287189 -0.308190 -0.109071 0.560141 -0.356852 -0.671880 0.302774 0.350126 0.091705 0.053650 -0.229701 0.593520 -0.093917 0.098477 0.428960 -0.184143 -0.101439 -0.905258 0.054926 -0.424436 -0.386284 0.458044 0.486260 0.238912 -0.218466 0.471595 -0.148377 0.005525 -0.323384 -0.653999 -0.213079 0.042724 0.153009 0.265729 -0.344470 -0.280409
3 -0.179224 -0.260737 0.017745 -0.218447 -0.090852 -0.352583 -0.319384 0.051682 0.163389 0.284533 -0.270906 -0.245851 -0.222147 -0.427438 0.046641 -0.376245 -0.093488 -0.105769 0.052378 -0.022610 -0.133277 0.450195 -0.302097 0.157816 -0.162215 -0.050637 0.598077 -0.141533 0.466751 0.082519 0.295238 -0.364455 -0.319955 -0.188817 -0.096363 0.327905 -0.134899 0.165795 -0.346910 -0.137789 -0.038319 0.169718 0.354208 0.265002 -0.162618 0.430124 0.298507 -0.183136 0.301772 -0.009146 -0.641192 0.045939 -0.503441 -0.003918 -0.277667 -0.155859 0.209120 -0.053241 0.180603 0.167095 -0.092067 -0.173409 -0.394970 0.137848 -0.016288 -0.155904 -0.639375 0.159018 0.233301 -0.561438 -0.155447 0.007457 -0.238842 -0.077171 0.114895 0.237804 0.374951 0.127864 -0.101681 -0.369209 -0.234162 0.111525 0.102423 0.102790 0.091206 0.371325 0.382035 0.104812 -0.134413 -0.272514 0.268754 0.040250 -0.383370 0.137449 -0.411518 0.270276 0.258152 0.153430 0.531097 0.037291 -0.503976 0.220067 0.080220 -0.048547 -0.103940 0.021227 -0.159006 -0.555825 -0.049642 -0.379685 0.401980 -0.319600 -0.172428 0.096757 0.505998 0.219679 -0.063342 0.787105 0.152729 0.182105 -0.389797 -0.333116 -0.298916 -0.624707 -0.251794 0.273542 0.034308 -0.347130
93 -0.002864 -0.158051 0.030082 -0.555628 0.425563 -0.033009 -0.212200 0.182618 -0.123493 -0.065803 -0.201563 -0.148706 -0.358746 -0.157172 -0.262131 -0.193925 0.095451 -0.170790 -0.336171 0.114259 0.614860 0.060187 -0.226873 0.077320 -0.560968 0.147764 0.058063 0.074681 0.220174 -0.105451 0.351044 -0.233191 -0.551119 -0.067246 -0.163504 0.512699 0.290848 0.099486 0.085943 0.086455 0.158532 0.491138 0.032404 -0.138709 -0.046905 0.065244 0.129726 -0.088590 0.180117 -0.254445 -0.455656 0.309417 0.118551 0.320373 -0.130177 -0.239987 -0.205627 -0.105837 0.197481 0.210424 -0.231383 -0.491095 -0.328692 0.095033 -0.131775 0.045277 -0.146375 -0.114168 -0.109702 -0.235837 0.108148 -0.051024 0.292872 -0.510311 0.183834 0.073723 0.538278 0.300874 0.241000 -0.165174 -0.031872 -0.124154 0.241997 -0.410623 -0.091513 -0.088333 0.191819 -0.010096 0.107399 0.232728 0.168360 0.174291 -0.144972 -0.261104 0.268183 0.631166 0.185800 -0.217079 0.295739 0.117134 -0.629054 -0.561617 0.228284 -0.261194 0.444930 0.225406 -0.188349 -0.017738 -0.449486 -0.274379 0.304550 -0.336284 -0.157773 0.011291 0.128987 0.210824 -0.584920 0.264129 -0.230665 -0.330051 -0.503950 -0.450564 0.456612 0.324478 -0.319338 0.313333 0.196999 -0.324232
299 0.069251 -0.015314 -0.152652 0.015450 0.165483 0.222228 -0.111167 0.086924 0.039529 0.191317 -0.066580 -0.074457 0.152953 -0.135309 -0.344010 -0.383896 -0.140798 0.266981 -0.068295 0.156659 0.240600 0.076267 0.101005 -0.217192 0.206448 -0.054449 0.146450 -0.012366 0.071188 -0.152027 0.127297 0.100320 -0.159917 -0.368085 0.130755 0.202226 -0.441257 -0.061734 0.124404 0.058201 0.044175 0.392565 0.086431 -0.137382 -0.276255 0.149051 0.079692 -0.096665 0.286975 0.068891 -0.268072 -0.041736 0.395779 0.218988 -0.211894 -0.274852 -0.061213 -0.066444 0.053370 0.326173 -0.408609 -0.108692 -0.383765 -0.203098 -0.472910 -0.024001 0.023034 0.341154 -0.183412 0.042543 0.107118 0.349877 0.462065 -0.597741 0.064050 -0.347878 0.388287 0.460706 -0.002872 -0.450546 -0.074631 -0.139750 0.159607 0.134726 0.250926 0.319286 0.638885 -0.324508 -0.240855 0.155873 0.313520 0.006622 -0.104929 -0.195622 -0.329704 0.179961 0.040158 -0.238528 0.068531 -0.075380 -0.333453 0.126764 -0.066042 -0.346916 0.057592 0.062316 0.539896 0.321060 0.093553 0.035454 0.054471 0.182951 -0.176557 -0.175750 -0.139118 -0.088855 -0.254331 0.292596 -0.159237 0.050904 -0.186297 -0.233439 -0.164418 -0.336698 -0.092212 0.128501 0.004990 -0.191526
228 0.045387 0.050814 -0.152615 0.110211 0.099938 0.189174 -0.154254 -0.006973 0.032655 0.224268 -0.075792 -0.095239 0.104642 -0.134957 -0.291584 -0.367055 -0.184733 0.279552 -0.023957 0.148494 0.168913 0.180887 0.155675 -0.130703 0.275375 -0.079584 0.232905 0.015259 0.019620 -0.129036 0.111281 0.091801 -0.084157 -0.335339 0.176563 0.174447 -0.400961 -0.138324 0.140477 0.098412 0.078527 0.409390 0.110591 -0.086796 -0.296551 0.142661 0.053804 -0.100161 0.217806 0.108368 -0.344201 -0.064656 0.401825 0.157394 -0.244946 -0.322976 -0.049791 -0.020143 0.094122 0.287419 -0.346918 -0.082754 -0.417757 -0.234471 -0.532567 -0.057471 -0.024454 0.282684 -0.231033 -0.037712 0.131300 0.341986 0.463684 -0.580970 0.050600 -0.336231 0.382943 0.511908 0.015643 -0.432365 -0.117477 -0.081543 0.118996 0.208717 0.250836 0.331403 0.659484 -0.318004 -0.221001 0.120438 0.358257 0.008865 -0.136286 -0.186249 -0.367709 0.100877 0.013994 -0.204478 0.063549 -0.079323 -0.265328 0.167747 -0.082600 -0.312221 0.054258 0.085853 0.591634 0.268138 0.051181 -0.011800 0.044404 0.137400 -0.199569 -0.116023 -0.107567 -0.102435 -0.207978 0.287903 -0.135888 0.049285 -0.215612 -0.152517 -0.176315 -0.442086 -0.141982 0.086047 -0.049881 -0.152418
161 -0.190714 -0.207769 0.049608 -0.220148 -0.091936 -0.327496 -0.337042 0.051733 0.173605 0.303287 -0.276399 -0.244345 -0.213035 -0.418295 0.049141 -0.337938 -0.098477 -0.101011 0.049852 -0.016832 -0.140675 0.471724 -0.299097 0.163875 -0.181407 -0.041098 0.623421 -0.141755 0.479214 0.094634 0.304478 -0.359842 -0.308677 -0.216196 -0.092334 0.358262 -0.151230 0.184256 -0.350685 -0.142984 -0.019360 0.174701 0.370371 0.257253 -0.112049 0.441383 0.284114 -0.177488 0.308900 -0.026907 -0.677983 0.047914 -0.504421 -0.012814 -0.249086 -0.142154 0.249770 -0.052631 0.198135 0.147710 -0.083326 -0.170042 -0.402488 0.131445 0.002518 -0.155284 -0.641765 0.159236 0.237066 -0.556762 -0.193190 -0.010228 -0.239747 -0.067430 0.118707 0.259980 0.378246 0.148699 -0.112606 -0.366679 -0.239768 0.098447 0.105886 0.125257 0.062094 0.389152 0.391462 0.073769 -0.115882 -0.283748 0.279432 0.036903 -0.410076 0.124361 -0.408517 0.247707 0.285683 0.169353 0.532334 0.045013 -0.497482 0.237523 0.080832 -0.073811 -0.122122 0.008981 -0.176253 -0.585717 -0.043726 -0.369986 0.378551 -0.334857 -0.161385 0.090141 0.485592 0.217441 -0.074883 0.814351 0.144467 0.190876 -0.395825 -0.305275 -0.311809 -0.614652 -0.261604 0.275590 0.034982 -0.330952
252 0.111858 -0.085730 -0.059665 0.113068 0.265729 0.294061 -0.066249 0.071656 0.145424 0.224909 -0.030801 -0.024579 0.179914 -0.117298 -0.240612 -0.285062 -0.121368 0.223205 -0.014356 0.223693 0.260184 0.081535 0.128751 -0.167181 0.165445 -0.037650 0.212379 -0.095361 -0.018186 -0.211709 0.020603 -0.054759 -0.176628 -0.467116 0.124312 0.166767 -0.328181 -0.109510 0.114008 -0.048921 0.022851 0.250063 0.239766 -0.010936 -0.233026 0.266101 0.020951 -0.063181 0.444140 -0.062284 -0.162958 0.032526 0.279843 0.192678 -0.080969 -0.247958 0.043678 0.003253 0.075794 0.356573 -0.410337 -0.172581 -0.376804 -0.196862 -0.460307 -0.051121 -0.099918 0.377832 -0.280212 0.074839 0.139734 0.325673 0.433495 -0.578516 0.133451 -0.349541 0.389425 0.406073 -0.085546 -0.439105 -0.141573 -0.148155 0.155464 0.255411 0.233364 0.290919 0.614859 -0.468815 -0.117593 0.145892 0.359601 0.061112 -0.071130 -0.177760 -0.248884 0.188221 0.114815 -0.333581 0.115841 -0.096750 -0.401079 0.196100 -0.109207 -0.330221 0.011062 0.171319 0.668164 0.418189 0.236505 -0.030591 0.059905 0.178453 -0.204316 -0.224762 -0.082727 -0.028573 -0.139309 0.391045 -0.198498 0.188975 -0.165433 -0.304406 -0.149049 -0.420287 -0.012204 0.162513 -0.046209 -0.090367
7 0.111964 -0.089330 -0.164066 -0.007261 0.192605 0.216007 -0.122175 0.075555 0.069413 0.189276 -0.052841 -0.065178 0.132405 -0.162674 -0.363273 -0.472006 -0.169178 0.209634 -0.087203 0.180918 0.280689 0.073402 0.139746 -0.265859 0.257855 -0.118944 0.112707 0.030740 0.061905 -0.171985 0.074959 0.107516 -0.262660 -0.403845 0.124526 0.248916 -0.470193 -0.110955 0.125248 0.057777 -0.004024 0.408423 0.112959 -0.163135 -0.293619 0.187593 0.153947 -0.147911 0.274984 0.020101 -0.313588 -0.027882 0.406350 0.184734 -0.205492 -0.272805 -0.019181 -0.131011 0.099880 0.379572 -0.396364 -0.051407 -0.381230 -0.135965 -0.417502 -0.081207 0.019238 0.364294 -0.112405 -0.049578 0.094178 0.263030 0.393220 -0.645606 0.069120 -0.348993 0.315514 0.397427 -0.042717 -0.455535 -0.092703 -0.128064 0.087381 0.086333 0.333189 0.328904 0.618885 -0.260757 -0.290139 0.152451 0.342963 0.023310 -0.058363 -0.167890 -0.327131 0.112289 0.092835 -0.185268 0.110032 -0.100531 -0.436648 0.146026 -0.073973 -0.442624 0.092151 0.082913 0.503427 0.354966 0.145248 0.046252 0.047333 0.244426 -0.172548 -0.186308 -0.121174 -0.116937 -0.202889 0.301672 -0.172418 0.055839 -0.221851 -0.228625 -0.173362 -0.419898 -0.113020 0.117697 0.071994 -0.218185
278 0.005185 0.112981 -0.222949 0.038889 0.060108 0.158922 -0.161985 0.018587 -0.026618 0.196299 -0.099073 -0.146862 0.107987 -0.168919 -0.349491 -0.433014 -0.152157 0.307947 -0.057732 0.113676 0.201496 0.198908 0.118593 -0.178474 0.273517 -0.085930 0.186743 0.097569 0.036788 -0.101564 0.158380 0.195919 -0.056850 -0.286040 0.184205 0.182297 -0.412634 -0.107678 0.155274 0.189566 0.105981 0.498385 0.011865 -0.173736 -0.286167 0.026213 0.096859 -0.118078 0.089864 0.167642 -0.417061 -0.067340 0.452709 0.221292 -0.290115 -0.366486 -0.094515 -0.058595 0.096097 0.239865 -0.361775 -0.045458 -0.393802 -0.238746 -0.518296 -0.047920 0.031966 0.261437 -0.197001 -0.077314 0.109686 0.318903 0.486259 -0.582515 0.037143 -0.291733 0.380157 0.558433 0.071529 -0.405428 -0.039711 -0.055659 0.121291 0.140240 0.264802 0.317977 0.679228 -0.269220 -0.261060 0.124110 0.361262 -0.047597 -0.167416 -0.221082 -0.368304 0.118061 -0.035274 -0.165795 0.059957 -0.074714 -0.244169 0.127678 -0.011583 -0.369857 0.092485 0.004002 0.457017 0.204927 -0.056688 -0.022586 0.016019 0.104850 -0.175170 -0.092811 -0.147476 -0.141229 -0.316994 0.225124 -0.111545 -0.029869 -0.280621 -0.072650 -0.148022 -0.330905 -0.210976 0.088496 -0.004240 -0.229298
204 -0.700933 0.564201 0.574727 -0.147557 -0.008626 0.629239 -0.176873 -0.185328 0.167611 0.339561 0.033005 -0.345697 -0.085172 -0.449674 -0.408211 0.190145 0.227034 0.231492 -0.329201 0.669741 0.039095 0.654256 -0.150115 -0.362018 -0.376406 0.368459 0.359178 -0.061593 0.290347 -0.430931 0.737434 -0.345938 -0.203528 -0.467928 0.276092 0.722810 -0.341419 0.638911 0.243136 0.211920 -0.094467 0.429380 0.257537 -0.269055 0.250729 0.208236 -0.054849 -0.194169 0.303070 -0.004665 -0.608787 -0.327510 -0.035340 -0.129606 -0.012888 -0.204594 0.493678 -0.257155 0.371351 0.176315 -0.147119 -0.415761 -0.329336 0.127879 0.396465 -0.223222 -0.178565 -0.038005 -0.204429 -0.186837 -0.397595 -0.105781 0.397802 -0.250169 0.468595 -0.039788 0.955544 0.471134 0.036253 -0.122106 -0.126688 -0.437280 0.398037 -0.046352 -0.137777 0.411349 0.415444 -0.629265 0.147001 -0.035536 0.224793 0.024095 -0.116573 -0.100401 -0.040691 0.080904 -0.265013 -0.160790 0.375173 0.307944 -0.001997 0.073123 -0.028502 -0.394992 0.006488 -0.022261 0.006426 -0.040107 0.379084 -0.727656 -0.083184 -0.320622 0.116307 0.149195 -0.180054 0.231649 -0.609430 0.810604 -0.110749 0.211790 -0.668473 -0.101254 -0.518900 0.280233 -0.102271 -0.163480 0.528055 -0.234316
273 -0.260710 -0.157633 0.108307 -0.495894 0.277491 0.271901 -0.791537 0.105365 -0.357611 -0.093644 -0.322680 0.044484 -0.628847 -0.106687 0.057714 -0.056355 -0.230283 0.120054 -0.180386 -0.444575 -0.281546 0.284540 -0.403535 0.059631 -0.172196 0.056779 0.553438 -0.959833 0.595616 0.226555 0.364145 0.060538 0.100609 -0.319915 0.116077 0.197193 0.056370 0.346830 0.247956 -0.166523 0.447836 0.331727 -0.137213 0.316342 0.244061 0.389357 -0.263145 -0.216535 0.164691 -0.008778 -0.514117 -0.118855 0.242472 0.440804 0.304649 -0.395581 0.066920 -0.002268 0.257703 -0.188268 0.005505 -0.277395 -0.624041 0.175091 0.057792 0.435217 0.070117 0.133747 -0.113824 -0.085596 -0.333094 0.194025 0.225781 -0.189600 0.084346 -0.101845 0.907725 0.841246 -0.177551 -0.586307 0.050969 -0.428751 0.017627 0.138481 -0.520823 0.570061 0.463002 -0.541517 -0.084811 0.477731 0.120685 0.078376 -0.911731 -0.379171 -0.234977 0.057493 0.423840 -0.556759 -0.153830 0.036398 -0.140714 -0.196172 -0.011923 -0.309516 0.131421 0.287006 0.025447 -0.445332 -0.054533 -0.897153 -0.292941 -0.498418 -0.443405 -0.309704 0.161151 -0.026236 -0.223588 0.587990 -0.701767 0.100473 -0.456870 0.003753 -0.448837 -0.251218 -0.776341 0.634820 0.084563 -0.023752
135 -0.076274 -0.083877 -0.260274 -0.025905 0.091381 0.235826 -0.243066 -0.041518 0.084773 0.280275 0.006854 -0.084819 0.070804 -0.114306 -0.363612 -0.527645 -0.242303 0.233707 -0.004431 0.207333 0.096579 0.131324 0.121387 -0.259576 0.301238 -0.158049 0.176789 -0.019582 0.089302 -0.140248 0.100723 0.116508 -0.093358 -0.260295 0.144922 0.226444 -0.630142 -0.093980 0.042496 0.075329 0.026605 0.449756 0.043159 -0.156923 -0.364070 0.242524 0.095269 -0.150250 0.243760 0.105802 -0.336756 -0.198941 0.348972 0.173823 -0.238900 -0.284765 0.011846 -0.166275 0.057870 0.333877 -0.346861 0.012170 -0.355883 -0.186044 -0.509607 -0.133281 0.012691 0.323399 -0.089658 -0.070608 -0.000749 0.350531 0.396053 -0.547989 0.096655 -0.365967 0.308334 0.430863 0.035377 -0.493965 -0.099145 -0.194511 0.121246 0.130282 0.311500 0.404759 0.677179 -0.231894 -0.313297 0.113896 0.294348 -0.062804 -0.225110 -0.178017 -0.428577 -0.041834 0.022035 -0.173236 0.199771 -0.079525 -0.300515 0.243608 -0.218280 -0.379745 0.073001 0.053198 0.484864 0.269580 0.224364 -0.088132 -0.059693 0.174341 -0.169100 -0.130963 -0.068910 -0.154968 -0.064222 0.328620 -0.208458 0.124444 -0.179767 -0.234885 -0.334139 -0.511133 -0.067150 0.125334 -0.012303 -0.221067
45 0.068022 -0.017886 -0.137855 -0.051367 0.168818 0.304158 -0.094308 0.130843 0.086036 0.199771 -0.046983 -0.039873 0.231663 -0.125961 -0.302217 -0.386422 -0.141784 0.225492 -0.147175 0.095468 0.225810 -0.071076 0.008681 -0.371282 0.210108 -0.117227 0.022466 -0.199583 0.155379 -0.144704 0.160749 0.158806 -0.227362 -0.281915 0.106528 0.216342 -0.558631 0.091405 0.054578 0.019389 0.047346 0.372111 -0.079644 -0.231174 -0.353157 0.136793 0.134139 -0.092431 0.410567 0.129521 -0.160815 -0.113845 0.408105 0.297337 -0.166415 -0.213631 -0.047745 -0.208901 0.002043 0.361400 -0.397549 -0.138876 -0.376012 -0.133383 -0.402082 0.060223 0.073485 0.434460 -0.169457 0.184488 0.010061 0.439492 0.563758 -0.593259 0.144811 -0.363084 0.449322 0.433610 0.027276 -0.362290 -0.067562 -0.224123 0.150489 0.052333 0.235409 0.274214 0.685865 -0.328279 -0.241819 0.175905 0.316090 -0.068412 -0.090142 -0.196069 -0.358540 0.308959 -0.038959 -0.330867 0.139452 -0.107637 -0.414225 0.179578 -0.096615 -0.234040 0.120490 -0.017113 0.399020 0.385419 0.135105 -0.043807 -0.005475 0.114913 -0.206262 -0.356025 -0.162009 -0.105080 -0.297225 0.241862 -0.289499 0.073725 -0.156958 -0.346958 -0.183376 -0.246216 -0.109677 0.148517 0.069772 -0.250651
234 0.012615 -0.028169 -0.170784 0.026682 0.154106 0.235851 -0.159604 0.013130 0.028684 0.219848 -0.034456 -0.074543 0.084674 -0.125550 -0.357916 -0.424537 -0.187629 0.260495 -0.019594 0.208572 0.196236 0.134148 0.149564 -0.199039 0.221538 -0.061934 0.176823 0.028222 0.041016 -0.169670 0.098164 0.078537 -0.122568 -0.341227 0.148942 0.218498 -0.457478 -0.114285 0.141639 0.067461 0.053269 0.432461 0.117972 -0.127878 -0.274880 0.181231 0.044849 -0.110733 0.224029 0.065950 -0.308602 -0.097561 0.390159 0.175891 -0.196715 -0.297207 -0.030778 -0.070615 0.084125 0.308523 -0.364697 -0.054394 -0.372454 -0.215420 -0.474794 -0.078971 0.000765 0.287325 -0.174373 -0.049343 0.094031 0.288989 0.420429 -0.597755 0.056154 -0.363660 0.363221 0.466489 0.003967 -0.481126 -0.081931 -0.168155 0.141716 0.147821 0.264992 0.346934 0.624505 -0.313320 -0.261169 0.144979 0.299928 0.000480 -0.150098 -0.195245 -0.331191 0.037021 0.054578 -0.211325 0.096094 -0.055481 -0.287686 0.139003 -0.121631 -0.396321 0.058402 0.101976 0.572780 0.323402 0.126677 -0.007128 -0.011168 0.200973 -0.168718 -0.100296 -0.099915 -0.121208 -0.155231 0.327811 -0.157771 0.084015 -0.213681 -0.191041 -0.224893 -0.423998 -0.091886 0.120619 -0.004175 -0.178257
25 -0.099826 -0.090872 -0.274907 -0.032945 0.081028 0.232546 -0.269514 -0.077059 0.076871 0.288037 0.007079 -0.099075 0.042361 -0.112824 -0.392873 -0.568883 -0.254817 0.223635 0.006204 0.249722 0.095227 0.154579 0.151148 -0.257351 0.310919 -0.166297 0.185841 0.032746 0.074623 -0.141355 0.092427 0.120404 -0.092652 -0.254378 0.147435 0.237492 -0.644903 -0.111974 0.051462 0.084423 -0.003682 0.474156 0.052128 -0.186288 -0.348295 0.253120 0.098975 -0.143125 0.201867 0.095798 -0.389636 -0.208000 0.362350 0.165963 -0.243590 -0.291800 0.008677 -0.182113 0.060892 0.342812 -0.316738 0.037130 -0.333500 -0.188611 -0.498600 -0.165776 0.012008 0.299689 -0.061569 -0.138329 0.001061 0.314853 0.369340 -0.562337 0.091832 -0.358969 0.282014 0.442839 0.049731 -0.508135 -0.108982 -0.194254 0.106281 0.122629 0.322432 0.427628 0.662096 -0.217585 -0.349494 0.097080 0.281325 -0.084575 -0.214744 -0.180100 -0.428144 -0.090604 0.022972 -0.122697 0.211507 -0.072196 -0.306456 0.249441 -0.238845 -0.416496 0.084955 0.057786 0.488569 0.254142 0.234358 -0.077448 -0.077679 0.190184 -0.163099 -0.093011 -0.085117 -0.177904 -0.053536 0.330967 -0.190365 0.101197 -0.197347 -0.211459 -0.343112 -0.536420 -0.075350 0.104720 -0.003764 -0.228356
274 -0.031101 -0.123417 0.049535 -0.609291 0.473608 -0.027239 -0.243266 0.195708 -0.115532 -0.044006 -0.196540 -0.145055 -0.370956 -0.168351 -0.278140 -0.181657 0.107773 -0.183864 -0.358842 0.142490 0.630842 0.086059 -0.263465 0.101890 -0.554105 0.151985 0.042436 0.092919 0.216523 -0.109495 0.351477 -0.228705 -0.523778 -0.087690 -0.147618 0.509951 0.284432 0.108652 0.091947 0.082431 0.159523 0.479865 0.049088 -0.163514 -0.036343 0.060954 0.129728 -0.069624 0.187049 -0.273381 -0.455820 0.305206 0.124100 0.325923 -0.100965 -0.215253 -0.186296 -0.099622 0.197656 0.204525 -0.238450 -0.483918 -0.333080 0.084772 -0.108149 0.031021 -0.115689 -0.108229 -0.099656 -0.227428 0.121150 -0.069042 0.283741 -0.489615 0.189547 0.095363 0.523227 0.331626 0.265012 -0.127949 -0.040425 -0.108456 0.222877 -0.367264 -0.096340 -0.098183 0.185069 -0.037489 0.113464 0.231274 0.159986 0.148166 -0.149414 -0.286704 0.267809 0.609010 0.171848 -0.207230 0.309891 0.117415 -0.606037 -0.540775 0.218908 -0.273743 0.445448 0.201776 -0.190792 -0.032229 -0.425420 -0.292633 0.294615 -0.352294 -0.135153 0.020375 0.096545 0.230061 -0.612646 0.260448 -0.228047 -0.327456 -0.509400 -0.442562 0.469000 0.341973 -0.303441 0.284742 0.217433 -0.307371
127 0.070484 -0.035677 0.188804 -0.004382 0.218260 0.447754 -0.015181 -0.205777 -0.352004 0.146354 0.166067 0.097493 -0.159313 -0.302173 -0.101081 -0.369170 -0.081487 -0.025375 -0.052340 0.219814 0.025548 0.347405 0.070015 -0.153086 0.030163 0.010910 0.566284 -0.430665 0.269246 0.141002 0.160217 -0.375030 -0.250845 0.091528 0.285699 -0.065933 -0.008284 -0.122153 0.104208 0.284839 -0.251725 -0.000390 0.012465 -0.056319 -0.278055 0.507947 -0.322289 -0.347938 0.246998 -0.379114 -0.234761 -0.190416 0.243740 0.361269 0.234900 0.059223 -0.314811 -0.510691 0.103477 0.292803 0.344781 -0.526355 -0.313031 0.385200 0.126216 -0.056389 -0.216998 -0.231422 0.069735 -0.371554 0.212756 0.163662 -0.055787 -0.452263 0.441878 0.004165 0.488176 0.400368 0.090356 -0.045933 -0.497057 -0.330392 -0.141167 -0.176849 0.090295 0.485723 0.045192 0.001045 -0.123617 -0.000068 0.205802 -0.248370 -0.083836 -0.047400 -0.048844 -0.073777 -0.151135 -0.134219 0.222948 -0.279132 -0.561640 0.188082 -0.067944 0.129056 0.623574 0.213373 0.112912 -0.463049 0.032591 -0.877438 0.015395 -0.603431 -0.340950 -0.198381 0.380383 -0.060430 -0.303955 0.115385 -0.245424 -0.381539 -0.569852 -0.394830 -0.316302 -0.201778 -0.066289 -0.368593 -0.057981 -0.436193
242 0.005727 0.042558 -0.236202 0.016141 0.094110 0.210373 -0.176448 0.027674 0.015045 0.204606 -0.070289 -0.133919 0.086724 -0.163433 -0.379766 -0.465862 -0.175156 0.288242 -0.095084 0.153120 0.215531 0.155178 0.120802 -0.231251 0.258374 -0.092411 0.158615 0.051962 0.064409 -0.155875 0.165231 0.173620 -0.114278 -0.295820 0.164939 0.209053 -0.476039 -0.087315 0.140864 0.152662 0.077708 0.494298 0.027569 -0.177860 -0.306334 0.083187 0.104285 -0.122341 0.135954 0.161302 -0.365199 -0.095802 0.438730 0.193478 -0.251888 -0.334128 -0.068747 -0.104089 0.100261 0.260205 -0.371888 -0.041388 -0.373719 -0.197424 -0.491167 -0.062832 0.041081 0.290390 -0.164697 -0.056822 0.087267 0.302007 0.447947 -0.593548 0.035347 -0.335316 0.347747 0.479226 0.037498 -0.433137 -0.025610 -0.108633 0.133159 0.099239 0.279690 0.322735 0.649898 -0.244518 -0.291068 0.148669 0.336508 -0.028845 -0.145267 -0.207787 -0.367341 0.092687 -0.031410 -0.178520 0.083495 -0.058600 -0.301834 0.142111 -0.045231 -0.397380 0.086175 0.004371 0.460711 0.269562 0.040377 -0.029010 -0.014530 0.166671 -0.155650 -0.095444 -0.122806 -0.139274 -0.254661 0.263562 -0.135414 0.022370 -0.247356 -0.124602 -0.199538 -0.349818 -0.146047 0.116668 0.036874 -0.241082
116 0.010846 0.045551 -0.212849 0.059218 0.073525 0.157982 -0.171886 -0.019012 0.029784 0.218228 -0.079318 -0.093789 0.085336 -0.131932 -0.303425 -0.436208 -0.164228 0.273361 -0.041476 0.120286 0.184598 0.166780 0.092279 -0.199595 0.284144 -0.105631 0.198065 0.014836 0.041736 -0.081361 0.146096 0.154201 -0.038160 -0.267730 0.175424 0.196970 -0.445312 -0.096454 0.092349 0.145941 0.079313 0.431167 0.009985 -0.126093 -0.324473 0.105916 0.090498 -0.130710 0.174628 0.148965 -0.364926 -0.081123 0.430049 0.221628 -0.278298 -0.335329 -0.075528 -0.053543 0.082824 0.233439 -0.367569 -0.046775 -0.383103 -0.199371 -0.558567 -0.081647 0.020864 0.287353 -0.176648 -0.028770 0.098424 0.377024 0.467099 -0.541082 0.067696 -0.320199 0.345076 0.489155 0.088041 -0.376063 -0.090567 -0.079467 0.107372 0.176576 0.257221 0.345531 0.656111 -0.236936 -0.231943 0.129801 0.367847 -0.027028 -0.196600 -0.196474 -0.400878 0.096255 -0.042992 -0.167518 0.088048 -0.088210 -0.279083 0.173307 -0.088856 -0.322050 0.113716 0.028550 0.477140 0.209016 0.014816 -0.072612 0.009687 0.095563 -0.181424 -0.121921 -0.109166 -0.124974 -0.202715 0.202026 -0.169737 0.033893 -0.209150 -0.140909 -0.167376 -0.383444 -0.172606 0.103944 -0.042874 -0.201967
183 -0.070300 -0.148001 0.023796 -0.579125 0.440661 -0.015936 -0.244475 0.167260 -0.110920 -0.057154 -0.198751 -0.180001 -0.380819 -0.155660 -0.273506 -0.146260 0.099429 -0.158131 -0.330107 0.146722 0.592535 0.099518 -0.255694 0.115528 -0.604255 0.188928 0.064957 0.086354 0.224461 -0.110109 0.399858 -0.267394 -0.519044 -0.037284 -0.187797 0.529898 0.268144 0.123098 0.096476 0.103887 0.142766 0.508954 0.050841 -0.131464 -0.049594 0.065674 0.106770 -0.065968 0.195240 -0.225995 -0.482587 0.284465 0.087002 0.314414 -0.137764 -0.250362 -0.195574 -0.105069 0.202055 0.216566 -0.194491 -0.543806 -0.332194 0.086145 -0.092215 0.018728 -0.152460 -0.144143 -0.124008 -0.214475 0.080624 -0.027121 0.289453 -0.454084 0.179481 0.107195 0.580519 0.306933 0.277911 -0.142104 -0.022678 -0.138756 0.272001 -0.386595 -0.140392 -0.114175 0.153624 -0.041329 0.135219 0.237535 0.146535 0.181288 -0.158354 -0.285937 0.273265 0.664836 0.152160 -0.232464 0.315010 0.150827 -0.582666 -0.565639 0.224061 -0.212097 0.427372 0.193610 -0.210133 -0.041054 -0.443833 -0.327813 0.304793 -0.351657 -0.148506 0.046128 0.137007 0.235075 -0.612177 0.289372 -0.239657 -0.333083 -0.505368 -0.472341 0.446335 0.367974 -0.293097 0.284340 0.180567 -0.324995
202 0.100508 -0.050958 -0.256472 0.032162 0.162755 0.207323 -0.108116 0.068737 0.044321 0.180816 -0.050489 -0.077168 0.150413 -0.125451 -0.328292 -0.415611 -0.176924 0.294532 -0.067572 0.145124 0.224369 0.090172 0.116340 -0.194779 0.232021 -0.068490 0.162433 -0.034209 0.080622 -0.127296 0.155198 0.111032 -0.132811 -0.311326 0.128170 0.154373 -0.456779 -0.112295 0.120985 0.076443 0.052736 0.398504 0.068307 -0.096069 -0.368382 0.177379 0.093350 -0.125583 0.244491 0.090637 -0.239814 -0.054346 0.388417 0.186654 -0.259422 -0.260890 -0.081077 -0.105038 0.052075 0.330357 -0.392034 -0.114050 -0.400517 -0.199616 -0.529068 -0.051336 0.024617 0.291793 -0.182531 0.074453 0.115890 0.397091 0.428195 -0.588393 0.039285 -0.365900 0.337752 0.406612 -0.015241 -0.477458 -0.078269 -0.143465 0.156003 0.126555 0.279378 0.329918 0.630094 -0.262374 -0.263213 0.161272 0.330302 0.031165 -0.106616 -0.178461 -0.357191 0.163529 0.011731 -0.253074 0.069514 -0.084539 -0.329298 0.153531 -0.057360 -0.300498 0.074001 0.062775 0.552866 0.294705 0.083074 -0.031924 0.055499 0.172689 -0.186744 -0.160369 -0.074064 -0.077915 -0.213800 0.245731 -0.175612 0.044571 -0.173949 -0.255394 -0.214913 -0.373517 -0.052671 0.156526 -0.039270 -0.227181
79 -0.186084 -0.201894 0.030800 -0.202961 -0.093927 -0.318712 -0.308429 0.052247 0.175670 0.325649 -0.254253 -0.251050 -0.185435 -0.421397 0.022741 -0.333916 -0.074478 -0.095237 0.059568 0.011871 -0.128603 0.462878 -0.293033 0.165065 -0.176332 -0.038683 0.601004 -0.102118 0.453820 0.081192 0.291081 -0.360751 -0.303711 -0.201809 -0.094434 0.343914 -0.148694 0.169436 -0.352256 -0.136684 -0.032457 0.187501 0.363310 0.238567 -0.151203 0.430645 0.288241 -0.162478 0.312003 -0.033710 -0.656679 0.037751 -0.498415 -0.015114 -0.263406 -0.141073 0.232954 -0.060492 0.190193 0.159325 -0.090982 -0.178361 -0.383989 0.109304 -0.014379 -0.167449 -0.643767 0.150626 0.233430 -0.562351 -0.171064 0.003013 -0.240598 -0.066421 0.123980 0.257054 0.378549 0.141480 -0.093423 -0.350031 -0.240790 0.105644 0.121974 0.115297 0.066705 0.352641 0.383164 0.083020 -0.114708 -0.289722 0.283277 0.022636 -0.371517 0.134935 -0.388600 0.260313 0.255887 0.164831 0.545881 0.050458 -0.500427 0.234774 0.072611 -0.056453 -0.102706 0.002977 -0.175124 -0.573917 -0.038728 -0.365048 0.386050 -0.317750 -0.148809 0.102205 0.488231 0.225778 -0.091737 0.795848 0.159440 0.182963 -0.395504 -0.332999 -0.296559 -0.600735 -0.237028 0.252413 0.025457 -0.352585
38 -0.190063 -0.219355 0.030304 -0.227323 -0.096260 -0.347291 -0.326020 0.052588 0.190644 0.298376 -0.277282 -0.248182 -0.200149 -0.415539 0.029470 -0.344250 -0.086873 -0.093392 0.048592 -0.005466 -0.115642 0.468047 -0.299211 0.161142 -0.195849 -0.041716 0.606571 -0.118768 0.465452 0.076080 0.301311 -0.368953 -0.323801 -0.211028 -0.102240 0.366116 -0.147141 0.169940 -0.350594 -0.141497 -0.025872 0.182775 0.363409 0.244570 -0.141468 0.427120 0.311333 -0.176742 0.304808 -0.027162 -0.668613 0.049634 -0.512149 -0.016177 -0.271595 -0.156921 0.236730 -0.042397 0.179756 0.161788 -0.101494 -0.178265 -0.384919 0.116875 -0.011378 -0.156502 -0.636705 0.153904 0.224191 -0.557186 -0.184574 -0.002523 -0.231754 -0.072303 0.111263 0.255084 0.388900 0.142699 -0.100170 -0.367398 -0.233318 0.106986 0.129907 0.103652 0.069355 0.359854 0.401102 0.084567 -0.125420 -0.285955 0.278119 0.046994 -0.385213 0.131323 -0.400986 0.273741 0.277389 0.163090 0.543138 0.063599 -0.502139 0.215499 0.094588 -0.071687 -0.124877 0.004299 -0.192189 -0.568603 -0.053030 -0.349042 0.397068 -0.302739 -0.155115 0.108314 0.482278 0.223168 -0.084112 0.808411 0.149558 0.185055 -0.386307 -0.330458 -0.283593 -0.604599 -0.263845 0.285878 0.035421 -0.340393
223 0.063601 -0.017822 0.181680 0.013401 0.166390 0.477405 -0.033749 -0.224262 -0.341968 0.146004 0.139947 0.104072 -0.165858 -0.241498 -0.101521 -0.333043 -0.101522 -0.028071 -0.065971 0.263366 0.008535 0.357388 0.061048 -0.146591 0.041191 0.010814 0.589250 -0.444054 0.266048 0.126230 0.171253 -0.385506 -0.225844 0.074205 0.305214 -0.074355 0.000515 -0.097388 0.140551 0.304048 -0.243567 0.028506 0.020732 -0.088079 -0.269046 0.517039 -0.348762 -0.337789 0.230491 -0.360049 -0.257296 -0.186870 0.275611 0.339745 0.269076 0.066882 -0.314682 -0.528715 0.114220 0.324071 0.349668 -0.559641 -0.266875 0.337803 0.154286 -0.085814 -0.224290 -0.291892 0.050159 -0.383340 0.211871 0.202148 -0.055014 -0.452688 0.436904 0.035172 0.503636 0.426602 0.078664 -0.035050 -0.511488 -0.324879 -0.112968 -0.133266 0.034830 0.523154 0.060431 -0.001767 -0.124341 0.007092 0.216029 -0.280040 -0.098398 -0.042586 -0.045743 -0.079857 -0.161649 -0.135383 0.195109 -0.283517 -0.498642 0.188688 -0.113605 0.124895 0.615027 0.227208 0.163392 -0.478460 0.064854 -0.915102 0.018573 -0.606852 -0.355895 -0.226673 0.340252 -0.060449 -0.326779 0.104131 -0.254716 -0.364660 -0.592879 -0.410696 -0.306680 -0.178686 -0.064045 -0.400816 -0.051582 -0.450607
150 -0.040459 -0.189815 0.021296 -0.596988 0.456832 -0.023690 -0.249931 0.170956 -0.120657 -0.074933 -0.222885 -0.190641 -0.377965 -0.168037 -0.288884 -0.172566 0.096418 -0.150051 -0.325547 0.129568 0.611443 0.091235 -0.243371 0.097958 -0.599504 0.186343 0.071877 0.081491 0.233193 -0.108220 0.389320 -0.272426 -0.546623 -0.040701 -0.199860 0.535945 0.267618 0.131662 0.086147 0.103434 0.145071 0.517141 0.057122 -0.118152 -0.048663 0.072788 0.108152 -0.068169 0.198489 -0.233526 -0.473060 0.290992 0.094372 0.309348 -0.152680 -0.252793 -0.198507 -0.121399 0.192011 0.218256 -0.200881 -0.526969 -0.330085 0.102202 -0.118752 0.025589 -0.158911 -0.131527 -0.105109 -0.214115 0.073775 -0.022353 0.286680 -0.475816 0.168688 0.085052 0.574986 0.299470 0.237871 -0.169608 -0.026660 -0.139518 0.274083 -0.416820 -0.110293 -0.095947 0.164141 -0.012335 0.130922 0.242006 0.162261 0.195507 -0.160420 -0.253457 0.274814 0.672430 0.184917 -0.223833 0.285816 0.147300 -0.605173 -0.572622 0.231090 -0.200900 0.430801 0.210773 -0.211300 -0.036502 -0.469378 -0.301039 0.331728 -0.325105 -0.154343 0.032976 0.165050 0.225654 -0.593890 0.291196 -0.237144 -0.332877 -0.493143 -0.478846 0.448993 0.342308 -0.301436 0.314914 0.164722 -0.334060
13 0.039314 0.073947 -0.214649 0.076375 0.079799 0.125983 -0.172848 -0.025298 -0.021173 0.212953 -0.108092 -0.122805 0.055454 -0.164795 -0.336577 -0.459456 -0.175924 0.307256 -0.035441 0.130629 0.226546 0.210572 0.145136 -0.147977 0.274502 -0.062990 0.230253 0.105158 0.004605 -0.092182 0.135440 0.169464 -0.040272 -0.299914 0.189992 0.190335 -0.393099 -0.147770 0.159291 0.182710 0.098498 0.486806 0.045307 -0.122170 -0.302240 0.084190 0.068134 -0.113874 0.099654 0.146882 -0.429695 -0.048982 0.471583 0.226339 -0.306700 -0.384711 -0.123295 -0.002223 0.108211 0.218243 -0.362086 -0.055204 -0.397239 -0.250444 -0.579440 -0.084328 0.008212 0.248722 -0.199746 -0.091483 0.145762 0.344435 0.460022 -0.589514 0.033532 -0.310547 0.352494 0.537789 0.087571 -0.410294 -0.075306 -0.043263 0.107219 0.192690 0.254013 0.348604 0.647270 -0.255302 -0.248367 0.132106 0.373089 -0.014191 -0.199156 -0.229625 -0.374318 0.074270 -0.015098 -0.161479 0.046039 -0.072624 -0.245054 0.128434 -0.053518 -0.375749 0.113897 0.041974 0.544333 0.203492 -0.041546 -0.031497 0.027498 0.115022 -0.179814 -0.054787 -0.133106 -0.138716 -0.252771 0.211472 -0.122818 -0.009394 -0.255264 -0.072801 -0.122002 -0.367608 -0.208795 0.099542 -0.045850 -0.187466
83 0.004808 0.001166 -0.104436 -0.082401 0.145037 0.292197 -0.130882 0.117925 0.110001 0.235464 -0.048669 -0.067388 0.231741 -0.147636 -0.305075 -0.369563 -0.145511 0.213814 -0.139939 0.079486 0.223367 -0.073504 -0.013932 -0.371609 0.199653 -0.114181 -0.000630 -0.177451 0.155926 -0.165536 0.163850 0.184168 -0.226179 -0.284633 0.084172 0.226824 -0.579557 0.129636 0.014454 0.007112 0.089613 0.422700 -0.101434 -0.261825 -0.339752 0.117256 0.137271 -0.062506 0.445245 0.173747 -0.196775 -0.135635 0.400477 0.301688 -0.197868 -0.235111 -0.031705 -0.161611 -0.010642 0.331259 -0.412925 -0.132099 -0.382231 -0.164787 -0.387648 0.072180 0.072995 0.457475 -0.174981 0.194464 -0.029432 0.427887 0.606110 -0.535933 0.138731 -0.355273 0.467428 0.431848 0.043769 -0.341778 -0.039610 -0.214779 0.182402 0.046489 0.201681 0.217713 0.685974 -0.347807 -0.199605 0.167637 0.306592 -0.077286 -0.110210 -0.212826 -0.353468 0.344243 -0.054831 -0.332791 0.148681 -0.105683 -0.373960 0.186227 -0.098821 -0.223238 0.084013 -0.047235 0.349002 0.414178 0.127784 -0.026034 -0.022632 0.113661 -0.196914 -0.352863 -0.183082 -0.101696 -0.312558 0.277222 -0.269902 0.094634 -0.159222 -0.345614 -0.166911 -0.224647 -0.134839 0.159464 0.081434 -0.221653
33 -0.050692 -0.129928 0.023800 -0.579937 0.494539 0.000439 -0.250796 0.206298 -0.109125 -0.040621 -0.192331 -0.149465 -0.369748 -0.147576 -0.289729 -0.149132 0.039963 -0.166725 -0.340149 0.122333 0.621981 0.104759 -0.257129 0.127198 -0.563355 0.149453 0.059162 0.105660 0.253494 -0.069087 0.355661 -0.236331 -0.504298 -0.050528 -0.200032 0.503659 0.265975 0.099595 0.081888 0.104831 0.172641 0.505778 0.055752 -0.154801 -0.038428 0.079419 0.116022 -0.063856 0.189572 -0.239605 -0.452050 0.300963 0.125056 0.359365 -0.097135 -0.246062 -0.209698 -0.112229 0.217750 0.209224 -0.198731 -0.520713 -0.362461 0.092679 -0.104186 0.034169 -0.093186 -0.115051 -0.104436 -0.222445 0.127781 -0.037685 0.271919 -0.468514 0.181943 0.106423 0.560783 0.325513 0.275074 -0.138427 -0.045260 -0.139016 0.210852 -0.373022 -0.104370 -0.114422 0.174438 -0.027942 0.123762 0.257037 0.165058 0.159523 -0.180313 -0.298250 0.267450 0.622316 0.157100 -0.248506 0.306421 0.126726 -0.606674 -0.535937 0.194456 -0.234189 0.436729 0.200584 -0.201686 -0.074684 -0.461766 -0.335699 0.289840 -0.371359 -0.145255 0.009689 0.125405 0.218621 -0.608982 0.261703 -0.269267 -0.338609 -0.493420 -0.461063 0.466220 0.355869 -0.300005 0.272225 0.158013 -0.312329
108 0.108232 -0.071882 -0.298156 0.013461 0.160182 0.167818 -0.111976 0.080487 0.020238 0.178333 -0.058716 -0.087467 0.135054 -0.152187 -0.347536 -0.445395 -0.197425 0.287370 -0.063419 0.147184 0.237296 0.106416 0.151765 -0.175593 0.246855 -0.083638 0.165700 0.023239 0.089661 -0.133202 0.132882 0.116924 -0.185272 -0.327514 0.099545 0.172587 -0.456362 -0.140529 0.136707 0.095361 0.051841 0.417668 0.084880 -0.097103 -0.372784 0.176437 0.109034 -0.146175 0.201994 0.084900 -0.276669 -0.055087 0.395575 0.166155 -0.285760 -0.271865 -0.094805 -0.118805 0.053501 0.343260 -0.379253 -0.087882 -0.401913 -0.190861 -0.510684 -0.053809 0.023799 0.277420 -0.129170 0.001034 0.129294 0.353010 0.377878 -0.604124 -0.015340 -0.342017 0.310347 0.371840 -0.040635 -0.506292 -0.088773 -0.128386 0.130369 0.074788 0.320932 0.335904 0.610925 -0.197752 -0.305738 0.140804 0.318570 0.050198 -0.093153 -0.143266 -0.368350 0.126750 0.060975 -0.198393 0.066793 -0.081527 -0.342891 0.127191 -0.027217 -0.311282 0.065477 0.057495 0.530933 0.272554 0.049475 0.037641 0.078981 0.214479 -0.164198 -0.131153 -0.050198 -0.087552 -0.214737 0.265676 -0.121844 0.014832 -0.171376 -0.254700 -0.207067 -0.400889 -0.061363 0.144781 -0.020466 -0.253347
250 -0.000645 0.085267 -0.159921 0.031410 0.034170 0.160134 -0.165319 -0.001368 0.006744 0.223961 -0.093563 -0.110898 0.096940 -0.133246 -0.299753 -0.393139 -0.145707 0.276789 -0.050482 0.113896 0.175486 0.139388 0.098434 -0.195040 0.264914 -0.097966 0.151511 0.039248 0.034844 -0.118571 0.137121 0.171397 -0.069799 -0.255879 0.173732 0.196619 -0.446661 -0.080979 0.120984 0.134059 0.090755 0.435432 0.004030 -0.172231 -0.300515 0.060992 0.075799 -0.076089 0.161544 0.163666 -0.374961 -0.082883 0.441179 0.201480 -0.268800 -0.337577 -0.085440 -0.050981 0.071469 0.248558 -0.336320 -0.071124 -0.379642 -0.230638 -0.523881 -0.042624 0.028004 0.293434 -0.190235 -0.032249 0.092370 0.357661 0.499286 -0.557226 0.056081 -0.300447 0.390967 0.541789 0.089016 -0.385420 -0.074489 -0.081942 0.119605 0.153691 0.244925 0.310861 0.674124 -0.269783 -0.234426 0.131401 0.344593 -0.038309 -0.163314 -0.211256 -0.385631 0.154721 -0.041449 -0.165730 0.080695 -0.077470 -0.237360 0.144168 -0.072379 -0.310139 0.103234 0.015400 0.480112 0.240383 0.001059 -0.019583 0.005707 0.104908 -0.207871 -0.145003 -0.144375 -0.121567 -0.276000 0.221748 -0.147213 0.010535 -0.225164 -0.138482 -0.133567 -0.345513 -0.206004 0.076129 -0.023288 -0.199838
6 -0.185714 -0.245565 0.012965 -0.213424 -0.092060 -0.343561 -0.319992 0.051305 0.178705 0.286200 -0.261951 -0.245859 -0.217459 -0.418133 0.046276 -0.362911 -0.102630 -0.101067 0.051462 -0.007564 -0.133370 0.446789 -0.301301 0.156071 -0.164472 -0.047709 0.603111 -0.140761 0.448899 0.073306 0.299125 -0.366014 -0.297674 -0.198832 -0.088742 0.339038 -0.138790 0.167440 -0.353841 -0.148262 -0.041624 0.179187 0.365886 0.253301 -0.167579 0.429181 0.308357 -0.171116 0.326314 -0.002684 -0.657543 0.052175 -0.513652 -0.006158 -0.266155 -0.158016 0.213176 -0.050266 0.188999 0.153085 -0.092339 -0.188281 -0.390943 0.119068 -0.031543 -0.167165 -0.648740 0.149199 0.206328 -0.564390 -0.154607 0.015870 -0.226933 -0.082370 0.126887 0.237449 0.391265 0.150929 -0.090204 -0.370032 -0.240177 0.101032 0.125380 0.116193 0.091982 0.362954 0.401956 0.079565 -0.132476 -0.270052 0.280100 0.045900 -0.381686 0.129777 -0.405306 0.274908 0.255407 0.133234 0.541676 0.041558 -0.499258 0.227869 0.077931 -0.052419 -0.115722 0.015203 -0.138356 -0.539583 -0.037180 -0.391107 0.400557 -0.313926 -0.175208 0.112493 0.494506 0.234153 -0.068754 0.794144 0.136780 0.188536 -0.400124 -0.330117 -0.296884 -0.623803 -0.254628 0.278606 0.037632 -0.357450
18 0.085167 -0.049839 0.143077 -0.007914 0.219487 0.434060 -0.056900 -0.201086 -0.324324 0.157665 0.148279 0.117518 -0.159013 -0.251984 -0.109063 -0.380791 -0.105792 -0.028950 -0.047580 0.242954 0.021467 0.336130 0.074570 -0.119611 0.030829 0.014189 0.577789 -0.425911 0.270919 0.125965 0.152320 -0.375853 -0.226131 0.107567 0.263891 -0.096766 -0.016083 -0.131488 0.101433 0.290631 -0.245814 0.032525 0.013296 -0.052392 -0.299243 0.511070 -0.337860 -0.336557 0.239862 -0.371265 -0.248277 -0.181289 0.256722 0.369972 0.220267 0.056327 -0.322860 -0.512246 0.096928 0.306782 0.340367 -0.560163 -0.294331 0.335605 0.112059 -0.073763 -0.230539 -0.261953 0.051541 -0.387724 0.227714 0.195890 -0.052681 -0.460721 0.441893 0.031275 0.488529 0.407963 0.104739 -0.044594 -0.512174 -0.305394 -0.109555 -0.163795 0.056574 0.473105 0.050330 0.008242 -0.113136 0.002817 0.205785 -0.255926 -0.088452 -0.061268 -0.048602 -0.047050 -0.143283 -0.139602 0.236073 -0.290568 -0.543633 0.209151 -0.090720 0.146533 0.626255 0.219371 0.131908 -0.481018 0.037952 -0.894460 0.024477 -0.595343 -0.351888 -0.203668 0.377768 -0.050693 -0.303794 0.104821 -0.235928 -0.374864 -0.563104 -0.435024 -0.282071 -0.208690 -0.059215 -0.374996 -0.088882 -0.444829
300 -0.054590 -0.102660 0.027573 -0.582939 0.500746 0.025086 -0.250072 0.195994 -0.111920 -0.018701 -0.182017 -0.159304 -0.385184 -0.144428 -0.313440 -0.142490 0.048253 -0.182646 -0.365964 0.159786 0.645701 0.120010 -0.264258 0.140319 -0.576497 0.154380 0.069881 0.104750 0.260172 -0.083927 0.368808 -0.278248 -0.501501 -0.049953 -0.193341 0.517706 0.274475 0.104532 0.098301 0.101704 0.175165 0.531549 0.047044 -0.171783 -0.051855 0.078641 0.098651 -0.037904 0.223359 -0.251212 -0.463272 0.295112 0.132933 0.388744 -0.073859 -0.265639 -0.207296 -0.128958 0.222199 0.226084 -0.201838 -0.549970 -0.360254 0.089125 -0.114040 0.044077 -0.109074 -0.124064 -0.117660 -0.244736 0.129816 -0.033964 0.268674 -0.486704 0.213814 0.117043 0.598090 0.346263 0.310350 -0.123707 -0.074552 -0.139899 0.235097 -0.388322 -0.123833 -0.146579 0.165846 -0.033564 0.137514 0.262177 0.166170 0.139132 -0.166112 -0.314479 0.294510 0.645019 0.136324 -0.272201 0.313078 0.129038 -0.617064 -0.546845 0.193785 -0.246769 0.452539 0.212493 -0.208276 -0.086005 -0.492030 -0.374120 0.301361 -0.411228 -0.143188 0.023977 0.144305 0.237405 -0.642336 0.265420 -0.263890 -0.345056 -0.529778 -0.473233 0.480885 0.396477 -0.295151 0.258529 0.184877 -0.311586
134 -0.176873 -0.241674 0.017203 -0.224456 -0.082158 -0.333119 -0.316826 0.061740 0.175459 0.289293 -0.278886 -0.244572 -0.213572 -0.418167 0.037415 -0.355462 -0.097488 -0.089628 0.039920 -0.027076 -0.105971 0.451514 -0.307283 0.143173 -0.174371 -0.042028 0.582795 -0.128992 0.461595 0.067059 0.301924 -0.348952 -0.322180 -0.217211 -0.090458 0.352879 -0.140828 0.166014 -0.342154 -0.140618 -0.021603 0.191630 0.352308 0.260174 -0.149908 0.427511 0.305257 -0.173877 0.309212 -0.009267 -0.652875 0.042439 -0.481474 0.000749 -0.274994 -0.160724 0.220862 -0.046574 0.190047 0.157340 -0.100229 -0.172365 -0.405763 0.122967 -0.021482 -0.142161 -0.638121 0.173496 0.233610 -0.553128 -0.178009 0.004776 -0.218387 -0.082115 0.108709 0.230372 0.374483 0.130618 -0.118148 -0.374502 -0.224760 0.097760 0.117841 0.101038 0.099332 0.372204 0.402784 0.093938 -0.129269 -0.260696 0.273174 0.045185 -0.380542 0.134333 -0.399967 0.276742 0.283792 0.148522 0.528745 0.037013 -0.496121 0.205516 0.097291 -0.061505 -0.113674 0.005165 -0.163722 -0.547765 -0.057776 -0.351743 0.396849 -0.305200 -0.162760 0.097470 0.497613 0.213124 -0.063264 0.791704 0.149271 0.175043 -0.376288 -0.324448 -0.290382 -0.606287 -0.252848 0.289888 0.036651 -0.345963
200 0.002402 0.034985 -0.113938 -0.110052 0.119245 0.310818 -0.128166 0.139408 0.073915 0.232339 -0.059922 -0.064607 0.276583 -0.149660 -0.294939 -0.362043 -0.142647 0.244170 -0.167916 0.045690 0.214791 -0.105941 -0.035423 -0.409881 0.214596 -0.137153 -0.039104 -0.228109 0.199638 -0.135642 0.208865 0.228972 -0.220277 -0.229550 0.084050 0.218500 -0.607201 0.179213 0.024851 0.030788 0.113450 0.429023 -0.189478 -0.308712 -0.370080 0.072769 0.123777 -0.057635 0.449342 0.217176 -0.171926 -0.175505 0.463546 0.340327 -0.209308 -0.216959 -0.068973 -0.228349 -0.029800 0.335594 -0.386251 -0.152386 -0.384690 -0.163049 -0.384833 0.123377 0.118685 0.464626 -0.183667 0.245825 -0.057636 0.490183 0.675193 -0.551076 0.148705 -0.359404 0.522355 0.481744 0.068614 -0.329909 -0.033420 -0.242463 0.195965 0.014955 0.202034 0.235955 0.728336 -0.345377 -0.221741 0.181364 0.316238 -0.114425 -0.105051 -0.217485 -0.398234 0.401602 -0.096553 -0.370358 0.128962 -0.112315 -0.363628 0.176953 -0.088060 -0.155081 0.125552 -0.090087 0.316008 0.409354 0.086759 -0.042736 -0.032022 0.067204 -0.230089 -0.415654 -0.205410 -0.119602 -0.384387 0.239550 -0.314315 0.054953 -0.159496 -0.369683 -0.171944 -0.181268 -0.164859 0.141973 0.078295 -0.273351
241 0.012446 -0.021484 -0.231399 -0.003097 0.071426 0.175445 -0.176930 -0.005105 0.037420 0.213252 -0.070960 -0.111279 0.074583 -0.149021 -0.337434 -0.431590 -0.182617 0.260279 -0.044585 0.169034 0.170264 0.147200 0.135156 -0.191651 0.264009 -0.100395 0.167793 0.059682 0.057270 -0.147978 0.119517 0.117242 -0.120879 -0.284045 0.141380 0.214865 -0.487537 -0.147889 0.123231 0.115448 0.059485 0.421008 0.075135 -0.136868 -0.320727 0.131042 0.091945 -0.101541 0.165967 0.093146 -0.348957 -0.096433 0.378284 0.151382 -0.258596 -0.289975 -0.054655 -0.107763 0.075665 0.306253 -0.325470 -0.049111 -0.363426 -0.198695 -0.501924 -0.079243 0.017307 0.273344 -0.136251 -0.067837 0.089613 0.312316 0.415468 -0.594838 0.040935 -0.318454 0.339141 0.458906 0.012449 -0.466687 -0.075859 -0.127188 0.124967 0.121580 0.293226 0.343808 0.651350 -0.235201 -0.276381 0.140183 0.318953 0.002708 -0.155504 -0.183151 -0.383227 0.060589 0.035371 -0.152906 0.115001 -0.070481 -0.269380 0.138295 -0.110798 -0.360899 0.073000 0.059280 0.507536 0.270608 0.097433 -0.016268 0.005216 0.184835 -0.196765 -0.093750 -0.091178 -0.124221 -0.186147 0.275220 -0.143437 0.041010 -0.208090 -0.186755 -0.206834 -0.429274 -0.104091 0.105331 -0.009380 -0.212903
58 0.047516 0.022504 -0.112074 -0.104667 0.137275 0.325110 -0.103353 0.146513 0.077284 0.188364 -0.066148 -0.059936 0.261639 -0.124861 -0.289153 -0.333953 -0.122576 0.239132 -0.198804 0.045722 0.222632 -0.114711 -0.022833 -0.394325 0.196426 -0.121045 -0.060084 -0.234553 0.178036 -0.158018 0.208868 0.194844 -0.240897 -0.239977 0.093097 0.221202 -0.554959 0.147249 0.064754 0.033057 0.093726 0.404809 -0.166486 -0.274584 -0.370367 0.076488 0.128223 -0.053993 0.422668 0.165000 -0.164851 -0.142298 0.462780 0.303232 -0.196769 -0.207807 -0.067903 -0.226111 -0.007899 0.366607 -0.369876 -0.188978 -0.381235 -0.156578 -0.384153 0.127420 0.121007 0.425826 -0.210940 0.262579 -0.037751 0.452659 0.665891 -0.576455 0.134678 -0.362871 0.501920 0.458811 0.042109 -0.358006 -0.025610 -0.250646 0.186237 0.002893 0.200168 0.212619 0.709407 -0.354761 -0.209532 0.192685 0.301208 -0.062400 -0.067004 -0.212098 -0.358193 0.419901 -0.085684 -0.391252 0.121797 -0.104792 -0.365076 0.130193 -0.054094 -0.157846 0.111536 -0.051652 0.326421 0.435422 0.091758 -0.041181 -0.028368 0.076098 -0.234884 -0.407502 -0.202393 -0.100463 -0.398815 0.223180 -0.321923 0.043462 -0.166444 -0.361045 -0.153624 -0.158516 -0.153316 0.153157 0.091058 -0.261206
80 -0.072219 -0.402413 -0.143975 -0.040750 0.145560 0.368257 -0.177515 0.054866 -0.243260 -0.271672 -0.262120 -0.054990 -0.074602 -0.688399 -0.311899 -0.603244 -0.164579 0.456817 -0.337521 -0.405988 0.202875 0.280622 0.054352 -0.447331 -0.292485 0.101005 0.307328 -0.884108 0.694216 -0.329278 0.401796 -0.269855 -0.832016 -0.065640 -0.159528 0.237824 -0.142355 0.456649 0.107388 0.298399 -0.005282 0.401116 -0.101488 0.400217 -0.505041 0.294029 0.026037 -0.628080 0.081787 0.291734 -0.102744 -0.452971 0.036552 -0.053207 -0.160870 -0.315996 -0.266761 -0.495402 0.098754 0.190115 0.253814 -0.253518 -0.462827 0.584023 0.177049 0.333036 -0.369045 -0.122254 0.106407 -0.121819 -0.051597 0.056152 0.378123 -0.612253 0.256359 -0.570897 0.870060 -0.033436 -0.714481 -0.742838 0.108998 -0.501068 0.369955 -0.855758 0.503995 0.474838 0.394238 0.360276 -0.538469 0.273326 0.121825 0.437905 -0.025778 0.190668 -0.501936 0.339210 0.077900 -0.436437 -0.030455 0.036323 -0.216148 -0.262200 0.488275 0.386658 -0.018519 0.067218 -0.265375 0.040565 -0.330803 -0.564618 0.133172 -0.112484 -0.270695 -0.122950 0.937643 -0.067078 0.000658 0.473642 -0.125203 -0.058492 -0.284386 -0.474260 -0.792433 -0.097307 -0.289586 0.346607 0.200391 -0.784789
173 0.012672 0.045729 -0.225798 0.026556 0.053096 0.100089 -0.207653 -0.017682 -0.001423 0.223899 -0.100206 -0.108938 0.056423 -0.135646 -0.306608 -0.496075 -0.197831 0.266607 -0.035407 0.092797 0.179701 0.160529 0.099503 -0.183192 0.315935 -0.124894 0.194261 0.044664 0.060933 -0.052453 0.148544 0.201919 -0.051094 -0.247020 0.177088 0.211494 -0.465464 -0.122299 0.085125 0.162543 0.118065 0.499506 -0.028252 -0.147124 -0.358903 0.101677 0.102822 -0.120488 0.148924 0.156182 -0.421944 -0.100039 0.461258 0.243641 -0.325615 -0.348943 -0.103762 -0.047113 0.079565 0.244801 -0.364010 -0.034212 -0.393093 -0.232891 -0.606920 -0.073803 0.036289 0.301773 -0.163549 -0.053020 0.079875 0.387056 0.485104 -0.546840 0.051579 -0.308982 0.337795 0.522537 0.105450 -0.398017 -0.085096 -0.061737 0.101115 0.169133 0.261521 0.350524 0.683440 -0.209001 -0.255483 0.119440 0.350950 -0.043346 -0.244372 -0.215262 -0.421071 0.080556 -0.023779 -0.160145 0.082395 -0.101233 -0.273907 0.148996 -0.094358 -0.328733 0.126029 0.014572 0.466709 0.197118 -0.013615 -0.037757 0.018842 0.083493 -0.192551 -0.119965 -0.118009 -0.147271 -0.214923 0.192535 -0.178153 0.013376 -0.227981 -0.116138 -0.145889 -0.400867 -0.215881 0.111400 -0.049094 -0.203058
50 -0.185101 -0.238759 0.011367 -0.220443 -0.081415 -0.344298 -0.329217 0.063269 0.178521 0.282518 -0.283407 -0.240794 -0.206885 -0.415094 0.039276 -0.345406 -0.095215 -0.084567 0.040878 -0.043861 -0.111693 0.449568 -0.298572 0.153540 -0.179908 -0.042337 0.589475 -0.139432 0.471685 0.070291 0.297947 -0.341251 -0.325668 -0.229644 -0.099318 0.359000 -0.146119 0.177595 -0.343740 -0.143362 -0.006108 0.196746 0.353223 0.268209 -0.139197 0.429515 0.314093 -0.184324 0.309211 -0.003286 -0.667954 0.049011 -0.494651 -0.012625 -0.282155 -0.170424 0.234528 -0.031734 0.191495 0.153545 -0.107111 -0.172178 -0.407640 0.123163 -0.019815 -0.140493 -0.643876 0.173600 0.235607 -0.547393 -0.190814 0.000519 -0.218338 -0.074716 0.100769 0.235319 0.383563 0.137489 -0.130070 -0.390153 -0.221125 0.106892 0.122744 0.104457 0.080790 0.373790 0.409429 0.094154 -0.137723 -0.261703 0.272178 0.062361 -0.399194 0.132852 -0.415056 0.274651 0.301518 0.144261 0.530903 0.053763 -0.500136 0.213725 0.102859 -0.069426 -0.136089 0.003971 -0.178324 -0.564359 -0.061371 -0.348551 0.402207 -0.300943 -0.162536 0.101062 0.501884 0.221824 -0.062992 0.817590 0.151297 0.199877 -0.370868 -0.314443 -0.304985 -0.622343 -0.272581 0.310846 0.037291 -0.334512
286 -0.374095 -0.387362 -0.402777 -0.113729 0.013692 0.288032 -0.448026 -0.304321 -0.024824 0.375549 -0.228052 -0.329757 -0.303841 -0.070434 -0.200878 -0.139961 -0.095398 0.376240 -0.037235 0.371380 -0.137891 0.429115 0.041913 0.482686 -0.482210 0.210022 0.568803 -0.367785 0.065936 -0.321423 0.651199 -0.647445 0.074053 0.407298 -0.186846 -0.070319 -0.389089 0.237760 -0.041017 0.145714 0.039535 0.691935 0.054945 0.067347 -0.630527 0.286396 -0.501020 0.105936 0.448353 0.482554 -0.435254 -0.341429 -0.349614 0.127105 -0.330315 -0.416240 -0.360523 -0.068678 0.014160 0.374463 0.261594 -0.817810 -0.285819 -0.374761 -0.282123 -0.033651 -0.472114 -0.621303 -0.371649 -0.174777 0.073729 0.682038 0.169189 -0.052205 0.154004 -0.045594 0.964161 0.468354 0.371360 -0.604811 0.071429 -0.221543 0.752008 0.006256 -0.349314 0.029974 0.014724 -0.270861 -0.013346 0.086451 -0.003833 0.020262 -0.317486 -0.162903 -0.395430 0.553071 -0.200696 -0.666162 0.299189 0.311348 0.066283 -0.202019 -0.225885 0.783293 -0.256355 0.021041 0.424261 -0.069394 -0.278078 -0.809091 -0.007680 -0.242001 -0.240923 0.444678 0.619870 0.207837 -0.187108 0.567685 -0.133415 0.054978 -0.305630 -0.589567 -0.445782 -0.094473 0.079178 0.187218 -0.223749 -0.350031
35 -0.070926 -0.067694 -0.265983 -0.023627 0.076707 0.234437 -0.235941 -0.048573 0.089115 0.278308 -0.024259 -0.080668 0.089658 -0.138806 -0.349005 -0.531963 -0.227443 0.249925 -0.023205 0.173043 0.110323 0.109618 0.075324 -0.289247 0.288168 -0.144292 0.171534 -0.075239 0.114457 -0.125638 0.132019 0.145880 -0.093251 -0.239673 0.154556 0.222947 -0.632565 -0.051082 0.024052 0.060566 0.026359 0.443198 0.009072 -0.145842 -0.379078 0.221343 0.094551 -0.154057 0.257027 0.118299 -0.324842 -0.208663 0.338809 0.210199 -0.239542 -0.276028 0.013771 -0.171582 0.030781 0.302316 -0.354143 0.002508 -0.357228 -0.170857 -0.509538 -0.103803 0.005117 0.352157 -0.084683 -0.025791 -0.022554 0.372431 0.415797 -0.508227 0.109194 -0.362853 0.317670 0.416859 0.041595 -0.451277 -0.088653 -0.200325 0.127764 0.114767 0.279491 0.390499 0.671830 -0.221866 -0.293257 0.119552 0.296624 -0.078296 -0.238704 -0.184469 -0.437050 -0.002997 -0.006247 -0.180364 0.209094 -0.084198 -0.283625 0.241961 -0.208518 -0.337799 0.076922 0.017826 0.426127 0.259463 0.207750 -0.105029 -0.050625 0.126065 -0.169528 -0.158282 -0.066029 -0.131192 -0.079806 0.312709 -0.222408 0.126677 -0.160031 -0.245428 -0.333497 -0.463921 -0.079008 0.142268 -0.002859 -0.225359
284 -0.168764 -0.251124 0.005554 -0.243621 -0.076330 -0.347488 -0.315613 0.061535 0.176794 0.271187 -0.279565 -0.243205 -0.216962 -0.392206 0.041476 -0.350119 -0.103959 -0.096772 0.037984 -0.018270 -0.088713 0.433177 -0.301973 0.146263 -0.185024 -0.043057 0.568481 -0.121331 0.442531 0.061625 0.296524 -0.335542 -0.315961 -0.208002 -0.096879 0.358760 -0.124129 0.154872 -0.331379 -0.152317 -0.023132 0.185410 0.347035 0.247942 -0.144464 0.411743 0.316507 -0.166034 0.302083 -0.017209 -0.641916 0.063558 -0.478504 0.006505 -0.277286 -0.163294 0.222467 -0.030509 0.176237 0.155016 -0.110197 -0.176619 -0.392760 0.114800 -0.036495 -0.145628 -0.623499 0.171896 0.222565 -0.537568 -0.171247 0.004090 -0.209605 -0.085495 0.095540 0.231447 0.365102 0.130606 -0.103641 -0.363519 -0.209228 0.101606 0.121409 0.095996 0.089178 0.352298 0.401785 0.086592 -0.124834 -0.255425 0.271773 0.059230 -0.375021 0.123866 -0.393320 0.280267 0.290264 0.142735 0.517849 0.046421 -0.497924 0.188574 0.105168 -0.074715 -0.118663 0.011253 -0.161969 -0.521241 -0.069531 -0.332991 0.397513 -0.291163 -0.165272 0.110000 0.478041 0.220433 -0.059550 0.782914 0.139755 0.173863 -0.368235 -0.312749 -0.263106 -0.599397 -0.258246 0.298704 0.035057 -0.326348
233 -0.267556 -0.156001 0.113303 -0.485908 0.270898 0.274563 -0.780146 0.090975 -0.340310 -0.076052 -0.310424 0.039205 -0.622054 -0.105718 0.055886 -0.059524 -0.216369 0.124568 -0.171490 -0.411893 -0.276479 0.293687 -0.399361 0.056847 -0.163631 0.062350 0.559072 -0.940692 0.582694 0.213820 0.371280 0.045699 0.102734 -0.321736 0.117847 0.201763 0.039649 0.339761 0.247760 -0.163304 0.433199 0.328585 -0.121401 0.298639 0.232376 0.380969 -0.259849 -0.204952 0.176535 -0.007457 -0.513963 -0.124173 0.237866 0.429073 0.303595 -0.385843 0.074034 0.000075 0.265286 -0.177920 -0.004992 -0.289496 -0.615339 0.169351 0.058556 0.414285 0.062074 0.134429 -0.114528 -0.097982 -0.328504 0.192433 0.227038 -0.197391 0.089548 -0.097564 0.902264 0.831999 -0.168051 -0.580056 0.045667 -0.424879 0.023307 0.138951 -0.517416 0.567851 0.462830 -0.547742 -0.078887 0.467446 0.125156 0.073523 -0.898541 -0.379484 -0.230806 0.054144 0.412317 -0.552648 -0.141069 0.035922 -0.141675 -0.179244 -0.023863 -0.304613 0.126573 0.275981 0.036797 -0.440560 -0.050202 -0.886258 -0.280556 -0.482142 -0.424001 -0.294889 0.151398 -0.018928 -0.225677 0.590124 -0.693314 0.110839 -0.458455 -0.000830 -0.445159 -0.250885 -0.754458 0.615237 0.092814 -0.021819
82 -0.021287 -0.186336 0.036510 -0.590782 0.405188 -0.021378 -0.234750 0.135163 -0.127375 -0.084240 -0.198831 -0.154163 -0.398241 -0.177197 -0.250217 -0.219231 0.152913 -0.180629 -0.362933 0.160151 0.565849 0.047072 -0.242202 0.069249 -0.624275 0.202630 0.049331 0.006345 0.155688 -0.145368 0.383346 -0.230242 -0.529548 -0.046511 -0.156676 0.515747 0.297569 0.118960 0.112438 0.080417 0.116708 0.475021 0.013498 -0.138423 -0.059746 0.072198 0.110339 -0.102147 0.153390 -0.239218 -0.500866 0.309177 0.086407 0.280765 -0.139785 -0.214287 -0.225429 -0.088242 0.186311 0.207667 -0.209807 -0.560226 -0.305648 0.101867 -0.084956 0.024121 -0.183313 -0.189560 -0.166696 -0.217301 0.079166 -0.031899 0.314427 -0.456718 0.176676 0.107843 0.536020 0.315196 0.267475 -0.141034 0.011673 -0.131178 0.263273 -0.370229 -0.152700 -0.070015 0.152502 -0.064799 0.118745 0.192200 0.109190 0.195946 -0.139037 -0.270288 0.267985 0.650063 0.141670 -0.227268 0.314979 0.129589 -0.551715 -0.567793 0.241087 -0.225247 0.449087 0.202304 -0.152699 0.022734 -0.363304 -0.300630 0.263455 -0.319001 -0.173034 0.046307 0.104227 0.209456 -0.582918 0.234546 -0.237252 -0.330098 -0.525588 -0.450016 0.437336 0.329285 -0.313677 0.294894 0.219412 -0.333152
253 0.032768 0.095107 -0.216381 0.068245 0.047520 0.143155 -0.163256 -0.018016 -0.015665 0.217753 -0.107949 -0.115364 0.090159 -0.156519 -0.310385 -0.440739 -0.172686 0.290582 -0.059391 0.108144 0.202672 0.185123 0.115705 -0.173652 0.295683 -0.090007 0.194223 0.063003 0.033836 -0.082078 0.166891 0.184547 -0.046558 -0.244011 0.182039 0.189907 -0.428406 -0.110829 0.142154 0.178132 0.111973 0.482789 0.010711 -0.153913 -0.338218 0.051900 0.071485 -0.115431 0.124751 0.177932 -0.411648 -0.080060 0.471374 0.233716 -0.312328 -0.359377 -0.104887 -0.041538 0.104408 0.229238 -0.344031 -0.049121 -0.399503 -0.224044 -0.571889 -0.069212 0.027060 0.276432 -0.204995 -0.055257 0.115454 0.361063 0.489950 -0.573058 0.031313 -0.308009 0.365124 0.531121 0.101272 -0.381280 -0.073863 -0.044066 0.103022 0.162717 0.259060 0.331060 0.664366 -0.231611 -0.245607 0.127769 0.372579 -0.039313 -0.175432 -0.211351 -0.402429 0.112457 -0.043208 -0.156559 0.064738 -0.082408 -0.251821 0.141857 -0.063262 -0.321461 0.128599 0.005957 0.492853 0.217969 -0.054003 -0.042081 0.015420 0.091975 -0.196734 -0.099162 -0.143465 -0.131488 -0.282255 0.186390 -0.139810 -0.019517 -0.250796 -0.099431 -0.143070 -0.362832 -0.215454 0.084744 -0.031133 -0.220852
52 0.028043 0.002649 -0.125109 -0.115313 0.136126 0.282740 -0.125754 0.114739 0.084244 0.210832 -0.060857 -0.056131 0.237153 -0.107935 -0.299583 -0.379744 -0.132491 0.222664 -0.189819 0.049065 0.228983 -0.124843 -0.041154 -0.367127 0.185419 -0.109244 -0.034222 -0.201549 0.180008 -0.146295 0.196074 0.199965 -0.214537 -0.205608 0.072144 0.208914 -0.584395 0.129709 0.035599 0.006639 0.095000 0.438134 -0.171716 -0.254486 -0.392440 0.109162 0.140018 -0.062455 0.441849 0.191896 -0.174730 -0.144786 0.442070 0.302314 -0.206746 -0.221726 -0.068949 -0.209996 -0.006386 0.354114 -0.392032 -0.175561 -0.390097 -0.173848 -0.429224 0.093171 0.107092 0.443135 -0.196305 0.242667 -0.045398 0.485500 0.652899 -0.539837 0.127993 -0.368174 0.471563 0.426270 0.089691 -0.352394 -0.035472 -0.233241 0.184435 0.017314 0.209303 0.204509 0.704855 -0.312906 -0.226689 0.194586 0.308380 -0.054249 -0.081799 -0.221717 -0.369025 0.386077 -0.082620 -0.365186 0.142755 -0.104066 -0.382240 0.173696 -0.086061 -0.170565 0.115191 -0.054071 0.353183 0.414335 0.088589 -0.040728 -0.013558 0.072344 -0.225893 -0.389743 -0.177884 -0.084923 -0.358243 0.238694 -0.328727 0.059523 -0.155217 -0.383106 -0.168571 -0.206720 -0.131255 0.165095 0.067193 -0.261372
194 -0.062631 -0.400350 -0.143645 -0.053876 0.145408 0.366478 -0.182656 0.057701 -0.245963 -0.272242 -0.262259 -0.046823 -0.072815 -0.697390 -0.310888 -0.608546 -0.159911 0.455463 -0.335215 -0.411677 0.211464 0.277002 0.052475 -0.457690 -0.284995 0.096161 0.307422 -0.875335 0.699044 -0.319440 0.392030 -0.270243 -0.841945 -0.065045 -0.156934 0.239593 -0.140952 0.443447 0.106150 0.297022 0.001112 0.406701 -0.099740 0.393670 -0.509004 0.295148 0.021319 -0.624058 0.077473 0.284252 -0.101858 -0.448597 0.051969 -0.042513 -0.167855 -0.309664 -0.267380 -0.497744 0.103591 0.192076 0.245203 -0.245423 -0.469019 0.583995 0.174347 0.333578 -0.355708 -0.118189 0.107753 -0.115007 -0.053673 0.052741 0.381611 -0.624013 0.258516 -0.570137 0.870853 -0.027373 -0.710007 -0.740717 0.104931 -0.506892 0.367702 -0.857150 0.506986 0.478947 0.394953 0.362198 -0.544082 0.277294 0.123512 0.433217 -0.034084 0.183971 -0.501430 0.347851 0.078939 -0.428065 -0.032598 0.027244 -0.230863 -0.270675 0.488636 0.384203 -0.007454 0.065107 -0.268906 0.044801 -0.338310 -0.562542 0.135835 -0.110702 -0.274410 -0.133332 0.933307 -0.071951 -0.019332 0.474345 -0.129732 -0.067956 -0.282311 -0.479368 -0.781606 -0.100461 -0.283747 0.347287 0.199315 -0.789687
288 -0.276057 -0.151866 0.095349 -0.480957 0.262370 0.276960 -0.773655 0.101219 -0.339955 -0.091411 -0.315797 0.040002 -0.611810 -0.086774 0.060405 -0.038621 -0.231816 0.137620 -0.172428 -0.432239 -0.276761 0.281111 -0.386761 0.073653 -0.167376 0.070390 0.542451 -0.946578 0.571057 0.216008 0.371271 0.052496 0.109756 -0.311277 0.099528 0.189570 0.045344 0.360902 0.253389 -0.151311 0.448097 0.339266 -0.140231 0.302718 0.241513 0.367688 -0.277352 -0.205040 0.151540 0.019931 -0.487080 -0.143664 0.224580 0.424559 0.301805 -0.387667 0.078451 -0.010653 0.258807 -0.190625 0.022760 -0.275955 -0.602238 0.152314 0.065256 0.433950 0.063195 0.110747 -0.120836 -0.068195 -0.329661 0.206299 0.237187 -0.179690 0.075422 -0.113261 0.900237 0.822604 -0.189170 -0.581454 0.054719 -0.431804 0.046301 0.134753 -0.519700 0.545328 0.450936 -0.533917 -0.078849 0.473699 0.095791 0.090993 -0.888894 -0.364102 -0.226381 0.050945 0.399735 -0.554706 -0.154373 0.055325 -0.102660 -0.197360 -0.014610 -0.262862 0.102025 0.274903 0.027341 -0.426716 -0.057974 -0.877400 -0.293891 -0.479826 -0.431931 -0.288190 0.161858 -0.032457 -0.208684 0.568868 -0.687878 0.092816 -0.415375 -0.002212 -0.436321 -0.226596 -0.753436 0.620828 0.073898 -0.022643
30 0.023685 -0.046471 0.171799 0.008000 0.127800 0.467417 -0.049602 -0.222386 -0.311222 0.155735 0.122684 0.106015 -0.181987 -0.219841 -0.090065 -0.312681 -0.103816 -0.019357 -0.060621 0.282873 -0.012013 0.371391 0.056532 -0.181090 0.037426 -0.006285 0.608624 -0.434874 0.254011 0.103528 0.178911 -0.396483 -0.229561 0.036558 0.302265 -0.055543 -0.011272 -0.061303 0.150455 0.302792 -0.221855 0.044160 0.038863 -0.093538 -0.243288 0.513634 -0.339816 -0.336969 0.205768 -0.335938 -0.274544 -0.171148 0.274458 0.288603 0.260586 0.071738 -0.295553 -0.522388 0.114662 0.314416 0.336018 -0.549991 -0.238430 0.325602 0.167037 -0.115986 -0.260693 -0.290300 0.058898 -0.402887 0.215252 0.203454 -0.049833 -0.455022 0.433371 0.040152 0.519368 0.448150 0.056178 -0.046198 -0.513249 -0.315151 -0.100220 -0.130301 0.033883 0.547750 0.080556 -0.007912 -0.133013 0.032328 0.232003 -0.303045 -0.116794 -0.029098 -0.056495 -0.073852 -0.161227 -0.115707 0.180682 -0.282703 -0.467062 0.196128 -0.130608 0.113318 0.594484 0.227456 0.179020 -0.482416 0.085065 -0.936310 0.019635 -0.597880 -0.359550 -0.254160 0.329499 -0.069470 -0.327551 0.132361 -0.264152 -0.333585 -0.597543 -0.390088 -0.321005 -0.190512 -0.082388 -0.389566 -0.022853 -0.445044
291 -0.070342 -0.407718 -0.143068 -0.047912 0.152592 0.362353 -0.181798 0.055654 -0.247462 -0.267199 -0.262652 -0.054538 -0.079195 -0.694804 -0.318203 -0.607528 -0.172441 0.459226 -0.343923 -0.410627 0.210836 0.291831 0.056275 -0.447505 -0.289025 0.093355 0.315854 -0.868330 0.699020 -0.322840 0.394487 -0.277027 -0.838891 -0.062299 -0.155599 0.240943 -0.148956 0.452020 0.108664 0.293396 0.003261 0.419185 -0.098249 0.397749 -0.513696 0.289338 0.020474 -0.619591 0.079972 0.284481 -0.101171 -0.440691 0.047753 -0.043229 -0.166236 -0.311804 -0.261769 -0.490454 0.105361 0.198420 0.248287 -0.251274 -0.466846 0.577146 0.160335 0.326537 -0.357885 -0.112269 0.107947 -0.121534 -0.047048 0.049707 0.376969 -0.619544 0.266698 -0.567226 0.874728 -0.020521 -0.706019 -0.742003 0.105151 -0.501117 0.368808 -0.850688 0.511102 0.465304 0.393414 0.366199 -0.540126 0.281206 0.131347 0.432790 -0.031529 0.185907 -0.494388 0.346933 0.082601 -0.434841 -0.033556 0.030086 -0.224712 -0.268836 0.482175 0.385932 -0.014413 0.070445 -0.273345 0.034294 -0.344216 -0.566591 0.144804 -0.113230 -0.268704 -0.123681 0.939281 -0.069439 -0.010053 0.470459 -0.125355 -0.060469 -0.284504 -0.475386 -0.781611 -0.100637 -0.286539 0.347930 0.197645 -0.783416
75 -0.003658 -0.161812 0.028844 -0.623415 0.493475 -0.000593 -0.235252 0.197969 -0.142312 -0.070426 -0.205089 -0.145152 -0.396289 -0.178339 -0.300806 -0.231749 0.079555 -0.201475 -0.373517 0.119916 0.657304 0.066998 -0.265654 0.078855 -0.562292 0.121887 0.050026 0.057409 0.232324 -0.087779 0.335542 -0.205829 -0.566370 -0.078911 -0.157234 0.500353 0.299949 0.092877 0.079374 0.090943 0.174410 0.481512 0.038057 -0.146398 -0.050644 0.086447 0.146460 -0.098920 0.192460 -0.270544 -0.452126 0.319251 0.149492 0.342300 -0.084324 -0.208235 -0.226805 -0.124275 0.216628 0.220606 -0.235923 -0.514630 -0.353912 0.117942 -0.110955 0.056760 -0.120055 -0.121441 -0.093363 -0.240063 0.152328 -0.070148 0.285934 -0.520834 0.205785 0.074116 0.521512 0.339048 0.261562 -0.141413 -0.039218 -0.122889 0.202490 -0.417057 -0.081084 -0.095223 0.185534 0.005315 0.097784 0.239155 0.145445 0.163451 -0.161125 -0.283478 0.269799 0.621242 0.170727 -0.226108 0.312173 0.105025 -0.655976 -0.561105 0.221866 -0.257398 0.467860 0.219551 -0.198450 -0.045973 -0.468428 -0.307697 0.297984 -0.368666 -0.157596 -0.012690 0.130523 0.206038 -0.611368 0.231471 -0.267978 -0.347511 -0.526854 -0.473416 0.485474 0.350502 -0.315541 0.296395 0.189769 -0.332647
47 0.056129 0.047043 -0.182137 0.093754 0.124353 0.151886 -0.144818 0.010640 0.022671 0.217158 -0.097819 -0.092996 0.112108 -0.153405 -0.266800 -0.371445 -0.159308 0.275279 -0.028592 0.151635 0.228895 0.180534 0.121651 -0.136187 0.263800 -0.081222 0.254075 0.009271 0.018606 -0.090029 0.139539 0.101298 -0.068613 -0.344042 0.181427 0.176427 -0.345764 -0.129862 0.117818 0.109657 0.089492 0.412230 0.080498 -0.080574 -0.297295 0.132203 0.050328 -0.111676 0.221749 0.079589 -0.361552 -0.018860 0.415700 0.211767 -0.266759 -0.314424 -0.072073 -0.010179 0.088155 0.268876 -0.380743 -0.118780 -0.412867 -0.231610 -0.577865 -0.073284 -0.020905 0.306839 -0.238990 -0.004161 0.129010 0.371948 0.470162 -0.549094 0.048681 -0.307421 0.362202 0.503843 0.032692 -0.403584 -0.125874 -0.063767 0.115269 0.211901 0.236733 0.334766 0.650600 -0.310896 -0.188988 0.119949 0.386235 -0.002855 -0.154882 -0.205086 -0.363891 0.139543 0.004166 -0.218247 0.053380 -0.098822 -0.312880 0.169951 -0.063560 -0.312274 0.080388 0.071479 0.555558 0.243492 0.014553 -0.035491 0.085896 0.091702 -0.194456 -0.147099 -0.120503 -0.084565 -0.251904 0.242487 -0.162840 0.034151 -0.229764 -0.160642 -0.128223 -0.405534 -0.160705 0.111897 -0.068621 -0.163060
5 -0.136700 -0.256838 -0.417422 -0.090921 0.525483 0.452292 -0.509578 -0.115934 0.281223 -0.088269 0.011689 -0.417900 -0.575163 -0.233039 -0.437380 -0.795007 -0.067200 0.068473 -0.639390 0.040255 0.418930 0.114285 -0.056121 0.002756 -0.717103 0.477313 0.211204 -0.919930 0.169835 -0.618405 0.473579 -0.298431 -0.042636 -0.289529 0.019841 0.170607 -0.223513 0.081075 -0.170385 0.067654 -0.065618 0.914829 -0.024946 0.238885 -0.542951 0.425831 0.215158 -0.245106 0.600058 0.591035 -0.471574 0.049767 -0.034004 0.257900 -0.123920 -0.937463 -0.293616 0.005398 0.611530 0.208957 -0.508025 -0.753671 -0.388937 0.188515 -0.281507 -0.120233 -0.591221 -0.172832 -0.486441 -0.234841 0.154640 0.199801 0.254696 -0.382264 0.481670 -0.367889 0.570489 0.004062 0.302159 -0.228164 0.208508 0.006356 0.131963 0.116636 -0.236190 -0.279361 -0.044838 -0.138793 -0.196094 0.402770 0.069432 0.430642 -0.150201 -0.344804 -0.112347 0.372888 -0.623101 -0.824101 0.298769 0.312970 -0.345277 0.413343 0.154549 -0.434589 -0.422432 0.113618 0.167490 0.175750 0.018736 -1.186757 -0.176898 -0.318916 0.072308 0.260324 0.545254 0.520456 0.387439 0.352468 -0.228773 0.617626 -0.650215 -0.026392 -0.444638 0.028503 -0.005392 0.579942 0.231823 -0.197822
165 -0.136769 -0.246564 -0.402024 -0.087105 0.506413 0.441725 -0.503377 -0.107579 0.274061 -0.075258 0.007306 -0.421166 -0.551690 -0.234313 -0.426479 -0.762510 -0.060186 0.067085 -0.632034 0.040299 0.406877 0.108380 -0.050172 -0.002573 -0.698475 0.476639 0.197899 -0.896512 0.167977 -0.614896 0.467638 -0.291929 -0.039458 -0.292244 0.016835 0.170644 -0.217413 0.082811 -0.165622 0.064536 -0.072536 0.901568 -0.029055 0.236989 -0.521814 0.415234 0.213910 -0.236739 0.588392 0.589967 -0.456310 0.049431 -0.047348 0.252475 -0.120853 -0.922669 -0.279387 0.009197 0.600365 0.205354 -0.500720 -0.730907 -0.379838 0.186641 -0.267166 -0.120331 -0.577189 -0.161245 -0.479750 -0.225146 0.141394 0.184694 0.240730 -0.353802 0.469913 -0.353213 0.559943 -0.000861 0.299988 -0.221434 0.214928 0.012994 0.140539 0.110950 -0.229653 -0.281216 -0.053474 -0.141091 -0.201919 0.386061 0.059955 0.426546 -0.135579 -0.334339 -0.112877 0.363131 -0.614023 -0.802769 0.300089 0.306810 -0.327501 0.407951 0.157986 -0.425818 -0.433992 0.107025 0.140737 0.177699 0.027121 -1.158068 -0.173135 -0.316498 0.071012 0.262467 0.542516 0.501159 0.383074 0.354394 -0.219839 0.612110 -0.640454 -0.019157 -0.440159 0.032524 0.003390 0.573645 0.235473 -0.192465
184 -0.188961 -0.214460 0.024367 -0.228803 -0.080068 -0.329176 -0.338713 0.056630 0.177867 0.300005 -0.277475 -0.241860 -0.208422 -0.413698 0.026265 -0.341022 -0.092164 -0.086377 0.036599 -0.012869 -0.109241 0.466106 -0.294595 0.160119 -0.191490 -0.040974 0.594982 -0.124373 0.463067 0.073978 0.303650 -0.349911 -0.313577 -0.217927 -0.095972 0.364415 -0.148554 0.169537 -0.337187 -0.138848 -0.010410 0.191746 0.352974 0.244041 -0.138568 0.423321 0.302752 -0.171333 0.309265 -0.019233 -0.669564 0.043051 -0.486842 -0.006690 -0.262486 -0.154181 0.227764 -0.038004 0.191939 0.157854 -0.100867 -0.182808 -0.393625 0.116725 -0.020909 -0.143656 -0.630677 0.155533 0.221654 -0.551041 -0.181307 0.004028 -0.210004 -0.086908 0.115444 0.245707 0.397287 0.159255 -0.109769 -0.382538 -0.225868 0.089082 0.135543 0.107069 0.067014 0.372421 0.408693 0.079120 -0.128827 -0.273143 0.279834 0.054011 -0.396052 0.121198 -0.397630 0.274313 0.287390 0.152880 0.536905 0.065457 -0.504103 0.212540 0.093066 -0.069259 -0.118252 0.008635 -0.179375 -0.566260 -0.054664 -0.355101 0.395511 -0.298170 -0.161914 0.101578 0.478720 0.221842 -0.092007 0.812680 0.142754 0.181573 -0.386397 -0.327237 -0.283488 -0.602795 -0.272800 0.297341 0.038841 -0.341335
262 -0.041095 -0.146395 0.012650 -0.598814 0.459327 0.002723 -0.244499 0.176687 -0.104942 -0.053765 -0.186468 -0.154430 -0.391219 -0.153308 -0.281851 -0.175476 0.099167 -0.183461 -0.343937 0.140883 0.605227 0.079432 -0.265195 0.120382 -0.585522 0.174474 0.051119 0.069486 0.207005 -0.087329 0.355877 -0.233730 -0.496034 -0.023962 -0.195976 0.498227 0.270845 0.099027 0.096140 0.090564 0.153252 0.501954 0.034688 -0.133462 -0.055846 0.062446 0.102892 -0.067578 0.184812 -0.223212 -0.473662 0.287750 0.101833 0.332447 -0.101778 -0.229808 -0.215721 -0.095989 0.202985 0.198851 -0.196377 -0.549346 -0.333555 0.090690 -0.096270 0.031580 -0.125273 -0.165490 -0.141340 -0.215108 0.108517 -0.026738 0.290487 -0.445212 0.185016 0.110766 0.561046 0.316922 0.285777 -0.141156 -0.024719 -0.131620 0.238295 -0.372255 -0.132188 -0.119729 0.154005 -0.050396 0.131810 0.227248 0.120414 0.177083 -0.162316 -0.297023 0.276519 0.636594 0.143281 -0.252744 0.325892 0.144873 -0.565622 -0.557420 0.208736 -0.210260 0.437613 0.192181 -0.179572 -0.033480 -0.425693 -0.334678 0.276696 -0.358930 -0.164054 0.039707 0.132742 0.223465 -0.598505 0.246107 -0.258801 -0.331738 -0.508684 -0.466215 0.468408 0.369278 -0.298258 0.285514 0.189855 -0.320642
307 0.096089 -0.061471 0.149004 0.002375 0.214527 0.433830 -0.040455 -0.202809 -0.331232 0.149121 0.151837 0.123354 -0.160312 -0.246360 -0.105330 -0.384820 -0.111471 -0.042169 -0.039260 0.232241 0.016721 0.326963 0.076125 -0.124526 0.037013 0.002601 0.566516 -0.417889 0.266561 0.129984 0.141652 -0.375154 -0.239526 0.113687 0.263232 -0.098112 -0.012525 -0.126249 0.099586 0.289179 -0.239998 0.027024 0.018438 -0.045729 -0.298653 0.503957 -0.318718 -0.343892 0.231877 -0.366866 -0.249777 -0.164758 0.259920 0.368180 0.217193 0.062412 -0.327074 -0.507987 0.097046 0.317420 0.324314 -0.546839 -0.294914 0.334977 0.108851 -0.075171 -0.236338 -0.251718 0.050822 -0.391984 0.231746 0.198410 -0.044935 -0.463865 0.435396 0.027329 0.483562 0.408976 0.104386 -0.042899 -0.506230 -0.306942 -0.112399 -0.169785 0.070928 0.471145 0.054978 0.017368 -0.113428 0.004129 0.208719 -0.248188 -0.087142 -0.053243 -0.049029 -0.037419 -0.131803 -0.133429 0.236073 -0.291068 -0.558894 0.196233 -0.079667 0.129849 0.621954 0.215778 0.129825 -0.467429 0.034370 -0.883048 0.045602 -0.583157 -0.350875 -0.203812 0.369297 -0.047091 -0.304420 0.114771 -0.246072 -0.374080 -0.564378 -0.432757 -0.265800 -0.210425 -0.070095 -0.358970 -0.084655 -0.444941
189 -0.049288 -0.066970 -0.267719 0.020100 0.108782 0.245902 -0.227652 -0.050099 0.078777 0.276341 0.002230 -0.091460 0.072796 -0.130673 -0.370635 -0.520118 -0.243247 0.242599 -0.012148 0.228175 0.107744 0.165896 0.152592 -0.230959 0.290384 -0.126622 0.199829 0.015566 0.060424 -0.151549 0.100091 0.096579 -0.088973 -0.274432 0.147127 0.212756 -0.574402 -0.120954 0.078632 0.066297 0.001686 0.427700 0.094784 -0.135175 -0.345526 0.238220 0.089822 -0.134225 0.204856 0.098541 -0.342322 -0.175093 0.346304 0.152693 -0.227684 -0.281986 0.007214 -0.156039 0.072082 0.323602 -0.319800 0.013142 -0.344942 -0.184485 -0.491812 -0.142849 -0.003843 0.287568 -0.100890 -0.107913 0.029293 0.314691 0.349651 -0.549884 0.073643 -0.339427 0.282946 0.417577 0.032337 -0.482729 -0.106050 -0.171983 0.115469 0.146607 0.306732 0.400666 0.630518 -0.230301 -0.318163 0.098355 0.297539 -0.061472 -0.177328 -0.164684 -0.391127 -0.056612 0.023235 -0.145941 0.188329 -0.058798 -0.296593 0.232999 -0.196952 -0.387889 0.061462 0.062764 0.510550 0.249615 0.207395 -0.061868 -0.040231 0.179316 -0.155932 -0.082447 -0.072333 -0.139176 -0.073597 0.332764 -0.164640 0.107303 -0.190942 -0.203596 -0.321757 -0.508186 -0.054236 0.115092 -0.019446 -0.217418
159 -0.698259 0.546944 0.555762 -0.155817 -0.009055 0.615279 -0.200872 -0.180825 0.167721 0.326091 0.014824 -0.359477 -0.095622 -0.435998 -0.403651 0.192138 0.228891 0.239443 -0.331743 0.647757 0.027784 0.643269 -0.154320 -0.343236 -0.382330 0.377780 0.350363 -0.069367 0.275228 -0.426043 0.738143 -0.332572 -0.180253 -0.455432 0.256291 0.714173 -0.329139 0.640393 0.242754 0.187927 -0.073244 0.432488 0.255460 -0.250876 0.246803 0.197308 -0.055912 -0.177945 0.286408 0.015088 -0.612112 -0.323155 -0.044236 -0.134842 -0.019050 -0.219034 0.493753 -0.226654 0.363051 0.150056 -0.152770 -0.405913 -0.312950 0.115696 0.390180 -0.208844 -0.173430 -0.025242 -0.210259 -0.171801 -0.406423 -0.102384 0.401919 -0.218752 0.434195 -0.040145 0.929392 0.464158 0.033027 -0.137815 -0.097159 -0.434098 0.391306 -0.031103 -0.160498 0.393991 0.399377 -0.636420 0.152994 -0.020235 0.200754 0.043843 -0.131839 -0.107578 -0.042088 0.084937 -0.261326 -0.166610 0.351811 0.320008 0.028857 0.057928 -0.026536 -0.396958 -0.012186 -0.025811 0.009592 -0.026515 0.369681 -0.703598 -0.091797 -0.300374 0.110853 0.157604 -0.179153 0.227625 -0.585460 0.797548 -0.117320 0.221892 -0.631511 -0.086759 -0.506911 0.291912 -0.112872 -0.138354 0.504513 -0.214112
0 0.077547 -0.480549 0.058360 -0.599623 -0.093385 -0.153017 -0.253622 -0.152106 -0.208608 -0.279176 -0.165851 -0.078316 -0.518563 -0.387242 0.080361 -0.607568 0.631879 -0.180375 -0.283599 0.219655 0.053025 -0.164514 -0.227106 -0.264977 -0.740216 0.346800 0.080323 -0.517315 -0.208955 -0.302122 0.454059 0.011863 -0.603258 0.033409 0.057144 0.500424 0.290596 0.181070 0.256312 -0.014140 -0.213337 0.171922 -0.166111 0.004888 -0.175915 0.140100 0.019261 -0.433320 -0.107853 -0.206838 -0.800598 0.178364 -0.082170 -0.152296 -0.365824 0.089070 -0.282899 0.048697 -0.026596 0.165946 -0.136638 -0.722652 -0.206653 0.169571 0.097258 -0.041291 -0.512068 -0.551107 -0.412889 -0.130591 -0.171251 0.109041 0.552989 -0.324281 0.064315 0.121441 0.477129 0.334576 0.066919 -0.328793 0.279826 -0.185908 0.421682 -0.239244 -0.300161 0.469630 0.265567 -0.352839 0.014278 -0.184157 -0.149014 0.403349 -0.065194 -0.199729 0.030366 0.641693 0.162907 -0.067107 0.499933 0.050647 -0.252901 -0.698164 0.401775 -0.055649 0.552012 0.110965 0.204443 0.420372 0.317971 -0.120619 0.050919 -0.041127 -0.484427 0.059315 -0.027286 0.042435 -0.473087 0.205988 -0.177854 -0.335733 -0.620483 -0.467505 0.125301 -0.046873 -0.500274 0.360612 0.420326 -0.529319
281 -0.040599 -0.224693 0.039371 -0.560905 0.352727 -0.068216 -0.222295 0.096444 -0.133298 -0.129649 -0.204115 -0.178176 -0.407329 -0.187951 -0.212978 -0.226372 0.241502 -0.156975 -0.330778 0.181718 0.529087 0.041901 -0.238610 0.020149 -0.644552 0.254136 0.051923 -0.011787 0.124529 -0.191498 0.423511 -0.252976 -0.563147 -0.036377 -0.138331 0.553232 0.311626 0.144794 0.129014 0.087970 0.061940 0.461376 -0.000355 -0.124795 -0.060331 0.073060 0.103053 -0.138440 0.140810 -0.240793 -0.558588 0.300887 0.059783 0.219279 -0.192079 -0.217009 -0.209321 -0.079773 0.153637 0.195532 -0.197408 -0.566591 -0.274982 0.121509 -0.063087 -0.015242 -0.236542 -0.203600 -0.172597 -0.188741 0.009449 0.001458 0.337669 -0.434607 0.157764 0.107347 0.540056 0.271287 0.238268 -0.142942 0.054276 -0.130826 0.301922 -0.366578 -0.159166 -0.028690 0.155447 -0.070262 0.125432 0.176612 0.093659 0.234864 -0.110158 -0.239544 0.260357 0.690537 0.159615 -0.186096 0.303558 0.132103 -0.524768 -0.591138 0.280144 -0.204639 0.450777 0.188037 -0.166296 0.064072 -0.305283 -0.269492 0.268879 -0.247114 -0.172390 0.080673 0.098946 0.219438 -0.554470 0.259281 -0.201207 -0.337227 -0.515919 -0.444860 0.407254 0.305171 -0.324863 0.317786 0.236835 -0.347777
145 -0.182130 -0.221183 0.029290 -0.202287 -0.094625 -0.320826 -0.312563 0.053902 0.177299 0.297859 -0.261823 -0.237652 -0.211818 -0.418451 0.036932 -0.354895 -0.084720 -0.101980 0.060865 -0.002436 -0.139491 0.463761 -0.300605 0.162343 -0.160355 -0.046352 0.622190 -0.123022 0.467897 0.092737 0.290893 -0.363954 -0.311238 -0.202283 -0.083630 0.343160 -0.137375 0.163930 -0.351865 -0.132607 -0.035477 0.163912 0.356199 0.247054 -0.139753 0.438465 0.287096 -0.174371 0.302848 -0.046949 -0.672483 0.044249 -0.498109 -0.013489 -0.256940 -0.140125 0.216919 -0.061522 0.185250 0.156792 -0.084780 -0.178544 -0.378802 0.135926 -0.021546 -0.173688 -0.645042 0.152188 0.239088 -0.566822 -0.176094 -0.000134 -0.238811 -0.067376 0.124018 0.259479 0.361875 0.141919 -0.102681 -0.355004 -0.248520 0.110188 0.105012 0.118798 0.080825 0.370629 0.387929 0.086862 -0.133743 -0.284296 0.283918 0.022841 -0.373776 0.132929 -0.387299 0.257030 0.268715 0.182154 0.546489 0.045392 -0.516569 0.243894 0.069715 -0.057408 -0.100660 0.002981 -0.165883 -0.581877 -0.035430 -0.358065 0.391905 -0.320671 -0.165149 0.096018 0.487116 0.209432 -0.077175 0.790928 0.160151 0.169713 -0.400484 -0.322764 -0.285571 -0.613377 -0.255365 0.258030 0.020156 -0.352786
306 -0.036108 -0.149675 0.038650 -0.604343 0.453481 -0.006356 -0.230810 0.167545 -0.132598 -0.087748 -0.198038 -0.158794 -0.392789 -0.175019 -0.277301 -0.216193 0.124871 -0.179698 -0.381155 0.136508 0.610952 0.067292 -0.252132 0.076682 -0.604704 0.174440 0.054091 0.036004 0.194701 -0.129670 0.379373 -0.228080 -0.551217 -0.074963 -0.144170 0.504217 0.304657 0.115760 0.082501 0.093663 0.149071 0.484602 0.026642 -0.147558 -0.055220 0.076078 0.134865 -0.108800 0.188279 -0.248860 -0.468107 0.308654 0.109780 0.306631 -0.111391 -0.220055 -0.224910 -0.118203 0.216478 0.215282 -0.228020 -0.534662 -0.330154 0.114614 -0.077145 0.040767 -0.151586 -0.156510 -0.124723 -0.232633 0.118867 -0.060340 0.301916 -0.491208 0.215676 0.081230 0.532733 0.308002 0.272238 -0.130710 -0.010817 -0.130250 0.235069 -0.401529 -0.113253 -0.100521 0.161896 -0.014272 0.104454 0.235822 0.123541 0.168245 -0.145040 -0.273191 0.276846 0.630032 0.133808 -0.232473 0.317125 0.131253 -0.606989 -0.545268 0.231251 -0.240937 0.444145 0.207647 -0.202646 -0.023764 -0.412292 -0.330998 0.273342 -0.362576 -0.147732 0.022142 0.115276 0.231589 -0.592851 0.236819 -0.252804 -0.329610 -0.526985 -0.451367 0.440033 0.364546 -0.308917 0.294954 0.204983 -0.331261
267 -0.186769 -0.199341 0.021799 -0.203920 -0.075401 -0.309069 -0.302663 0.057197 0.170824 0.293878 -0.262779 -0.234998 -0.193491 -0.415140 0.031192 -0.334303 -0.077533 -0.084890 0.041235 -0.014491 -0.094318 0.452880 -0.291189 0.153900 -0.176381 -0.046177 0.597511 -0.126543 0.470313 0.069275 0.306843 -0.360504 -0.329281 -0.207614 -0.089353 0.361564 -0.146346 0.179321 -0.346028 -0.116943 -0.029334 0.196925 0.342756 0.234062 -0.152452 0.422085 0.297356 -0.180037 0.299752 -0.028506 -0.662337 0.051891 -0.481381 -0.009959 -0.256284 -0.142677 0.222360 -0.069946 0.190971 0.172662 -0.101717 -0.185900 -0.386246 0.136583 -0.016602 -0.162540 -0.633092 0.155493 0.226722 -0.543654 -0.165288 0.005186 -0.217479 -0.080470 0.129893 0.235087 0.392246 0.136928 -0.114072 -0.367427 -0.232458 0.092318 0.136137 0.078451 0.084193 0.358057 0.406854 0.090051 -0.134311 -0.271769 0.283167 0.041507 -0.366312 0.135699 -0.386345 0.271069 0.275880 0.154105 0.541511 0.044539 -0.515880 0.220006 0.085723 -0.043706 -0.109031 0.000793 -0.187352 -0.566575 -0.048991 -0.364928 0.391077 -0.310875 -0.164727 0.094032 0.500013 0.219359 -0.087461 0.784744 0.152238 0.167967 -0.399178 -0.332800 -0.293944 -0.590697 -0.254298 0.270120 0.031059 -0.366632
78 -0.175749 -0.231300 0.009855 -0.224507 -0.068780 -0.345311 -0.318052 0.063387 0.181594 0.287631 -0.276325 -0.247285 -0.208919 -0.403864 0.039179 -0.344610 -0.088003 -0.107259 0.041344 -0.021850 -0.099620 0.435655 -0.294461 0.169858 -0.181928 -0.043119 0.573975 -0.111257 0.451628 0.071443 0.300665 -0.337904 -0.310940 -0.214247 -0.109407 0.349017 -0.136089 0.162591 -0.340704 -0.136410 -0.015277 0.198927 0.353363 0.240099 -0.146666 0.407140 0.298806 -0.159392 0.308505 -0.005770 -0.650740 0.068072 -0.484445 -0.005637 -0.274790 -0.153604 0.216809 -0.037699 0.191492 0.159884 -0.113745 -0.182941 -0.379327 0.108668 -0.027815 -0.150226 -0.632775 0.158793 0.212501 -0.537786 -0.161214 0.012219 -0.211465 -0.078393 0.105090 0.242300 0.363605 0.136076 -0.097256 -0.359476 -0.216306 0.117151 0.123965 0.115602 0.074931 0.345961 0.393350 0.094305 -0.113716 -0.266281 0.269855 0.036730 -0.383520 0.120186 -0.386186 0.280990 0.276604 0.142023 0.535180 0.045214 -0.498714 0.203768 0.087584 -0.061063 -0.117961 0.004076 -0.163029 -0.544903 -0.056156 -0.342782 0.398776 -0.291732 -0.165856 0.093223 0.468511 0.218183 -0.079092 0.776697 0.147259 0.175434 -0.372301 -0.329906 -0.260936 -0.593222 -0.249519 0.289617 0.031009 -0.338716
186 -0.093276 -0.165350 0.023825 -0.535199 0.446670 -0.022703 -0.234846 0.145554 -0.103666 -0.081054 -0.212539 -0.231201 -0.345787 -0.142430 -0.293864 -0.111172 0.116534 -0.109770 -0.306979 0.154578 0.622101 0.117458 -0.231582 0.090840 -0.601694 0.237786 0.074934 0.109710 0.211046 -0.158287 0.438518 -0.318365 -0.532550 -0.048774 -0.200357 0.565194 0.257183 0.163256 0.094430 0.129258 0.123095 0.545593 0.072543 -0.122398 -0.037226 0.063109 0.103238 -0.063746 0.222389 -0.204235 -0.494162 0.280148 0.090121 0.295780 -0.171995 -0.309476 -0.173731 -0.122769 0.201003 0.220901 -0.202356 -0.534199 -0.309567 0.095288 -0.106683 -0.021663 -0.162144 -0.104329 -0.102636 -0.193489 0.029615 0.002531 0.303048 -0.453362 0.175318 0.077426 0.593156 0.254717 0.255641 -0.136546 -0.002490 -0.136321 0.300078 -0.407656 -0.125161 -0.126406 0.147281 -0.017570 0.156291 0.276798 0.163660 0.213753 -0.141274 -0.248753 0.291498 0.696244 0.150769 -0.226458 0.257565 0.178303 -0.574900 -0.543373 0.240512 -0.205928 0.391959 0.189972 -0.242655 -0.018344 -0.451118 -0.322816 0.327586 -0.281064 -0.086315 0.092714 0.152161 0.261408 -0.564999 0.312580 -0.218602 -0.312910 -0.467064 -0.459847 0.422051 0.378653 -0.268760 0.315534 0.163673 -0.316524
120 -0.182063 -0.227372 0.009414 -0.210495 -0.086998 -0.324867 -0.319809 0.057901 0.174817 0.314575 -0.273309 -0.251909 -0.202653 -0.409902 0.029664 -0.356417 -0.091240 -0.096494 0.058149 -0.000317 -0.116911 0.460059 -0.299062 0.175026 -0.175789 -0.042017 0.607095 -0.110705 0.457234 0.085810 0.304152 -0.367035 -0.310895 -0.198784 -0.105032 0.349370 -0.156392 0.157676 -0.349482 -0.138069 -0.028348 0.200127 0.355907 0.242685 -0.156342 0.428752 0.283544 -0.160785 0.308861 -0.021915 -0.665916 0.051348 -0.491667 0.002551 -0.271923 -0.160875 0.215618 -0.050974 0.184435 0.169522 -0.096081 -0.183183 -0.393530 0.103977 -0.034631 -0.160445 -0.636621 0.155707 0.221384 -0.550010 -0.162846 0.023921 -0.226226 -0.079620 0.111381 0.247320 0.378903 0.151952 -0.090341 -0.370189 -0.239318 0.108973 0.121239 0.124149 0.068856 0.354015 0.390164 0.087770 -0.123318 -0.276544 0.282673 0.027617 -0.383724 0.118636 -0.398781 0.276526 0.266058 0.151521 0.543564 0.041026 -0.508859 0.224317 0.073669 -0.055353 -0.104607 0.010678 -0.158472 -0.559688 -0.048863 -0.354613 0.390189 -0.315987 -0.169335 0.102287 0.488913 0.213189 -0.084925 0.792458 0.150589 0.172683 -0.389454 -0.342639 -0.276750 -0.610984 -0.244453 0.270483 0.016491 -0.346328
232 -0.063053 -0.087812 0.024288 -0.587311 0.487683 0.007088 -0.239794 0.205966 -0.105111 -0.010777 -0.183698 -0.161026 -0.360417 -0.137063 -0.306051 -0.125562 0.042395 -0.170036 -0.337647 0.143865 0.640201 0.118031 -0.263854 0.143669 -0.529494 0.135022 0.062811 0.132244 0.257912 -0.078250 0.361845 -0.259232 -0.479323 -0.068498 -0.182757 0.502913 0.239773 0.101770 0.084648 0.090305 0.187979 0.519341 0.061806 -0.158557 -0.044341 0.069705 0.114971 -0.025384 0.223662 -0.242125 -0.433267 0.275443 0.130132 0.373485 -0.086359 -0.259861 -0.181978 -0.107967 0.220836 0.213749 -0.220624 -0.493852 -0.350567 0.067390 -0.122164 0.041116 -0.089910 -0.090293 -0.088788 -0.227896 0.135713 -0.046885 0.257639 -0.480270 0.199750 0.096790 0.572012 0.339444 0.292085 -0.134574 -0.070998 -0.133024 0.236048 -0.366139 -0.102715 -0.144118 0.180470 -0.025558 0.120854 0.268457 0.183419 0.127818 -0.168874 -0.308154 0.267463 0.619215 0.153673 -0.255760 0.312997 0.135870 -0.620629 -0.526024 0.187510 -0.250377 0.424631 0.205602 -0.213633 -0.087363 -0.491561 -0.347852 0.313332 -0.392613 -0.126337 0.028045 0.134709 0.243977 -0.631317 0.293511 -0.249284 -0.316555 -0.508412 -0.459082 0.471851 0.376079 -0.273974 0.270733 0.178221 -0.297720
2 -0.182685 -0.256639 0.007970 -0.257333 -0.071062 -0.363459 -0.337274 0.076380 0.185097 0.277316 -0.311385 -0.259488 -0.229981 -0.412164 0.036598 -0.366514 -0.115101 -0.088399 0.021619 -0.037338 -0.082369 0.455092 -0.313590 0.151630 -0.211964 -0.034721 0.571737 -0.121108 0.461645 0.058384 0.314378 -0.344188 -0.331792 -0.228453 -0.117614 0.389910 -0.132467 0.167164 -0.338310 -0.158946 0.004586 0.212986 0.362566 0.262750 -0.134955 0.411924 0.328689 -0.166375 0.309156 0.001181 -0.662463 0.058772 -0.489138 0.013531 -0.295633 -0.189195 0.241319 -0.006130 0.188639 0.156265 -0.130010 -0.166470 -0.410421 0.101915 -0.036491 -0.129410 -0.631853 0.183689 0.213427 -0.542699 -0.188592 -0.001504 -0.196227 -0.088076 0.090548 0.234269 0.381740 0.122153 -0.112952 -0.388927 -0.199657 0.108072 0.127418 0.103167 0.089999 0.355746 0.415085 0.090196 -0.121689 -0.252722 0.267678 0.082235 -0.395832 0.113026 -0.408262 0.301887 0.299384 0.136219 0.514006 0.068363 -0.484036 0.170287 0.116937 -0.099768 -0.139506 0.004298 -0.167393 -0.519843 -0.081255 -0.323867 0.399039 -0.280481 -0.156288 0.111141 0.477451 0.223158 -0.058086 0.813743 0.131943 0.185958 -0.366288 -0.310373 -0.262720 -0.604874 -0.268395 0.334503 0.053972 -0.313459
14 -0.362604 -0.263695 -0.453886 -0.067299 0.013140 0.349943 -0.491609 -0.281032 0.012585 0.360092 -0.157457 -0.346780 -0.282998 -0.111496 -0.244737 -0.211613 -0.140318 0.360629 -0.113154 0.380488 -0.095004 0.400139 0.011241 0.483972 -0.465788 0.282350 0.524057 -0.319626 0.038032 -0.292722 0.624725 -0.593915 0.116840 0.329378 -0.236497 -0.020582 -0.378257 0.126237 -0.046762 0.119388 0.029445 0.721766 0.090556 0.115268 -0.644150 0.303517 -0.414999 0.117972 0.479255 0.482755 -0.424754 -0.313647 -0.300348 0.172749 -0.319033 -0.446104 -0.392085 -0.022947 0.102376 0.316871 0.191943 -0.813839 -0.271624 -0.359128 -0.344043 0.007194 -0.510040 -0.566444 -0.424116 -0.203570 0.095956 0.616942 0.184867 -0.048826 0.171978 0.015294 0.857706 0.397183 0.385612 -0.570594 0.057954 -0.216078 0.656978 0.107463 -0.338508 -0.051300 0.032293 -0.192467 -0.015690 0.015801 0.011894 0.052484 -0.282633 -0.221782 -0.272772 0.531947 -0.286859 -0.659887 0.285542 0.322468 0.066735 -0.068060 -0.202572 0.662035 -0.222833 0.056431 0.400821 -0.089702 -0.207942 -0.844657 -0.010793 -0.304687 -0.270207 0.440730 0.566451 0.231217 -0.152196 0.488361 -0.132927 0.069805 -0.305029 -0.573032 -0.352696 -0.035942 0.111221 0.225983 -0.252916 -0.303546
231 -0.189670 -0.250893 0.010926 -0.238852 -0.079243 -0.356237 -0.331924 0.066485 0.186258 0.278118 -0.286361 -0.252590 -0.228008 -0.411344 0.046748 -0.355592 -0.109390 -0.095518 0.036497 -0.038706 -0.105973 0.451412 -0.310416 0.151435 -0.181538 -0.036216 0.587290 -0.135468 0.462218 0.066028 0.306736 -0.346981 -0.322152 -0.227328 -0.107744 0.362405 -0.141403 0.176291 -0.343045 -0.150946 -0.015521 0.196443 0.363674 0.270465 -0.141414 0.422446 0.314303 -0.171790 0.310851 0.008005 -0.663385 0.053027 -0.496633 -0.001308 -0.283506 -0.175426 0.235532 -0.021049 0.189340 0.148111 -0.112579 -0.167293 -0.400958 0.112526 -0.027399 -0.137118 -0.642152 0.177171 0.227643 -0.541381 -0.187290 0.001263 -0.209487 -0.068734 0.097359 0.237672 0.377320 0.132659 -0.119744 -0.382499 -0.211899 0.105669 0.120327 0.104893 0.082420 0.360816 0.409756 0.090026 -0.128958 -0.259265 0.270560 0.062169 -0.393535 0.127459 -0.413026 0.274751 0.293409 0.137828 0.527799 0.050287 -0.480151 0.199745 0.104222 -0.071620 -0.140382 0.004935 -0.162730 -0.538456 -0.055053 -0.344809 0.397692 -0.295982 -0.162520 0.106539 0.491526 0.219982 -0.051093 0.805973 0.135922 0.192125 -0.371089 -0.313421 -0.289407 -0.612585 -0.266305 0.310415 0.038831 -0.321039
112 -0.174764 -0.248988 0.034039 -0.234981 -0.083004 -0.335709 -0.307358 0.063191 0.171087 0.252051 -0.276481 -0.234994 -0.233927 -0.419021 0.058421 -0.360616 -0.101631 -0.088987 0.032328 -0.029568 -0.112451 0.439894 -0.307731 0.121516 -0.175900 -0.043800 0.586676 -0.162542 0.463358 0.062082 0.298661 -0.345408 -0.321122 -0.213119 -0.077926 0.360646 -0.119161 0.182489 -0.333506 -0.142641 -0.029358 0.161489 0.340007 0.262598 -0.126806 0.411975 0.311362 -0.177442 0.301643 -0.022951 -0.648851 0.050628 -0.477904 0.000562 -0.255784 -0.150668 0.230785 -0.049698 0.183769 0.148369 -0.098884 -0.167441 -0.399924 0.148400 -0.008215 -0.144186 -0.618381 0.172134 0.227220 -0.539331 -0.175640 -0.011313 -0.211913 -0.090345 0.107477 0.228611 0.371792 0.131051 -0.117462 -0.370811 -0.216118 0.082980 0.110884 0.084807 0.103199 0.375476 0.402222 0.090829 -0.136787 -0.251850 0.262887 0.063413 -0.383646 0.132695 -0.400563 0.267164 0.282791 0.150767 0.509697 0.045457 -0.494044 0.198129 0.104707 -0.065894 -0.105930 0.007772 -0.158439 -0.530698 -0.050588 -0.363071 0.387928 -0.309093 -0.170635 0.084312 0.479255 0.209854 -0.056435 0.781504 0.124188 0.175475 -0.381194 -0.298849 -0.288147 -0.601722 -0.270954 0.289178 0.055742 -0.331840
298 0.048354 -0.025432 0.138978 -0.018355 0.186122 0.452618 -0.074827 -0.217967 -0.332846 0.162765 0.154546 0.124981 -0.202664 -0.161637 -0.100110 -0.307268 -0.101404 -0.010808 -0.011357 0.283890 -0.026299 0.324196 0.033995 -0.101869 0.006902 -0.026761 0.577178 -0.396680 0.215241 0.105362 0.173782 -0.393356 -0.165223 0.093471 0.273464 -0.098177 -0.016159 -0.117831 0.108500 0.296905 -0.221414 0.059385 0.024850 -0.092305 -0.261872 0.482247 -0.345077 -0.295349 0.211309 -0.345215 -0.245792 -0.178788 0.290763 0.379090 0.253808 0.038604 -0.326612 -0.494247 0.102002 0.304411 0.337554 -0.597225 -0.238668 0.289540 0.089812 -0.088328 -0.207853 -0.314053 0.018179 -0.410834 0.249012 0.233488 -0.055929 -0.427854 0.422854 0.053105 0.498649 0.436758 0.126917 -0.019114 -0.509304 -0.309417 -0.095987 -0.101032 0.009977 0.460257 0.045142 -0.043279 -0.062788 0.008170 0.195291 -0.284169 -0.128501 -0.104025 -0.009707 -0.046966 -0.146361 -0.155124 0.196386 -0.284283 -0.499380 0.221550 -0.143837 0.166021 0.631819 0.219983 0.180650 -0.484422 0.096292 -0.926804 -0.000227 -0.586425 -0.365621 -0.217629 0.321354 -0.058725 -0.322853 0.104276 -0.254704 -0.384823 -0.556467 -0.441281 -0.240756 -0.176055 -0.054226 -0.395864 -0.080564 -0.396948
