309 128
279 -0.007218 -0.038020 -0.361867 0.179858 0.061549 -0.150075 -0.095183 0.256300 0.405274 -0.097012 -0.228344 -0.000090 0.160160 -0.071382 0.125446 0.016463 -0.297603 0.303056 0.073142 -0.095713 0.291406 -0.196152 0.233704 -0.220860 0.262427 -0.246538 -0.053463 0.212894 0.000030 -0.348000 0.120758 0.045522 -0.178163 -0.608158 -0.046418 -0.104821 -0.128119 -0.204454 0.053458 0.499523 0.243010 0.179597 0.167529 -0.128900 -0.425974 -0.185736 0.199224 0.098761 0.038472 0.404309 0.114424 0.088758 0.275376 -0.024165 -0.441130 -0.295067 -0.394151 0.187749 -0.052471 0.339882 -0.272484 -0.218599 0.235379 -0.175136 -0.307550 -0.221438 -0.007175 0.034260 -0.308554 0.182427 0.080058 0.380101 0.276113 -0.087134 -0.062236 -0.239673 -0.222765 0.072276 -0.150037 -0.391579 0.152854 0.478549 0.298379 0.275162 0.076695 0.028435 0.622467 0.201321 -0.088985 0.192389 0.190585 -0.082374 0.298918 -0.078897 -0.209970 0.146455 -0.013689 -0.371845 -0.178312 0.093889 -0.091898 0.096189 0.094615 0.004466 -0.296722 0.097346 0.438915 0.286118 0.097547 0.039058 -0.018274 0.724389 -0.234142 -0.009809 -0.304465 -0.206388 -0.156017 0.014473 -0.131754 -0.051246 0.234682 -0.027786 0.350870 -0.374282 0.127768 0.119367 0.055406 -0.103206
230 -0.451225 -0.430522 -0.145848 -0.190399 0.277052 -0.442352 -0.086581 0.288501 0.152666 -0.476954 -0.146670 -0.026098 -0.214129 -0.025456 0.207638 -0.159804 0.144221 -0.150356 -0.183459 0.181537 0.540454 -0.340452 -0.137778 -0.086912 -0.600092 -0.079973 -0.271062 0.034523 0.071881 -0.450393 0.157865 -0.032409 -0.588149 -0.053681 -0.287528 0.153531 0.451804 -0.185237 -0.108265 0.241880 -0.015997 0.226969 0.000490 -0.314798 -0.056720 -0.077738 0.323057 -0.219134 -0.082614 -0.038582 -0.044804 0.476935 0.122462 0.015389 -0.229346 -0.063636 -0.636281 0.236765 -0.021565 0.217968 -0.191705 -0.335471 0.286411 -0.023523 0.083315 -0.228908 -0.102836 -0.178639 -0.083392 0.106979 0.086886 0.034019 0.205375 -0.082474 -0.038539 0.176819 -0.033655 0.058837 0.194734 -0.143412 0.243212 0.380912 0.347334 -0.462055 -0.193675 -0.338345 -0.008744 0.383668 0.059553 0.445190 0.041835 0.055346 0.135934 -0.160150 0.173197 0.542644 0.187598 -0.236297 0.104283 0.192287 -0.405746 -0.672942 0.441378 0.076036 0.167455 0.105316 -0.361467 0.122060 -0.447583 -0.150117 0.009983 0.311697 -0.038401 -0.073058 -0.142280 0.085336 -0.512212 -0.104176 -0.161394 -0.480737 -0.064507 -0.438826 0.737016 0.367660 -0.085928 0.188687 0.320008 -0.333046
234 -0.000274 -0.027249 -0.427269 0.228050 0.072865 -0.167944 -0.090625 0.182557 0.398202 -0.118978 -0.209450 -0.013480 0.139082 -0.063303 0.119609 0.015657 -0.266726 0.245474 0.084302 -0.084849 0.269671 -0.165459 0.251807 -0.158566 0.226920 -0.238913 -0.045431 0.231218 -0.041964 -0.392490 0.093950 0.038064 -0.170452 -0.602249 -0.073926 -0.080103 -0.065651 -0.224575 0.062072 0.497122 0.225873 0.128362 0.193953 -0.110169 -0.384560 -0.180139 0.180056 0.103718 -0.005178 0.371912 0.126135 0.094587 0.226663 -0.076460 -0.401861 -0.296940 -0.381427 0.215257 -0.063888 0.323194 -0.258836 -0.218825 0.263660 -0.164943 -0.276818 -0.232343 -0.027495 0.016397 -0.293905 0.180917 0.128731 0.335543 0.239274 -0.081417 -0.076224 -0.250210 -0.238425 0.038715 -0.164475 -0.381611 0.155882 0.495015 0.293443 0.269650 0.087307 0.032222 0.563749 0.218848 -0.083361 0.177649 0.162428 -0.069344 0.283877 -0.065269 -0.186900 0.085739 -0.005738 -0.346342 -0.180500 0.133107 -0.036205 0.064594 0.113160 0.026628 -0.315969 0.117934 0.456877 0.279035 0.126441 0.060970 -0.006892 0.744487 -0.221627 0.054239 -0.291385 -0.184164 -0.126169 0.024753 -0.110397 -0.053577 0.243330 -0.037240 0.366610 -0.386375 0.169306 0.102818 0.029198 -0.095967
26 -0.655640 -0.210133 -0.070174 0.130827 0.319594 -0.264969 -0.106519 -0.183873 0.074551 -0.461779 0.268241 0.444253 -0.211251 0.306752 0.419065 -0.126032 -0.181185 -0.169529 0.092771 0.077349 0.191018 -0.326764 0.120802 -0.222010 0.214220 -0.511257 0.495267 0.016297 0.290293 -0.018413 -0.009888 -0.389542 -0.138120 0.062164 0.190173 -0.314379 0.402258 -0.229689 -0.083812 0.382229 0.090777 -0.344031 0.299631 -0.296153 0.030203 0.028556 0.320063 -0.247959 0.105007 -0.168992 -0.217556 -0.102375 0.384819 0.150040 -0.062753 -0.020367 -0.435634 0.124309 -0.094421 0.595615 0.263138 -0.720375 0.526290 -0.070815 0.301419 -0.386828 0.001071 -0.361351 -0.201545 -0.009364 0.020899 0.434150 -0.123770 0.069955 -0.007434 0.362163 -0.148091 -0.072833 -0.131370 -0.025668 -0.368454 0.559868 0.057461 -0.183462 -0.205810 0.008436 0.241366 0.460342 0.026362 0.325732 -0.138966 -0.465263 0.163456 -0.184618 0.136684 -0.088847 0.100755 0.201112 -0.217576 -0.093239 -0.186228 0.228716 -0.046530 0.148805 0.062221 0.254488 0.011951 -0.519621 0.119048 -0.644645 0.010259 0.270277 -0.451948 -0.135650 -0.059474 -0.183995 -0.214342 -0.070412 -0.353021 -0.618701 0.167725 -0.190087 0.617414 -0.363042 -0.150078 -0.437821 -0.015240 -0.142644
150 -0.420436 -0.397113 -0.109888 -0.175630 0.271424 -0.459008 -0.106744 0.259965 0.166813 -0.488374 -0.128352 -0.028425 -0.228775 -0.024378 0.224630 -0.160653 0.190176 -0.158632 -0.176005 0.213785 0.537137 -0.374201 -0.137794 -0.096318 -0.629703 -0.068963 -0.280107 0.032413 0.048892 -0.484047 0.161618 -0.024002 -0.576848 -0.050002 -0.265389 0.154842 0.472254 -0.193602 -0.100096 0.227314 -0.044989 0.204792 -0.004564 -0.342243 -0.031171 -0.084533 0.329851 -0.205090 -0.072773 -0.049238 -0.055655 0.502340 0.091589 -0.008260 -0.243053 -0.061881 -0.634678 0.251543 -0.008234 0.219452 -0.206196 -0.335989 0.311893 -0.039530 0.087467 -0.242686 -0.105470 -0.193194 -0.097450 0.125459 0.058255 0.024175 0.205741 -0.080126 -0.055097 0.190746 -0.046631 0.056078 0.214890 -0.132279 0.259920 0.401089 0.352475 -0.441233 -0.220505 -0.339641 -0.013253 0.356033 0.072865 0.441100 0.020504 0.043858 0.150944 -0.166831 0.194579 0.558746 0.201312 -0.212217 0.124964 0.191758 -0.401029 -0.688288 0.454093 0.059330 0.171818 0.109291 -0.344645 0.150972 -0.424909 -0.127099 -0.002404 0.341197 -0.046929 -0.079610 -0.173061 0.112691 -0.529291 -0.092841 -0.147977 -0.502845 -0.067375 -0.428395 0.775964 0.354002 -0.076604 0.208168 0.332438 -0.324764
90 -0.432562 -0.389441 -0.136994 -0.172941 0.266580 -0.440285 -0.093396 0.263673 0.157032 -0.471957 -0.137931 -0.028409 -0.221874 -0.013576 0.204431 -0.150095 0.157279 -0.155529 -0.175657 0.200333 0.542058 -0.350913 -0.137802 -0.092099 -0.611012 -0.070749 -0.271630 0.035367 0.051741 -0.473631 0.169767 -0.036465 -0.572643 -0.061971 -0.273164 0.155671 0.448900 -0.187396 -0.111362 0.235300 -0.026562 0.227434 0.010042 -0.331371 -0.054974 -0.078052 0.332252 -0.207091 -0.072621 -0.020796 -0.058477 0.489968 0.107543 0.008042 -0.238609 -0.073036 -0.640510 0.251175 -0.015762 0.218861 -0.209133 -0.343740 0.300520 -0.022837 0.076495 -0.242905 -0.115040 -0.189547 -0.094944 0.108783 0.068988 0.041187 0.216708 -0.073184 -0.051108 0.186766 -0.034231 0.053674 0.212929 -0.133986 0.251251 0.393530 0.355070 -0.435210 -0.204228 -0.342069 -0.010375 0.356911 0.072721 0.439036 0.029846 0.040986 0.144365 -0.167860 0.183916 0.557409 0.180960 -0.232089 0.103790 0.193034 -0.388909 -0.657753 0.434349 0.061449 0.159914 0.112862 -0.354129 0.125692 -0.432988 -0.146504 -0.000356 0.325131 -0.026221 -0.056749 -0.167034 0.090261 -0.513708 -0.092608 -0.152878 -0.477392 -0.057459 -0.433289 0.742457 0.353951 -0.075248 0.196055 0.309357 -0.320997
228 -0.026348 -0.015833 -0.380720 0.221895 0.039962 -0.127827 -0.105513 0.237559 0.377403 -0.090543 -0.213965 0.012363 0.152032 -0.068545 0.122983 0.066794 -0.282029 0.303355 0.070962 -0.089608 0.298695 -0.178674 0.206759 -0.201099 0.256998 -0.228335 -0.032704 0.185934 -0.009869 -0.369117 0.130849 0.050095 -0.147334 -0.594107 -0.028523 -0.116154 -0.123799 -0.183762 0.066543 0.475946 0.224235 0.140466 0.180542 -0.100588 -0.412009 -0.154503 0.163963 0.094665 0.053712 0.390151 0.147163 0.104067 0.237957 -0.009090 -0.406411 -0.286986 -0.357805 0.192764 -0.066927 0.317477 -0.260545 -0.228099 0.223445 -0.178315 -0.284735 -0.237806 -0.017549 0.021769 -0.315394 0.190172 0.094646 0.393728 0.254806 -0.055699 -0.060324 -0.232303 -0.208481 0.068263 -0.124538 -0.340610 0.142900 0.481135 0.307996 0.273479 0.024907 0.011005 0.567216 0.176666 -0.058303 0.209668 0.197569 -0.086070 0.315322 -0.084306 -0.177411 0.182807 -0.039612 -0.344357 -0.176188 0.082199 -0.068189 0.120250 0.099473 0.033048 -0.302101 0.100368 0.419428 0.258377 0.114924 0.030668 -0.011589 0.682101 -0.218652 -0.033359 -0.296663 -0.161987 -0.161643 0.030377 -0.102940 -0.063844 0.243551 -0.038791 0.349278 -0.332509 0.158736 0.081339 0.040872 -0.089921
299 -0.045589 -0.043223 -0.413291 0.186163 0.022654 -0.134345 -0.091803 0.277294 0.375415 -0.070317 -0.206206 0.009385 0.157138 -0.089476 0.106784 0.061795 -0.269319 0.302205 0.061764 -0.091099 0.292845 -0.186213 0.214303 -0.206604 0.227686 -0.210271 -0.048539 0.142632 0.019912 -0.358170 0.153524 0.024448 -0.155557 -0.569728 -0.055962 -0.111780 -0.188974 -0.143638 0.040487 0.464327 0.228103 0.175613 0.149152 -0.127206 -0.418025 -0.152820 0.144812 0.092913 0.051719 0.380901 0.160904 0.074794 0.232690 0.010689 -0.404968 -0.282693 -0.380857 0.180483 -0.091476 0.308727 -0.270529 -0.240795 0.252131 -0.157179 -0.300549 -0.201039 -0.026129 0.034063 -0.290915 0.187782 0.050967 0.381658 0.218543 -0.038393 -0.051341 -0.193459 -0.180603 0.061949 -0.119199 -0.378791 0.142529 0.428074 0.299228 0.231667 0.027537 0.034844 0.539660 0.213863 -0.074319 0.192084 0.147185 -0.091344 0.281133 -0.070916 -0.183889 0.186393 -0.030116 -0.393427 -0.166092 0.122990 -0.070391 0.112400 0.078324 0.046359 -0.302752 0.053521 0.405490 0.264752 0.114176 0.019345 -0.021353 0.684832 -0.177776 -0.047102 -0.262357 -0.187732 -0.143931 0.029542 -0.096939 -0.023231 0.264971 -0.063747 0.321487 -0.317493 0.143845 0.105317 0.012473 -0.078938
28 -0.653224 -0.246032 -0.070108 0.140512 0.274912 -0.221211 -0.080540 -0.183564 0.069193 -0.430498 0.256353 0.433130 -0.214566 0.323729 0.404477 -0.115276 -0.202077 -0.161184 0.100033 0.075181 0.160264 -0.309877 0.125488 -0.254925 0.217241 -0.503477 0.490811 0.020484 0.295388 -0.011542 -0.014136 -0.401251 -0.148602 0.060368 0.196544 -0.305575 0.393283 -0.200323 -0.083611 0.396330 0.106887 -0.350773 0.313599 -0.291368 0.007656 0.036285 0.337865 -0.278645 0.085829 -0.160483 -0.230954 -0.109490 0.389855 0.133724 -0.052961 -0.027312 -0.445378 0.114304 -0.115053 0.607701 0.274947 -0.731360 0.546733 -0.059722 0.312659 -0.405847 -0.024308 -0.371554 -0.202902 -0.027253 0.026140 0.439258 -0.128743 0.066636 -0.006890 0.369843 -0.141455 -0.065112 -0.172149 -0.034961 -0.382387 0.555872 0.068173 -0.210082 -0.187457 0.031208 0.245295 0.487154 0.006109 0.329478 -0.142643 -0.453542 0.163193 -0.162163 0.125999 -0.084354 0.095936 0.207717 -0.252549 -0.093832 -0.185696 0.229243 -0.040527 0.154560 0.045506 0.252050 0.018917 -0.504406 0.110928 -0.673972 0.025989 0.279057 -0.462933 -0.151923 -0.038454 -0.199308 -0.205313 -0.054435 -0.354697 -0.596943 0.172266 -0.185774 0.606964 -0.344489 -0.162852 -0.445482 0.009256 -0.136404
127 -0.664263 -0.188955 -0.067940 0.129585 0.332904 -0.285126 -0.149091 -0.179958 0.094250 -0.451973 0.270365 0.461529 -0.233855 0.305328 0.435810 -0.124826 -0.174486 -0.164385 0.116089 0.091795 0.201760 -0.337922 0.103853 -0.228339 0.194571 -0.526357 0.518637 0.033052 0.271117 -0.043234 0.004409 -0.388777 -0.135654 0.044271 0.199499 -0.296131 0.398653 -0.251369 -0.102059 0.389951 0.101935 -0.326897 0.326116 -0.314638 0.043206 0.025458 0.344109 -0.227676 0.126719 -0.180745 -0.245306 -0.094689 0.371936 0.166103 -0.075355 -0.021115 -0.430498 0.146309 -0.073579 0.590848 0.235148 -0.720183 0.532047 -0.085658 0.295017 -0.397349 0.007123 -0.354865 -0.212838 -0.011770 0.005111 0.436747 -0.123315 0.066891 -0.018153 0.371511 -0.158953 -0.060955 -0.101391 -0.019852 -0.360731 0.594385 0.056977 -0.152344 -0.236269 -0.009305 0.268061 0.431246 0.036772 0.314762 -0.144710 -0.499466 0.160335 -0.221764 0.147346 -0.074375 0.121442 0.207644 -0.206560 -0.097047 -0.195179 0.237753 -0.049772 0.128711 0.050996 0.255253 0.011978 -0.523687 0.134240 -0.648112 -0.004436 0.295790 -0.462286 -0.141796 -0.085972 -0.174121 -0.245649 -0.046483 -0.367409 -0.630192 0.179108 -0.187810 0.660935 -0.375717 -0.140849 -0.428137 0.000161 -0.120506
7 -0.042171 -0.028143 -0.401635 0.166340 0.015584 -0.138501 -0.133821 0.287925 0.427375 -0.079819 -0.209794 0.009341 0.161952 -0.115734 0.135112 0.012973 -0.308131 0.323027 0.052529 -0.145462 0.271409 -0.192325 0.191090 -0.229651 0.283878 -0.265970 -0.060650 0.149704 0.028779 -0.340304 0.143317 0.036309 -0.152341 -0.559601 -0.055295 -0.096925 -0.190382 -0.138604 0.002548 0.461058 0.226964 0.191132 0.140191 -0.123714 -0.461717 -0.163532 0.182357 0.068237 0.055779 0.425393 0.114581 0.043539 0.259518 0.017332 -0.432665 -0.271982 -0.380303 0.152736 -0.064648 0.331615 -0.253468 -0.191105 0.242418 -0.171622 -0.297425 -0.187388 -0.011971 0.044251 -0.299665 0.161691 0.027501 0.350961 0.273511 -0.054486 -0.042754 -0.201367 -0.204984 0.067033 -0.109902 -0.395481 0.135238 0.445269 0.280452 0.258691 0.056166 0.028870 0.591052 0.196265 -0.098578 0.179433 0.207952 -0.125245 0.257356 -0.057708 -0.214052 0.168499 -0.031305 -0.369583 -0.138904 0.081336 -0.089364 0.122834 0.078484 0.014293 -0.301064 0.059698 0.333305 0.249907 0.122592 0.023042 -0.010907 0.673740 -0.208370 -0.060825 -0.275758 -0.228103 -0.153485 0.040739 -0.124696 -0.026347 0.228723 0.006962 0.324112 -0.341895 0.080522 0.096561 0.040645 -0.096937
278 -0.029660 -0.032451 -0.421443 0.200837 0.060492 -0.175438 -0.132824 0.232557 0.422660 -0.125149 -0.226150 -0.013016 0.145168 -0.077934 0.115239 -0.018489 -0.302423 0.299584 0.074153 -0.125112 0.264877 -0.175552 0.211536 -0.215924 0.265444 -0.265541 -0.057074 0.205461 0.015140 -0.336836 0.121630 0.050974 -0.145773 -0.594206 -0.062924 -0.078314 -0.100382 -0.167131 0.032466 0.482152 0.229242 0.185860 0.162479 -0.120231 -0.428671 -0.194528 0.199637 0.071765 0.015004 0.402602 0.081857 0.063291 0.250039 -0.029128 -0.430039 -0.282241 -0.360593 0.180549 -0.034222 0.313986 -0.277152 -0.148223 0.233703 -0.187989 -0.273619 -0.203135 -0.017075 0.021981 -0.300088 0.160320 0.074591 0.308490 0.304533 -0.100424 -0.065750 -0.239719 -0.236964 0.053466 -0.121220 -0.378035 0.168144 0.474593 0.267902 0.279136 0.082930 0.035599 0.618096 0.179271 -0.104422 0.156640 0.204435 -0.109500 0.266588 -0.054440 -0.208484 0.111438 -0.008535 -0.337717 -0.136602 0.099192 -0.076782 0.084469 0.113011 -0.016998 -0.313620 0.094762 0.366208 0.254903 0.092256 0.061756 -0.013645 0.691213 -0.210645 0.006890 -0.311986 -0.225583 -0.148819 0.046735 -0.113826 -0.060862 0.195740 0.035031 0.339876 -0.386754 0.095360 0.110655 0.062678 -0.125358
57 -0.082741 -0.083084 -0.513516 0.161448 0.064096 -0.203523 -0.125410 0.231119 0.460274 -0.112731 -0.195090 -0.000800 0.136419 -0.083610 0.142003 -0.012387 -0.280716 0.284202 0.074137 -0.117949 0.261969 -0.182428 0.235483 -0.203719 0.257929 -0.257733 -0.073239 0.180172 0.026554 -0.352030 0.107200 0.066231 -0.150216 -0.523113 -0.082560 -0.041540 -0.145968 -0.173861 -0.000116 0.497125 0.256845 0.189631 0.134586 -0.148180 -0.407269 -0.169839 0.219309 0.074494 0.011843 0.392757 0.113650 0.031399 0.294697 -0.046132 -0.442108 -0.281368 -0.390469 0.166902 -0.084267 0.331913 -0.241298 -0.186623 0.262846 -0.159004 -0.280835 -0.214639 0.015263 0.014769 -0.272957 0.178203 0.046422 0.311918 0.286209 -0.088001 -0.031292 -0.220358 -0.216041 0.047049 -0.134048 -0.410760 0.126081 0.429064 0.273747 0.251535 0.083049 0.050716 0.593479 0.229824 -0.097692 0.199096 0.177906 -0.105544 0.206116 -0.050805 -0.226862 0.079382 0.001081 -0.364527 -0.147380 0.122313 -0.035392 0.064409 0.057885 0.012177 -0.256932 0.093517 0.380171 0.294836 0.126961 0.041963 -0.026622 0.704351 -0.205780 0.000129 -0.295653 -0.234747 -0.110060 0.008050 -0.165541 -0.035453 0.262078 -0.023937 0.329432 -0.388504 0.101787 0.117266 0.026255 -0.091945
93 -0.436102 -0.397751 -0.130035 -0.162636 0.260119 -0.408163 -0.079668 0.250357 0.145891 -0.447791 -0.117029 -0.029984 -0.221166 -0.008536 0.217895 -0.150199 0.159119 -0.134597 -0.178500 0.188610 0.526251 -0.352963 -0.117963 -0.107433 -0.598433 -0.065913 -0.264962 0.021103 0.073515 -0.472111 0.170999 -0.048537 -0.576535 -0.033242 -0.270249 0.143050 0.461678 -0.182521 -0.096639 0.243792 -0.033026 0.223466 -0.025211 -0.327978 -0.064379 -0.084826 0.322140 -0.228898 -0.083854 -0.028604 -0.050202 0.472870 0.111248 0.014503 -0.250916 -0.100102 -0.655997 0.252695 -0.030048 0.221236 -0.179596 -0.362539 0.311431 -0.026149 0.068425 -0.239962 -0.109185 -0.195023 -0.102549 0.116308 0.054257 0.043837 0.218974 -0.065840 -0.041176 0.187662 -0.010867 0.040858 0.193450 -0.144999 0.252304 0.379287 0.361227 -0.465567 -0.207160 -0.353263 -0.009268 0.382562 0.063791 0.461788 0.042449 0.060882 0.163268 -0.155227 0.185882 0.564165 0.180726 -0.259323 0.095785 0.208396 -0.398658 -0.677607 0.450468 0.071914 0.168927 0.119394 -0.358380 0.141124 -0.439961 -0.167330 -0.002625 0.341455 -0.043143 -0.064614 -0.150983 0.089700 -0.513422 -0.112287 -0.156740 -0.495944 -0.069536 -0.436780 0.757532 0.387157 -0.094816 0.206588 0.324150 -0.333266
241 -0.031943 -0.062116 -0.410468 0.162827 0.047216 -0.202970 -0.152507 0.264282 0.427599 -0.098084 -0.198704 -0.018295 0.148058 -0.120092 0.130741 -0.045520 -0.315797 0.319084 0.061972 -0.160827 0.283254 -0.190436 0.213440 -0.221511 0.312710 -0.276632 -0.077313 0.184607 0.055906 -0.334855 0.110131 0.059742 -0.176271 -0.538022 -0.062349 -0.042229 -0.163809 -0.156939 -0.009792 0.503731 0.254315 0.210586 0.140747 -0.125701 -0.453743 -0.192179 0.216658 0.068528 0.033778 0.434879 0.099705 0.044698 0.291325 -0.048130 -0.454643 -0.260164 -0.391215 0.155526 -0.054510 0.321426 -0.263078 -0.143796 0.223966 -0.189622 -0.292001 -0.193720 -0.002704 0.044706 -0.292439 0.160931 0.049828 0.292729 0.319926 -0.123285 -0.028639 -0.229652 -0.213540 0.059760 -0.121173 -0.391519 0.137319 0.440630 0.262663 0.254938 0.082208 0.038564 0.642559 0.231981 -0.101710 0.174560 0.232852 -0.108431 0.219078 -0.053685 -0.258992 0.104313 -0.026550 -0.331596 -0.113451 0.086947 -0.099409 0.087313 0.086530 -0.020834 -0.249784 0.085235 0.338005 0.288243 0.098731 0.072097 -0.014239 0.672601 -0.208145 -0.022939 -0.283136 -0.260085 -0.146219 0.048391 -0.125253 -0.055761 0.210233 0.014477 0.340439 -0.423055 0.079421 0.109670 0.062589 -0.136457
91 -0.795213 -0.145452 -0.213837 -0.015878 0.335484 0.032733 -0.396837 -0.185535 0.381820 0.039623 -0.008919 -0.092382 -0.373036 0.026915 0.073687 -0.168660 -0.137724 -0.046222 -0.290848 0.297897 0.349654 0.123532 0.021686 0.157543 -0.609764 -0.027854 0.456471 -0.443599 -0.007875 -0.619242 0.491425 -0.590010 -0.049810 -0.063249 0.141984 -0.001265 -0.179378 -0.110487 -0.358176 0.278081 -0.204856 0.689283 0.100270 -0.218516 -0.578399 0.211925 0.238451 -0.105523 0.376686 0.492643 -0.465933 0.135645 -0.169573 0.210465 -0.336221 -0.702101 -0.587076 0.318856 -0.029339 0.558221 -0.020490 -1.057848 0.436689 0.002703 -0.115514 -0.376264 -0.654811 -0.527862 -0.395564 -0.404509 -0.124816 0.399304 0.054195 0.342469 0.166341 0.507495 0.342799 -0.092848 0.452707 -0.315896 0.035621 0.606602 0.284151 0.220077 -0.508766 -0.345617 -0.061149 0.257489 0.096687 0.343207 0.047394 -0.258802 -0.141942 -0.118760 0.129292 0.510682 -0.408183 -0.777735 0.189242 0.493239 -0.219023 0.205627 -0.018488 0.086867 -0.503791 0.148731 0.153419 -0.460250 -0.006037 -1.019817 -0.207784 0.454038 -0.171466 0.388966 0.105597 0.183423 0.071899 -0.047104 -0.172736 0.063597 -0.130659 -0.228109 0.386089 -0.103378 0.176223 0.074468 -0.217846 0.103942
242 -0.071703 -0.052237 -0.441971 0.180400 0.029403 -0.172673 -0.153607 0.275601 0.429888 -0.070473 -0.201769 -0.010580 0.145372 -0.102301 0.126437 -0.009170 -0.302630 0.317431 0.054378 -0.118508 0.291593 -0.187567 0.201539 -0.208949 0.272176 -0.270123 -0.053775 0.158612 0.033565 -0.355470 0.142320 0.036317 -0.148648 -0.532675 -0.055761 -0.082857 -0.181818 -0.140551 -0.010668 0.478257 0.232690 0.203567 0.148853 -0.132745 -0.445281 -0.169868 0.186839 0.077754 0.043793 0.437548 0.101229 0.049082 0.245948 -0.020797 -0.437383 -0.271278 -0.377713 0.166681 -0.060729 0.306953 -0.263541 -0.169777 0.242446 -0.187328 -0.292961 -0.192665 -0.026312 0.024196 -0.296469 0.150019 0.031940 0.319840 0.268073 -0.071316 -0.041825 -0.200758 -0.211437 0.047455 -0.098402 -0.383909 0.149208 0.457040 0.273784 0.266289 0.047521 0.030230 0.595914 0.214740 -0.101236 0.169111 0.205384 -0.126705 0.234607 -0.051265 -0.224525 0.139895 -0.044319 -0.342409 -0.115014 0.100462 -0.095101 0.117090 0.086794 0.003604 -0.290747 0.059249 0.340793 0.256909 0.110494 0.038170 -0.022473 0.676142 -0.194079 -0.027528 -0.272592 -0.229580 -0.143447 0.059350 -0.104756 -0.035945 0.229610 0.007269 0.334297 -0.388125 0.101997 0.101401 0.040552 -0.108861
202 -0.065607 -0.028360 -0.432693 0.126057 0.015566 -0.189084 -0.139174 0.331843 0.457331 -0.047933 -0.219162 0.004836 0.168960 -0.120984 0.149742 0.033855 -0.271014 0.331400 0.074798 -0.100880 0.317426 -0.187420 0.176425 -0.233786 0.244152 -0.243018 -0.062926 0.163449 0.047047 -0.344164 0.168739 0.055204 -0.104807 -0.541206 -0.024844 -0.081537 -0.217109 -0.132971 -0.017706 0.445860 0.241555 0.222007 0.139666 -0.160046 -0.412304 -0.146424 0.186016 0.101644 0.087436 0.407938 0.135003 0.067690 0.283632 0.031308 -0.441983 -0.252561 -0.355768 0.153484 -0.055285 0.336912 -0.299281 -0.193802 0.238094 -0.213224 -0.302392 -0.220655 0.025520 0.032850 -0.295224 0.182253 -0.001967 0.379567 0.259445 -0.072312 -0.032193 -0.179543 -0.203259 0.091769 -0.061174 -0.385113 0.119910 0.435008 0.299633 0.308329 0.004081 0.053433 0.599241 0.172919 -0.066393 0.206082 0.191398 -0.159947 0.237405 -0.084072 -0.210959 0.194110 -0.015681 -0.378732 -0.120840 0.065677 -0.092279 0.123575 0.027246 -0.024707 -0.286261 0.050890 0.391813 0.268453 0.130139 0.011643 -0.036196 0.681277 -0.188150 -0.070194 -0.310714 -0.200627 -0.180179 0.065902 -0.141324 -0.027333 0.260322 -0.026572 0.332366 -0.367915 0.113445 0.116131 0.045610 -0.065258
135 -0.051142 -0.064111 -0.475469 0.205760 0.058169 -0.195683 -0.116608 0.235160 0.425891 -0.092041 -0.213203 0.000537 0.136150 -0.076879 0.124274 0.008568 -0.278972 0.274149 0.076230 -0.093790 0.288806 -0.159934 0.228666 -0.173585 0.263000 -0.241118 -0.035698 0.205772 0.004347 -0.365030 0.121072 0.051468 -0.147564 -0.574004 -0.060075 -0.059212 -0.114180 -0.196833 0.023434 0.509492 0.247977 0.166631 0.183055 -0.107126 -0.382005 -0.162010 0.197349 0.086671 0.022132 0.389859 0.128619 0.093582 0.241484 -0.060666 -0.427811 -0.275211 -0.359353 0.189257 -0.057313 0.306432 -0.265364 -0.182405 0.224840 -0.167282 -0.285454 -0.247155 -0.005383 0.012652 -0.287288 0.166490 0.094305 0.335272 0.254809 -0.096322 -0.057340 -0.236834 -0.228649 0.054908 -0.130121 -0.373579 0.131137 0.463556 0.288454 0.281447 0.063234 0.049806 0.574576 0.221719 -0.069444 0.186803 0.198512 -0.078701 0.238345 -0.064570 -0.208612 0.100420 -0.012883 -0.327119 -0.155988 0.107048 -0.062529 0.086240 0.074766 0.010271 -0.267647 0.094242 0.412406 0.276006 0.107199 0.053248 -0.010702 0.685872 -0.205366 0.010997 -0.293199 -0.188217 -0.146519 0.026297 -0.131149 -0.055110 0.238210 -0.031692 0.344591 -0.393395 0.140858 0.109761 0.041997 -0.096891
108 -0.078695 -0.038001 -0.434315 0.204211 0.045480 -0.103994 -0.075201 0.277026 0.362630 -0.087067 -0.201340 0.029617 0.160155 -0.072658 0.128115 0.095946 -0.278638 0.315184 0.073731 -0.078301 0.306146 -0.187602 0.214650 -0.219949 0.245825 -0.207349 -0.048966 0.156878 0.004204 -0.376712 0.150510 0.047570 -0.155220 -0.586652 -0.032850 -0.108955 -0.157103 -0.170898 0.076737 0.486516 0.243988 0.138201 0.149722 -0.115902 -0.421396 -0.154065 0.146684 0.102883 0.050522 0.387589 0.174758 0.079044 0.270353 0.017372 -0.413912 -0.295351 -0.386838 0.187213 -0.102106 0.317573 -0.256974 -0.258141 0.243758 -0.156253 -0.307465 -0.233764 0.013749 0.016784 -0.304946 0.210215 0.075181 0.431488 0.237828 -0.033049 -0.061176 -0.214519 -0.182792 0.061379 -0.154501 -0.371780 0.135817 0.452278 0.322927 0.255822 0.023670 0.019007 0.549444 0.185704 -0.060334 0.235483 0.189480 -0.077785 0.311903 -0.078615 -0.187206 0.189089 -0.030599 -0.388726 -0.223123 0.096642 -0.047359 0.129598 0.091816 0.067665 -0.311521 0.081219 0.446830 0.292403 0.107814 0.019574 -0.018535 0.698953 -0.206416 -0.067051 -0.286238 -0.163697 -0.161998 0.001031 -0.127827 -0.043353 0.268645 -0.078599 0.328449 -0.287170 0.159944 0.095145 0.025037 -0.079632
132 -0.280352 -0.252148 -0.137644 -0.097655 0.076392 -0.587021 -0.271650 0.244311 0.217193 0.010691 -0.360499 -0.094688 -0.077417 -0.257917 0.194166 -0.470817 -0.114152 -0.122730 -0.099308 -0.010417 0.284698 0.039843 -0.100178 -0.048153 -0.284768 -0.295986 0.405044 -0.041827 0.333601 -0.021223 0.343220 -0.531418 -0.488979 -0.399555 -0.091827 0.226064 -0.107033 -0.012031 -0.519855 0.022743 0.131649 0.160765 0.421463 -0.031019 -0.141407 0.232022 0.529121 -0.259887 0.150430 0.222912 -0.536141 0.293457 -0.311524 -0.174566 -0.232486 -0.113273 -0.168164 0.131658 0.082679 0.451332 -0.246941 -0.286528 -0.034560 -0.049303 0.227005 -0.208067 -0.655135 -0.037328 -0.061368 -0.221382 -0.070885 0.217329 -0.137160 -0.170275 0.061060 0.278315 -0.171801 -0.023525 -0.197061 -0.479287 -0.313313 0.407748 0.312858 -0.013424 0.005953 0.359504 0.449873 0.394015 -0.095801 -0.102382 0.130926 -0.038890 -0.199550 0.230814 -0.236625 0.354901 0.373295 0.165145 0.397452 -0.123483 -0.514139 0.039191 0.219508 0.011604 -0.202546 0.118675 -0.221860 -0.453110 -0.040451 -0.246290 0.267674 0.193803 -0.195105 -0.041561 0.306289 -0.027713 -0.308150 0.663831 0.100894 -0.091740 -0.039433 -0.429417 0.216025 -0.736102 -0.179914 0.268583 0.294934 -0.392172
252 -0.025294 -0.020994 -0.329450 0.175514 0.023986 -0.091144 -0.026698 0.198808 0.353325 -0.088758 -0.222440 0.045556 0.138232 -0.016166 0.132870 0.205173 -0.226080 0.280569 0.087007 -0.045884 0.320565 -0.158759 0.241769 -0.161199 0.175765 -0.178827 -0.015819 0.159359 -0.056347 -0.426987 0.117283 0.047638 -0.128576 -0.582063 -0.069847 -0.160484 -0.088921 -0.204719 0.118156 0.461460 0.242711 0.110348 0.185868 -0.101996 -0.363570 -0.134289 0.113097 0.149020 0.032893 0.332738 0.246222 0.109935 0.238078 0.014074 -0.368264 -0.339593 -0.383527 0.237467 -0.164595 0.337636 -0.231441 -0.349823 0.296793 -0.143756 -0.306877 -0.261081 -0.010692 0.017863 -0.311993 0.215912 0.108321 0.474477 0.198528 0.026118 -0.061699 -0.205474 -0.166323 0.046591 -0.226099 -0.396050 0.146010 0.461561 0.369107 0.262871 -0.009347 0.020233 0.479341 0.212523 -0.004144 0.307423 0.119766 -0.044334 0.358436 -0.108595 -0.126342 0.199915 -0.001104 -0.449914 -0.306670 0.146376 0.037441 0.107028 0.066641 0.124209 -0.353377 0.089166 0.545011 0.300449 0.156276 -0.034136 -0.034201 0.758086 -0.234521 -0.021728 -0.289881 -0.120826 -0.107958 -0.020347 -0.164433 0.000228 0.356295 -0.151110 0.362015 -0.256797 0.221265 0.109388 -0.038979 -0.010373
6 -0.246654 -0.227664 -0.113205 -0.094670 0.077410 -0.611721 -0.262829 0.260407 0.222789 0.015157 -0.364863 -0.111489 -0.085013 -0.268794 0.203611 -0.470372 -0.106911 -0.128277 -0.100126 -0.009451 0.297644 0.031064 -0.103693 -0.059212 -0.289149 -0.319460 0.403677 -0.032813 0.330440 -0.023117 0.352550 -0.535564 -0.483051 -0.410435 -0.091426 0.237521 -0.105284 -0.001749 -0.518592 0.012716 0.129394 0.163367 0.427220 -0.044716 -0.140606 0.222499 0.541543 -0.266032 0.165288 0.225063 -0.534954 0.309337 -0.318097 -0.181695 -0.231485 -0.093522 -0.149057 0.129693 0.098462 0.453050 -0.253304 -0.276795 -0.031271 -0.063407 0.245232 -0.218667 -0.660152 -0.030489 -0.073447 -0.226139 -0.071505 0.220443 -0.140246 -0.169221 0.053086 0.277320 -0.169279 -0.011177 -0.175803 -0.468647 -0.318821 0.419720 0.325291 -0.006574 0.008312 0.351292 0.455722 0.400560 -0.090366 -0.106691 0.116172 -0.045220 -0.200564 0.236929 -0.241788 0.360778 0.384582 0.161649 0.409193 -0.128667 -0.506957 0.026685 0.223006 0.015705 -0.202701 0.122992 -0.230074 -0.456239 -0.030999 -0.254376 0.274311 0.207994 -0.205320 -0.049977 0.281100 -0.023255 -0.317839 0.672706 0.104383 -0.103092 -0.029170 -0.438911 0.237009 -0.752124 -0.172435 0.270703 0.325175 -0.397330
33 -0.450142 -0.409168 -0.133897 -0.174933 0.281788 -0.425900 -0.075201 0.286946 0.157187 -0.466818 -0.126445 -0.022003 -0.206511 -0.027892 0.203255 -0.137173 0.135524 -0.137595 -0.203761 0.199028 0.534047 -0.329248 -0.120950 -0.102197 -0.595997 -0.067753 -0.280974 0.029043 0.079522 -0.461664 0.159118 -0.025972 -0.576089 -0.060289 -0.285125 0.154191 0.449363 -0.178293 -0.108471 0.244519 -0.024206 0.227867 -0.006803 -0.332135 -0.067939 -0.077984 0.325033 -0.228443 -0.081531 -0.028738 -0.036420 0.479077 0.117738 0.009744 -0.229391 -0.078624 -0.642964 0.237104 -0.015015 0.215210 -0.184436 -0.334890 0.283941 -0.022576 0.093377 -0.222684 -0.104098 -0.186073 -0.082454 0.109906 0.093499 0.016533 0.217975 -0.075763 -0.036479 0.181060 -0.009373 0.063085 0.197926 -0.142025 0.260650 0.372053 0.346656 -0.469391 -0.188497 -0.343946 -0.007354 0.374496 0.050712 0.444706 0.045563 0.065460 0.156670 -0.160680 0.163254 0.552235 0.168556 -0.255061 0.104976 0.211308 -0.390326 -0.657076 0.442842 0.079147 0.157652 0.101927 -0.350249 0.131647 -0.441329 -0.157975 -0.005587 0.317810 -0.027944 -0.078183 -0.147014 0.096186 -0.506699 -0.113781 -0.154202 -0.479359 -0.063494 -0.434648 0.717435 0.377203 -0.087897 0.179555 0.322342 -0.335651
183 -0.452611 -0.425828 -0.163478 -0.169520 0.299433 -0.429194 -0.062415 0.287613 0.142705 -0.459646 -0.150887 -0.047871 -0.194943 -0.032867 0.204229 -0.148432 0.118208 -0.118704 -0.168100 0.169426 0.543735 -0.331666 -0.131105 -0.085124 -0.563502 -0.067376 -0.278820 0.050052 0.103819 -0.439699 0.152827 -0.038954 -0.591254 -0.033951 -0.284687 0.153931 0.416619 -0.206940 -0.107028 0.270757 -0.010120 0.233008 -0.004760 -0.300757 -0.086902 -0.065008 0.315106 -0.222614 -0.055606 -0.024479 -0.028502 0.476764 0.124209 0.031071 -0.231673 -0.078432 -0.653678 0.201352 -0.022835 0.206363 -0.182609 -0.316781 0.261542 -0.029250 0.051972 -0.226943 -0.092761 -0.148806 -0.077034 0.109736 0.082592 0.036503 0.210958 -0.104315 -0.044553 0.173070 -0.000311 0.065011 0.207221 -0.153613 0.248831 0.371994 0.352133 -0.477529 -0.183246 -0.363938 -0.020408 0.390926 0.056915 0.461121 0.076605 0.070437 0.136045 -0.169607 0.152982 0.566286 0.175112 -0.263402 0.091134 0.202952 -0.431039 -0.670544 0.458311 0.059360 0.168582 0.103940 -0.386965 0.122667 -0.504177 -0.155537 0.023791 0.311331 -0.037183 -0.069307 -0.122668 0.073154 -0.536848 -0.113717 -0.168868 -0.485712 -0.076945 -0.459580 0.733458 0.392037 -0.063427 0.185800 0.293246 -0.349030
298 -0.587429 -0.204791 -0.063359 0.125031 0.301004 -0.227926 -0.088837 -0.191770 0.051410 -0.426011 0.269613 0.447627 -0.227150 0.314454 0.409701 -0.134869 -0.195013 -0.141140 0.104266 0.062169 0.160418 -0.320643 0.112464 -0.242734 0.192205 -0.512611 0.503402 -0.001881 0.285633 -0.034557 0.010328 -0.396958 -0.155621 0.046831 0.194068 -0.291287 0.372568 -0.204133 -0.095073 0.392541 0.099397 -0.310778 0.298693 -0.277498 0.014115 0.032253 0.342752 -0.268829 0.086287 -0.154714 -0.217096 -0.110264 0.391131 0.164100 -0.061423 -0.032738 -0.435653 0.118419 -0.101006 0.586445 0.250286 -0.719166 0.519188 -0.058901 0.289020 -0.386650 -0.007189 -0.370120 -0.195580 -0.022239 0.015443 0.422908 -0.103414 0.069562 -0.009735 0.355699 -0.123899 -0.063977 -0.166168 -0.037170 -0.369261 0.546224 0.070813 -0.201202 -0.201857 0.012342 0.250693 0.447145 0.015876 0.314409 -0.129995 -0.426706 0.152469 -0.180855 0.120751 -0.067848 0.119084 0.186358 -0.236034 -0.081964 -0.191209 0.222668 -0.027891 0.148271 0.063888 0.233232 0.002558 -0.511240 0.121167 -0.658118 0.020353 0.286791 -0.460845 -0.147251 -0.039695 -0.198853 -0.209037 -0.050178 -0.355584 -0.589399 0.162342 -0.202915 0.605366 -0.338761 -0.150507 -0.427748 -0.001310 -0.134677
274 -0.421890 -0.383003 -0.095873 -0.192146 0.261055 -0.452144 -0.083739 0.315420 0.169710 -0.504224 -0.127964 0.014467 -0.228629 -0.026097 0.220186 -0.121647 0.155920 -0.158472 -0.222540 0.217804 0.544972 -0.362931 -0.147399 -0.140109 -0.622445 -0.084693 -0.302721 0.008103 0.087449 -0.507382 0.163674 -0.004164 -0.588749 -0.102234 -0.283335 0.163776 0.522933 -0.145601 -0.083577 0.242270 -0.002433 0.193132 -0.013559 -0.353255 -0.043858 -0.116819 0.344679 -0.222326 -0.105499 -0.046404 -0.017276 0.475976 0.128245 -0.004883 -0.189266 -0.068253 -0.647025 0.281745 -0.039856 0.205717 -0.196941 -0.323016 0.310552 -0.034874 0.120985 -0.218560 -0.103605 -0.205482 -0.090601 0.131773 0.087126 -0.007383 0.234737 -0.063943 -0.045134 0.176860 -0.025615 0.097428 0.163819 -0.145144 0.273255 0.394286 0.353491 -0.468653 -0.212458 -0.319498 0.023242 0.361512 0.059051 0.442702 0.013214 0.060594 0.183740 -0.175408 0.172436 0.539146 0.193843 -0.227267 0.070038 0.210535 -0.361796 -0.704615 0.477455 0.082937 0.145057 0.124650 -0.336694 0.152077 -0.437411 -0.139112 -0.026461 0.354074 -0.048272 -0.111700 -0.193072 0.090574 -0.545506 -0.109034 -0.151790 -0.508349 -0.051126 -0.448029 0.753981 0.388339 -0.126015 0.180632 0.391213 -0.327993
161 -0.265569 -0.266016 -0.139435 -0.096104 0.077556 -0.610923 -0.263972 0.259320 0.219097 0.001158 -0.376974 -0.097495 -0.081318 -0.259613 0.203052 -0.481775 -0.127746 -0.112496 -0.104643 -0.024907 0.294621 0.027658 -0.091050 -0.060601 -0.282159 -0.322545 0.397456 -0.031828 0.344669 -0.019093 0.344159 -0.534592 -0.495859 -0.410324 -0.104123 0.226512 -0.109426 0.004860 -0.516399 0.037077 0.148646 0.150460 0.424238 -0.029672 -0.144884 0.220475 0.533609 -0.269966 0.144446 0.232938 -0.527063 0.298149 -0.299162 -0.183747 -0.229228 -0.094303 -0.170563 0.127274 0.083821 0.459307 -0.244963 -0.284827 -0.033243 -0.050064 0.240489 -0.209502 -0.648575 -0.030541 -0.066859 -0.215848 -0.069649 0.234705 -0.134006 -0.178650 0.049949 0.271114 -0.181112 -0.021795 -0.200428 -0.490685 -0.312740 0.414642 0.328444 -0.017585 0.009993 0.364051 0.460420 0.418696 -0.103626 -0.095772 0.117273 -0.032163 -0.204330 0.232183 -0.254165 0.363541 0.388202 0.172135 0.379359 -0.130314 -0.516794 0.031599 0.222600 0.034699 -0.198355 0.127245 -0.227189 -0.459529 -0.043269 -0.249749 0.278659 0.205288 -0.208335 -0.065097 0.297708 -0.046045 -0.314864 0.667723 0.095258 -0.102413 -0.025220 -0.440378 0.219292 -0.745376 -0.186373 0.273357 0.308607 -0.404728
3 -0.262050 -0.262475 -0.138156 -0.096606 0.076359 -0.615538 -0.262937 0.257483 0.213205 0.009754 -0.373890 -0.108936 -0.090509 -0.269535 0.205665 -0.490055 -0.124614 -0.121801 -0.102005 -0.031437 0.291341 0.032084 -0.094831 -0.049088 -0.271569 -0.326030 0.404056 -0.030051 0.349719 -0.011088 0.342845 -0.538171 -0.499121 -0.407463 -0.099347 0.223606 -0.109073 -0.000024 -0.517519 0.029734 0.143052 0.152122 0.425111 -0.020118 -0.151425 0.220902 0.535012 -0.265303 0.148218 0.237230 -0.525856 0.299531 -0.307280 -0.181008 -0.240857 -0.094908 -0.167212 0.133125 0.081901 0.461675 -0.252774 -0.281280 -0.037555 -0.048515 0.234753 -0.208985 -0.653143 -0.021493 -0.063250 -0.222111 -0.061926 0.229574 -0.139442 -0.173810 0.049587 0.269169 -0.174046 -0.016261 -0.191871 -0.488575 -0.316138 0.414531 0.320868 -0.008858 0.009041 0.367290 0.461959 0.420813 -0.106424 -0.103044 0.113892 -0.036787 -0.212647 0.235259 -0.258059 0.360972 0.381279 0.166158 0.393472 -0.133008 -0.521105 0.034282 0.218294 0.032895 -0.196039 0.124720 -0.220184 -0.465492 -0.035112 -0.254880 0.290089 0.207504 -0.214921 -0.059017 0.299460 -0.041749 -0.312900 0.676510 0.096550 -0.100707 -0.027398 -0.445578 0.224125 -0.762549 -0.184532 0.275790 0.306947 -0.397006
225 -0.637664 -0.192355 -0.075967 0.149459 0.323452 -0.288144 -0.094635 -0.178614 0.083868 -0.459124 0.270638 0.455836 -0.189815 0.285508 0.403827 -0.152879 -0.173749 -0.169356 0.087559 0.062086 0.184527 -0.336877 0.118304 -0.233069 0.223680 -0.504171 0.491521 0.028410 0.318656 -0.030222 -0.010790 -0.378905 -0.140330 0.045090 0.189115 -0.302067 0.377768 -0.226087 -0.085093 0.385958 0.092512 -0.348540 0.317509 -0.273559 0.039863 0.017493 0.317286 -0.261674 0.112945 -0.187833 -0.201948 -0.107802 0.385450 0.148901 -0.088031 -0.003938 -0.423772 0.111310 -0.081964 0.599504 0.237800 -0.685110 0.493832 -0.087946 0.300498 -0.389403 0.006768 -0.318778 -0.202401 -0.001367 0.009056 0.417907 -0.106269 0.046931 -0.014464 0.349336 -0.145631 -0.062516 -0.142864 -0.022987 -0.369567 0.540043 0.071921 -0.192230 -0.191096 0.016874 0.264963 0.450891 0.027823 0.299593 -0.133645 -0.438074 0.156334 -0.184860 0.112533 -0.089118 0.133215 0.205853 -0.197277 -0.093362 -0.204377 0.226470 -0.039925 0.126107 0.073278 0.242672 -0.011233 -0.515690 0.124439 -0.629567 0.029106 0.281439 -0.449222 -0.136792 -0.061576 -0.181272 -0.233344 -0.041419 -0.347901 -0.604207 0.175797 -0.203817 0.619157 -0.394308 -0.152304 -0.435328 0.007074 -0.158326
281 -0.455250 -0.483984 -0.135574 -0.166458 0.200382 -0.448086 -0.088821 0.206535 0.142737 -0.532754 -0.056980 -0.008488 -0.258454 0.006842 0.229622 -0.197260 0.242056 -0.166823 -0.186083 0.170085 0.430381 -0.383290 -0.107738 -0.110409 -0.673389 -0.032899 -0.282640 -0.094897 -0.009236 -0.491701 0.178542 -0.021446 -0.568460 -0.017645 -0.229013 0.130590 0.511364 -0.124403 -0.038478 0.176715 -0.113088 0.144284 -0.090816 -0.277322 -0.087442 -0.102796 0.332241 -0.290847 -0.174006 0.006295 -0.097390 0.462239 0.061891 -0.077399 -0.277625 -0.107423 -0.669976 0.302243 -0.087397 0.216749 -0.131056 -0.392674 0.323290 0.039981 0.109460 -0.236932 -0.161008 -0.258700 -0.130181 0.141561 0.012024 0.040666 0.225034 0.016706 -0.047151 0.176411 -0.029226 0.004398 0.110593 -0.154364 0.283447 0.338023 0.367582 -0.427237 -0.207149 -0.273064 -0.023958 0.350359 0.027023 0.427536 -0.041002 0.147611 0.169981 -0.098358 0.179728 0.559199 0.167972 -0.226575 0.131166 0.217071 -0.299962 -0.709791 0.508552 0.163223 0.187037 0.081649 -0.292905 0.221230 -0.304562 -0.121303 -0.013184 0.362803 -0.059661 -0.083070 -0.132519 0.092558 -0.402079 -0.110227 -0.136338 -0.471316 -0.067704 -0.407946 0.678347 0.333207 -0.156300 0.258128 0.335097 -0.308876
250 -0.061643 -0.033717 -0.398989 0.184957 0.034923 -0.157413 -0.137881 0.264874 0.412572 -0.072692 -0.211699 -0.000588 0.135828 -0.086853 0.121332 0.005173 -0.290844 0.316010 0.065518 -0.115058 0.299510 -0.190810 0.194293 -0.213680 0.265335 -0.268684 -0.048948 0.170350 0.022346 -0.357966 0.132274 0.024161 -0.155036 -0.542658 -0.044782 -0.099491 -0.169583 -0.153674 0.005135 0.463344 0.222364 0.186501 0.167798 -0.133197 -0.448057 -0.167486 0.189164 0.083167 0.052905 0.430124 0.102996 0.070538 0.237437 -0.015456 -0.434175 -0.279579 -0.380136 0.176963 -0.060218 0.322437 -0.264160 -0.189306 0.236700 -0.184950 -0.291596 -0.208589 -0.032731 0.033068 -0.305854 0.149524 0.050771 0.350380 0.267969 -0.069757 -0.045990 -0.199752 -0.211666 0.060494 -0.098449 -0.373594 0.144013 0.468929 0.273167 0.268678 0.050929 0.021626 0.602245 0.204307 -0.092786 0.174270 0.200958 -0.123402 0.268419 -0.062994 -0.210204 0.164443 -0.040843 -0.335072 -0.126048 0.088336 -0.095098 0.127179 0.079600 -0.002442 -0.304551 0.067430 0.364564 0.247387 0.101857 0.032751 -0.013372 0.677285 -0.215398 -0.031133 -0.279661 -0.211348 -0.153049 0.047517 -0.098026 -0.043731 0.227918 0.002500 0.352470 -0.376182 0.105747 0.084325 0.039550 -0.107709
123 -0.652149 -0.100942 -0.158858 -0.011905 0.508119 0.025166 -0.384497 -0.153227 0.438336 -0.049755 0.126712 -0.003026 -0.465115 0.055414 0.077026 -0.295260 -0.114457 -0.199070 -0.388436 0.295109 0.474387 0.058447 0.005062 -0.018730 -0.533506 -0.006593 0.405908 -0.515885 0.005230 -0.738790 0.436363 -0.487444 -0.049244 -0.255022 0.214161 0.013611 -0.075165 -0.212949 -0.373917 0.278460 -0.251379 0.592318 0.119388 -0.229027 -0.461025 0.232999 0.470029 -0.085500 0.406833 0.413292 -0.428341 0.294249 -0.077548 0.252324 -0.263132 -0.831318 -0.558357 0.290756 0.163429 0.522205 -0.211641 -1.018016 0.514116 0.137533 -0.166234 -0.468776 -0.567087 -0.383150 -0.434700 -0.394752 -0.114105 0.276278 0.043993 0.179680 0.291546 0.487080 0.204803 -0.228247 0.450758 -0.214160 -0.029060 0.688239 0.174258 0.284176 -0.475204 -0.391927 0.039946 0.270081 0.118107 0.382998 0.099252 -0.270978 -0.096898 -0.204283 0.168327 0.420069 -0.460038 -0.761596 0.350961 0.491727 -0.375376 0.359611 0.002137 -0.310006 -0.556997 0.154993 0.166983 -0.385497 0.077330 -1.114931 -0.327252 0.459354 -0.152592 0.304251 0.006743 0.240946 0.126889 -0.032150 -0.225826 0.100514 -0.205177 -0.054655 0.482938 -0.221173 0.171251 0.151528 -0.112105 0.159431
112 -0.240061 -0.278144 -0.129473 -0.102599 0.069717 -0.612123 -0.243132 0.256254 0.213938 -0.016642 -0.371613 -0.101055 -0.092687 -0.264257 0.209491 -0.485761 -0.134027 -0.109653 -0.106453 -0.034684 0.285050 0.025810 -0.079736 -0.067345 -0.280180 -0.323581 0.402043 -0.046444 0.357330 -0.014893 0.347392 -0.548163 -0.509194 -0.403076 -0.105535 0.234342 -0.093756 0.021517 -0.523744 0.024372 0.140100 0.145003 0.402829 -0.010165 -0.154989 0.214765 0.539165 -0.276170 0.127403 0.227314 -0.525932 0.293761 -0.304680 -0.188896 -0.236225 -0.094676 -0.166814 0.128313 0.063903 0.455080 -0.235400 -0.286703 -0.038837 -0.027565 0.244861 -0.203177 -0.662131 -0.023158 -0.054549 -0.217454 -0.061662 0.218415 -0.136110 -0.171012 0.048145 0.276028 -0.162406 -0.025470 -0.220062 -0.501979 -0.313830 0.388039 0.331593 -0.042876 0.020574 0.371309 0.457957 0.442582 -0.120583 -0.096729 0.111056 -0.004566 -0.208485 0.260007 -0.262519 0.362151 0.387150 0.164028 0.376486 -0.114178 -0.506358 0.019219 0.237608 0.065739 -0.193771 0.110616 -0.235405 -0.467746 -0.044783 -0.261508 0.303475 0.200428 -0.216457 -0.072417 0.323143 -0.056574 -0.291654 0.669538 0.087503 -0.097996 -0.031893 -0.446368 0.206234 -0.741416 -0.203574 0.274711 0.304529 -0.401724
82 -0.424444 -0.379277 -0.111223 -0.173959 0.250487 -0.402770 -0.067844 0.263407 0.148881 -0.446184 -0.119278 -0.012377 -0.204079 -0.018029 0.201790 -0.125093 0.147302 -0.139638 -0.198175 0.202320 0.523832 -0.338524 -0.126000 -0.112014 -0.591314 -0.067972 -0.276921 0.020270 0.064507 -0.482226 0.168925 -0.028460 -0.568304 -0.067574 -0.276629 0.154950 0.461413 -0.160279 -0.085009 0.232116 -0.018882 0.205701 -0.011996 -0.336283 -0.055440 -0.093250 0.328757 -0.216382 -0.094088 -0.034479 -0.030658 0.468725 0.110966 0.004100 -0.214137 -0.079778 -0.631052 0.248773 -0.026708 0.208258 -0.187212 -0.330425 0.303029 -0.023256 0.092242 -0.220965 -0.101472 -0.188524 -0.084299 0.111992 0.071717 0.011949 0.225811 -0.063379 -0.037169 0.180018 -0.016002 0.065489 0.191763 -0.130602 0.263174 0.371942 0.350336 -0.459922 -0.192592 -0.342101 -0.004864 0.360526 0.059308 0.438454 0.032781 0.060286 0.172474 -0.156889 0.168479 0.546370 0.171939 -0.240529 0.094058 0.212695 -0.368443 -0.660844 0.456399 0.070936 0.152233 0.111122 -0.351695 0.139856 -0.433044 -0.149751 -0.013031 0.329268 -0.022036 -0.074296 -0.166796 0.087816 -0.516427 -0.115628 -0.146590 -0.481870 -0.062726 -0.432113 0.724167 0.388184 -0.089871 0.178400 0.335735 -0.325098
47 -0.072528 -0.046915 -0.421135 0.182703 0.032081 -0.156477 -0.117519 0.259999 0.409023 -0.061999 -0.200805 0.016161 0.160107 -0.089956 0.135538 0.047141 -0.301068 0.318749 0.067314 -0.084254 0.298935 -0.176986 0.215968 -0.218548 0.275895 -0.247270 -0.027697 0.160552 0.028291 -0.357930 0.145336 0.030413 -0.128384 -0.571691 -0.039638 -0.098925 -0.176790 -0.151537 0.016511 0.500509 0.241329 0.190968 0.156109 -0.133287 -0.430812 -0.164539 0.173909 0.083725 0.055741 0.423822 0.136048 0.065184 0.248636 -0.004998 -0.434702 -0.280372 -0.377128 0.167892 -0.065950 0.318249 -0.275658 -0.210054 0.254017 -0.176169 -0.297804 -0.219326 -0.010031 0.017707 -0.312230 0.175639 0.046570 0.363026 0.264197 -0.042092 -0.048752 -0.209247 -0.210944 0.056169 -0.101220 -0.370090 0.129866 0.455501 0.286775 0.266305 0.047889 0.030740 0.576010 0.205394 -0.069029 0.177721 0.200316 -0.118522 0.276447 -0.062641 -0.201887 0.148426 -0.045205 -0.356267 -0.152534 0.105609 -0.074590 0.140936 0.061951 0.023587 -0.305250 0.076128 0.387165 0.258949 0.099952 0.024327 -0.020850 0.667333 -0.193374 -0.035981 -0.283972 -0.194015 -0.141855 0.023513 -0.124535 -0.026334 0.254853 -0.018672 0.322750 -0.368772 0.114715 0.088507 0.024768 -0.082723
158 -0.079266 -0.032638 -0.387719 0.195005 0.029044 -0.119131 -0.117044 0.266072 0.382671 -0.079965 -0.188320 0.010065 0.161592 -0.098783 0.114228 0.039633 -0.317034 0.337630 0.063734 -0.105757 0.280949 -0.194962 0.208181 -0.232196 0.264449 -0.249458 -0.031172 0.144697 0.030603 -0.353647 0.146703 0.004168 -0.151958 -0.580826 -0.038780 -0.103320 -0.195214 -0.130438 0.030035 0.476887 0.223701 0.172669 0.158463 -0.125148 -0.467940 -0.164690 0.164307 0.085128 0.054796 0.435289 0.121094 0.044841 0.230994 0.002466 -0.431886 -0.305204 -0.383869 0.174799 -0.064548 0.318166 -0.264254 -0.222237 0.260540 -0.172584 -0.294707 -0.211619 -0.040941 0.014568 -0.312024 0.172891 0.051890 0.373995 0.256045 -0.047366 -0.052658 -0.200893 -0.186549 0.041951 -0.110686 -0.375862 0.143828 0.478740 0.300669 0.254466 0.042094 0.009484 0.589938 0.189176 -0.098030 0.181108 0.203313 -0.117592 0.292927 -0.052977 -0.211035 0.170242 -0.064315 -0.368703 -0.148037 0.102826 -0.079450 0.152196 0.093999 0.022050 -0.332091 0.072371 0.374175 0.245762 0.099271 0.026519 -0.025060 0.682823 -0.198261 -0.040631 -0.270216 -0.213253 -0.133228 0.034414 -0.084623 -0.023295 0.234933 -0.011671 0.333682 -0.344723 0.127970 0.082319 0.020388 -0.113396
79 -0.247315 -0.248065 -0.135043 -0.106034 0.083098 -0.620945 -0.269067 0.262417 0.214914 0.017579 -0.376512 -0.106708 -0.077522 -0.270608 0.202129 -0.484382 -0.112114 -0.118570 -0.093846 -0.023783 0.302678 0.029089 -0.101805 -0.050649 -0.283127 -0.320926 0.407069 -0.023025 0.345409 -0.015419 0.348515 -0.532585 -0.498378 -0.414215 -0.103494 0.229941 -0.107315 -0.008163 -0.524310 0.019988 0.146578 0.163011 0.427902 -0.028125 -0.144294 0.226049 0.533803 -0.249789 0.153901 0.220921 -0.539755 0.296366 -0.301331 -0.173144 -0.240219 -0.093504 -0.150174 0.131641 0.093577 0.457113 -0.263004 -0.276195 -0.044084 -0.062937 0.230466 -0.202707 -0.654266 -0.021375 -0.057712 -0.222142 -0.069265 0.231214 -0.136699 -0.182155 0.048736 0.278219 -0.173602 -0.015653 -0.194730 -0.484338 -0.312977 0.409782 0.320585 -0.006637 0.002618 0.361538 0.466860 0.398974 -0.094272 -0.104361 0.125078 -0.046331 -0.213150 0.229518 -0.249802 0.358418 0.393502 0.172287 0.393640 -0.135430 -0.519539 0.026706 0.216203 0.017872 -0.186534 0.123549 -0.224585 -0.465584 -0.040937 -0.243264 0.275214 0.197225 -0.203917 -0.057201 0.297750 -0.037585 -0.319811 0.674765 0.092818 -0.098557 -0.032265 -0.438534 0.218303 -0.758607 -0.178962 0.271653 0.301475 -0.406417
231 -0.258571 -0.282066 -0.147863 -0.108417 0.085697 -0.625728 -0.246391 0.261109 0.227574 0.003496 -0.364686 -0.108330 -0.082191 -0.277733 0.198232 -0.488879 -0.128934 -0.121417 -0.111223 -0.031881 0.294926 0.041152 -0.085825 -0.059087 -0.271142 -0.318816 0.395303 -0.023143 0.347468 -0.015884 0.351112 -0.549274 -0.518732 -0.416687 -0.108418 0.229991 -0.110410 0.009806 -0.521278 0.026753 0.130586 0.152069 0.416722 -0.013750 -0.163144 0.224954 0.541788 -0.283159 0.140314 0.232957 -0.533398 0.294822 -0.309861 -0.200093 -0.245903 -0.095330 -0.153375 0.125070 0.078139 0.458845 -0.246625 -0.281786 -0.030349 -0.046062 0.244929 -0.200973 -0.675929 -0.023454 -0.050009 -0.217750 -0.060962 0.210807 -0.141599 -0.171903 0.057065 0.283354 -0.175279 -0.027560 -0.223259 -0.485338 -0.325277 0.398700 0.320109 -0.039679 0.027140 0.358820 0.449163 0.440129 -0.108070 -0.111130 0.118202 -0.020905 -0.193544 0.262274 -0.256197 0.349914 0.381125 0.170473 0.405360 -0.116549 -0.506977 0.038031 0.239680 0.051565 -0.196123 0.105750 -0.231702 -0.467551 -0.040756 -0.252660 0.306169 0.194046 -0.208439 -0.062268 0.324096 -0.049006 -0.301911 0.675715 0.107253 -0.096607 -0.033095 -0.449919 0.197849 -0.746398 -0.178443 0.257849 0.294638 -0.404290
116 -0.047710 -0.070864 -0.448565 0.183885 0.062850 -0.213919 -0.155129 0.277749 0.477168 -0.113300 -0.210922 -0.021216 0.146186 -0.108019 0.140106 -0.067587 -0.315954 0.323326 0.055755 -0.158779 0.279376 -0.187850 0.202712 -0.246295 0.312320 -0.304830 -0.097394 0.186137 0.057659 -0.330514 0.110514 0.063154 -0.172900 -0.557654 -0.078032 -0.035840 -0.155796 -0.136443 -0.019077 0.500647 0.252224 0.214044 0.127988 -0.139457 -0.453466 -0.200690 0.239297 0.036714 0.025315 0.440998 0.082302 0.036662 0.296276 -0.036643 -0.460126 -0.267920 -0.389481 0.158080 -0.045159 0.318582 -0.269992 -0.114509 0.230337 -0.191868 -0.296137 -0.182504 -0.000417 0.038792 -0.283411 0.148042 0.031355 0.269118 0.349949 -0.133888 -0.029008 -0.232682 -0.231931 0.050113 -0.112538 -0.408049 0.155465 0.442123 0.252980 0.256993 0.100822 0.044131 0.665266 0.227644 -0.112004 0.157963 0.245837 -0.118155 0.213243 -0.025705 -0.259648 0.112900 -0.015318 -0.319153 -0.092552 0.090105 -0.117959 0.064901 0.102788 -0.031106 -0.259263 0.091049 0.297445 0.281048 0.094446 0.074046 -0.014429 0.681869 -0.211289 -0.019709 -0.297951 -0.282970 -0.147162 0.054891 -0.128444 -0.050583 0.206896 0.033888 0.340097 -0.422833 0.041883 0.119600 0.069235 -0.137626
38 -0.269546 -0.270729 -0.144717 -0.091920 0.076552 -0.597826 -0.264707 0.243350 0.214216 0.016209 -0.360133 -0.105858 -0.082065 -0.261645 0.191138 -0.485271 -0.116679 -0.123428 -0.099273 -0.015780 0.292352 0.037161 -0.093543 -0.042252 -0.290705 -0.308589 0.401597 -0.043438 0.332204 -0.016091 0.341989 -0.537763 -0.492097 -0.398198 -0.101677 0.221287 -0.106673 -0.017514 -0.521653 0.011528 0.128597 0.159164 0.413864 -0.021001 -0.149304 0.230782 0.533044 -0.266731 0.153653 0.220979 -0.533580 0.295029 -0.311001 -0.178638 -0.239436 -0.106660 -0.156124 0.131769 0.080000 0.452236 -0.247960 -0.283264 -0.032486 -0.052195 0.230345 -0.195881 -0.649963 -0.027104 -0.061485 -0.222372 -0.068482 0.223090 -0.149212 -0.175619 0.046167 0.283250 -0.162696 -0.016966 -0.189436 -0.473778 -0.316867 0.403252 0.313154 -0.014530 -0.001496 0.352688 0.439817 0.404882 -0.099809 -0.108565 0.116632 -0.039576 -0.212448 0.235310 -0.246301 0.355933 0.371149 0.160574 0.395739 -0.116802 -0.512182 0.040042 0.224476 0.013587 -0.198057 0.109003 -0.226371 -0.458764 -0.046927 -0.251012 0.273340 0.191965 -0.201443 -0.050482 0.302315 -0.042051 -0.298766 0.659898 0.093212 -0.091062 -0.030220 -0.433606 0.213343 -0.741548 -0.178228 0.273015 0.288189 -0.386448
157 -0.836233 -0.146575 -0.235898 -0.014250 0.260990 0.039613 -0.398947 -0.173609 0.352342 0.052152 -0.053314 -0.109353 -0.338545 0.006706 0.072992 -0.106876 -0.144108 0.019225 -0.255803 0.311075 0.283143 0.141275 0.025460 0.200220 -0.636957 -0.023671 0.467148 -0.397393 -0.006567 -0.567356 0.511443 -0.607591 -0.048147 -0.001410 0.097522 0.010266 -0.218582 -0.071698 -0.346599 0.269830 -0.174069 0.704988 0.091298 -0.205114 -0.606939 0.191521 0.160794 -0.100246 0.351838 0.519223 -0.459227 0.065657 -0.217680 0.190618 -0.355770 -0.644531 -0.585080 0.312399 -0.085215 0.555864 0.048714 -1.062319 0.401486 -0.051451 -0.085537 -0.322855 -0.683091 -0.586641 -0.382945 -0.382478 -0.126696 0.442401 0.059272 0.395143 0.120525 0.506949 0.398663 -0.048219 0.441352 -0.359777 0.053352 0.553993 0.334965 0.183548 -0.495447 -0.327552 -0.081918 0.253811 0.089816 0.316840 0.027229 -0.233899 -0.151641 -0.084289 0.117641 0.539435 -0.383629 -0.755482 0.140045 0.488771 -0.142128 0.143064 -0.017825 0.249336 -0.475799 0.142067 0.130002 -0.470522 -0.036591 -0.970911 -0.156303 0.441376 -0.187310 0.416409 0.150658 0.160706 0.042330 -0.051494 -0.159425 0.041950 -0.099550 -0.299886 0.344716 -0.051605 0.179825 0.043356 -0.251608 0.075990
120 -0.256254 -0.280374 -0.155025 -0.094727 0.081406 -0.610272 -0.256785 0.261272 0.212828 0.016921 -0.368732 -0.107105 -0.080132 -0.268457 0.202377 -0.495483 -0.120807 -0.118600 -0.094101 -0.034212 0.298113 0.026404 -0.095782 -0.044004 -0.274965 -0.321552 0.395788 -0.027730 0.343654 -0.007845 0.342556 -0.534406 -0.503382 -0.406115 -0.104805 0.223925 -0.113601 -0.008437 -0.526591 0.022190 0.137751 0.166896 0.416215 -0.012826 -0.158917 0.224735 0.532942 -0.262423 0.151649 0.234024 -0.536365 0.305406 -0.297048 -0.180179 -0.246257 -0.098780 -0.165033 0.128185 0.080914 0.460091 -0.250085 -0.280897 -0.041502 -0.056006 0.228003 -0.201187 -0.658274 -0.018472 -0.058074 -0.214499 -0.058845 0.236779 -0.142814 -0.178669 0.042422 0.272928 -0.172103 -0.010515 -0.201476 -0.484975 -0.320342 0.406875 0.317095 -0.007702 0.005732 0.352161 0.448813 0.422856 -0.102722 -0.101250 0.118705 -0.037701 -0.215178 0.233137 -0.256616 0.361990 0.377836 0.158955 0.391436 -0.134141 -0.522683 0.036977 0.223847 0.031920 -0.180976 0.117425 -0.218982 -0.458148 -0.046183 -0.248242 0.285142 0.191219 -0.216547 -0.060074 0.309274 -0.052683 -0.310353 0.664923 0.091421 -0.097161 -0.028678 -0.444509 0.214848 -0.757735 -0.174687 0.270299 0.290915 -0.402829
199 -0.443521 -0.411427 -0.172914 -0.148729 0.290258 -0.439205 -0.057273 0.267171 0.147473 -0.453777 -0.129250 -0.057530 -0.191501 -0.020822 0.195811 -0.146463 0.144973 -0.133823 -0.154876 0.182308 0.544800 -0.336019 -0.122729 -0.091207 -0.570756 -0.066351 -0.282305 0.077051 0.066775 -0.458266 0.168201 -0.050320 -0.588443 -0.037586 -0.289945 0.156090 0.406277 -0.204885 -0.107135 0.260320 -0.020371 0.225434 0.000582 -0.334791 -0.079189 -0.064865 0.317774 -0.211410 -0.068831 -0.026761 -0.041928 0.475626 0.110090 0.016194 -0.251201 -0.083577 -0.640738 0.196689 -0.013803 0.211124 -0.204431 -0.326168 0.285791 -0.021045 0.046929 -0.246290 -0.085937 -0.150512 -0.074352 0.106404 0.080794 0.057133 0.213459 -0.101968 -0.040223 0.187711 -0.024090 0.040955 0.206938 -0.131423 0.238764 0.374723 0.356717 -0.474176 -0.154989 -0.353496 -0.017918 0.398264 0.057089 0.455289 0.070822 0.054968 0.156764 -0.154404 0.158492 0.556848 0.182289 -0.244379 0.102973 0.191319 -0.417026 -0.641001 0.442857 0.058350 0.187523 0.092125 -0.396709 0.119094 -0.467144 -0.144418 0.032969 0.314066 -0.012540 -0.044515 -0.127703 0.078090 -0.533140 -0.096050 -0.152804 -0.476915 -0.056107 -0.431958 0.723591 0.371754 -0.040677 0.182246 0.287578 -0.340706
83 -0.165545 -0.070414 -0.405555 0.172833 0.009048 -0.036816 -0.114324 0.323184 0.376498 -0.024288 -0.143052 0.075108 0.169097 -0.105062 0.133855 0.092297 -0.338279 0.394525 0.038807 -0.160514 0.282872 -0.212157 0.189905 -0.310945 0.279729 -0.227743 -0.057111 0.017155 0.076139 -0.339168 0.175812 -0.000389 -0.113509 -0.488634 0.001091 -0.144156 -0.319744 -0.042836 0.005490 0.452622 0.234948 0.234652 0.055620 -0.138156 -0.558729 -0.128093 0.137113 0.056686 0.148721 0.494960 0.201285 -0.030741 0.308688 0.125681 -0.440225 -0.318517 -0.435603 0.120914 -0.159688 0.360091 -0.205325 -0.294668 0.265354 -0.151625 -0.317343 -0.170169 -0.006070 0.025098 -0.332140 0.199508 -0.055478 0.470888 0.289404 0.035449 -0.000913 -0.154026 -0.105402 0.077401 -0.107699 -0.384790 0.119330 0.379063 0.320686 0.203909 0.006809 -0.021900 0.584917 0.190168 -0.076240 0.273551 0.211926 -0.151649 0.318639 -0.066834 -0.208962 0.278103 -0.115637 -0.472850 -0.165004 0.078707 -0.074743 0.240342 0.028286 0.092311 -0.315776 0.031491 0.347198 0.287135 0.119207 -0.065680 -0.056900 0.648448 -0.188295 -0.170381 -0.226188 -0.243439 -0.104137 0.007655 -0.139517 0.015173 0.288230 -0.052289 0.248478 -0.257992 0.099191 0.060400 -0.028471 -0.040950
25 0.021241 -0.036023 -0.487239 0.169792 0.064468 -0.294905 -0.147750 0.192497 0.508934 -0.151860 -0.232634 -0.054417 0.123102 -0.092547 0.121068 -0.071929 -0.268471 0.228920 0.085617 -0.111280 0.259365 -0.168140 0.252641 -0.169245 0.261037 -0.295453 -0.061071 0.253119 0.009822 -0.355706 0.088931 0.074406 -0.185195 -0.576175 -0.130267 -0.011590 -0.080758 -0.205154 -0.010673 0.507184 0.264092 0.187381 0.181086 -0.163544 -0.365463 -0.204186 0.256222 0.082831 -0.041541 0.345712 0.058850 0.063127 0.264325 -0.112554 -0.441954 -0.253655 -0.342665 0.174663 -0.032759 0.328640 -0.275489 -0.110083 0.263405 -0.184647 -0.265538 -0.220840 -0.010837 0.040544 -0.265159 0.153323 0.082415 0.201908 0.294471 -0.148604 -0.049572 -0.253090 -0.280680 0.033687 -0.141531 -0.429511 0.148078 0.443381 0.237284 0.251365 0.126217 0.081979 0.623857 0.256126 -0.110890 0.126245 0.144784 -0.091803 0.186196 -0.048664 -0.232996 0.006961 0.054522 -0.303165 -0.103223 0.149569 -0.060215 0.000469 0.094566 -0.042243 -0.246711 0.097109 0.358805 0.278874 0.145971 0.084435 -0.020928 0.742334 -0.200753 0.077671 -0.333409 -0.245621 -0.125175 0.057511 -0.132410 -0.062425 0.221864 0.013477 0.369538 -0.478421 0.083330 0.144474 0.064146 -0.129491
12 -0.649884 -0.219583 -0.078098 0.119859 0.301728 -0.258896 -0.125074 -0.170534 0.076585 -0.427168 0.257884 0.446384 -0.218135 0.298024 0.404331 -0.133180 -0.182858 -0.150191 0.108831 0.061879 0.182613 -0.315667 0.102852 -0.222661 0.196550 -0.499847 0.496310 0.025379 0.286465 -0.021629 -0.002694 -0.377559 -0.157625 0.055298 0.196052 -0.285219 0.385427 -0.221575 -0.087243 0.384241 0.102264 -0.324695 0.314691 -0.285255 0.029909 0.036485 0.348729 -0.254295 0.098008 -0.174954 -0.233056 -0.102287 0.385962 0.164023 -0.077707 -0.029108 -0.436737 0.126697 -0.080075 0.591778 0.250235 -0.708625 0.506714 -0.072513 0.291405 -0.389733 0.008896 -0.350631 -0.198496 -0.005846 0.019060 0.431812 -0.109834 0.061966 -0.007365 0.359491 -0.134859 -0.052092 -0.138967 -0.023285 -0.372684 0.565722 0.058924 -0.185487 -0.216361 0.010361 0.264198 0.449799 0.028179 0.313826 -0.135656 -0.455320 0.153293 -0.206408 0.134102 -0.075557 0.131911 0.207260 -0.216404 -0.098368 -0.206412 0.231909 -0.037563 0.138537 0.070971 0.244344 -0.002435 -0.522170 0.122839 -0.653457 0.014793 0.286382 -0.460770 -0.150795 -0.052316 -0.188601 -0.235449 -0.046659 -0.367619 -0.625759 0.176346 -0.206749 0.637155 -0.357919 -0.153154 -0.431848 -0.008432 -0.139401
262 -0.437606 -0.409216 -0.136350 -0.176736 0.262416 -0.409249 -0.056939 0.271722 0.150627 -0.469322 -0.106592 -0.022839 -0.205890 -0.027011 0.185466 -0.154391 0.158811 -0.155471 -0.193443 0.194655 0.518277 -0.337357 -0.136303 -0.100928 -0.599954 -0.063607 -0.288624 0.007278 0.059845 -0.465175 0.155091 -0.030383 -0.576044 -0.043199 -0.292815 0.154881 0.458847 -0.161627 -0.083876 0.230336 -0.035890 0.211106 -0.023311 -0.315723 -0.071542 -0.093305 0.328997 -0.240343 -0.100692 -0.015859 -0.041905 0.447266 0.107553 0.001773 -0.212539 -0.088187 -0.647129 0.242012 -0.043524 0.203258 -0.175139 -0.337057 0.293689 -0.003708 0.097118 -0.225912 -0.112450 -0.198755 -0.089818 0.109964 0.076423 0.021712 0.211109 -0.049630 -0.029687 0.183080 -0.010476 0.047746 0.162595 -0.142958 0.248858 0.363802 0.342553 -0.477153 -0.173617 -0.334472 -0.013414 0.367296 0.050608 0.425302 0.017400 0.079581 0.160565 -0.135534 0.163323 0.538674 0.151677 -0.247300 0.105293 0.224432 -0.358413 -0.665115 0.460595 0.091833 0.160602 0.095012 -0.353787 0.141675 -0.422525 -0.145125 -0.001366 0.325482 -0.033710 -0.063162 -0.143684 0.093549 -0.495498 -0.121547 -0.143844 -0.466554 -0.076167 -0.441926 0.707437 0.396098 -0.096083 0.185470 0.332629 -0.334499
286 -0.909160 -0.347194 -0.353435 -0.072365 0.216954 -0.040459 -0.363299 -0.188532 0.357803 0.054782 -0.201055 -0.093833 -0.267657 0.068964 0.155095 -0.106571 -0.160654 0.073973 -0.125663 0.199926 0.199514 0.173158 0.086762 0.291822 -0.565060 -0.177699 0.473050 -0.394411 0.031776 -0.506881 0.480356 -0.688351 -0.050975 0.127090 0.113424 -0.087885 -0.296890 0.028157 -0.410217 0.245933 -0.210497 0.651422 0.052947 -0.199123 -0.717505 0.164019 0.096230 -0.140681 0.356876 0.580401 -0.476985 0.033526 -0.290341 0.152558 -0.374604 -0.593520 -0.573178 0.304078 -0.278914 0.631972 0.150338 -1.067519 0.398336 -0.100253 -0.042379 -0.318611 -0.758848 -0.637055 -0.274840 -0.391777 -0.061236 0.574872 -0.108789 0.479888 0.078434 0.375977 0.398647 -0.000202 0.393337 -0.409359 0.034522 0.591707 0.404655 0.038281 -0.452083 -0.246849 -0.108281 0.306165 0.020456 0.313210 -0.013580 -0.249939 -0.133405 0.071736 -0.063581 0.565081 -0.331692 -0.729296 0.080358 0.473039 -0.100891 0.025936 -0.050051 0.484740 -0.508253 0.080169 0.090914 -0.410583 -0.126073 -0.861037 -0.038813 0.472203 -0.143354 0.434298 0.274250 0.107697 0.131004 0.006098 -0.090846 0.036082 0.036191 -0.369863 0.248170 -0.084605 0.131053 -0.109256 -0.265697 -0.017425
45 -0.167039 -0.054378 -0.413912 0.138652 -0.001504 -0.057578 -0.127428 0.357325 0.393676 -0.000410 -0.154662 0.086134 0.185915 -0.107359 0.157810 0.093444 -0.344432 0.422687 0.038462 -0.154315 0.290364 -0.231385 0.185599 -0.327865 0.276895 -0.225504 -0.065625 0.000678 0.099637 -0.321400 0.196463 0.005736 -0.084537 -0.481166 0.012915 -0.144230 -0.355230 -0.027321 -0.005342 0.459176 0.250036 0.261193 0.051695 -0.161173 -0.548622 -0.131413 0.128092 0.071034 0.169342 0.503906 0.199608 -0.051806 0.333330 0.158095 -0.448949 -0.299307 -0.424656 0.112156 -0.143299 0.348000 -0.230970 -0.280646 0.290249 -0.172076 -0.339243 -0.144566 0.008307 0.026066 -0.335845 0.207542 -0.099067 0.480617 0.286657 0.030970 -0.000759 -0.128254 -0.101725 0.086798 -0.061007 -0.379332 0.113051 0.372446 0.312305 0.238397 -0.018480 -0.009300 0.608198 0.169660 -0.070228 0.255412 0.211267 -0.200912 0.289959 -0.077837 -0.219282 0.272804 -0.097492 -0.478709 -0.145773 0.075251 -0.083451 0.248146 -0.011644 0.065402 -0.311418 0.011782 0.349338 0.277206 0.126337 -0.064891 -0.077515 0.641441 -0.173885 -0.177317 -0.243554 -0.247287 -0.112424 0.019069 -0.155681 0.034373 0.314531 -0.031344 0.254870 -0.264495 0.084436 0.069596 -0.025255 -0.027456
78 -0.236507 -0.246134 -0.128439 -0.095904 0.082585 -0.611474 -0.265610 0.257538 0.208287 0.022943 -0.378836 -0.108464 -0.085617 -0.265069 0.213882 -0.485899 -0.119449 -0.124021 -0.100956 -0.035654 0.293033 0.031688 -0.097227 -0.043466 -0.279572 -0.318580 0.393902 -0.032667 0.340783 -0.013182 0.346134 -0.517606 -0.486760 -0.404522 -0.100522 0.225309 -0.115826 -0.007805 -0.515901 0.025355 0.141063 0.169465 0.417473 -0.020824 -0.149808 0.219583 0.530367 -0.257388 0.157122 0.237640 -0.532297 0.310607 -0.299315 -0.170469 -0.234159 -0.091212 -0.162721 0.129833 0.088064 0.458335 -0.250010 -0.282609 -0.038960 -0.050087 0.234037 -0.207543 -0.651685 -0.024557 -0.066631 -0.214101 -0.055799 0.238834 -0.131549 -0.179421 0.047018 0.270087 -0.168253 -0.012208 -0.190102 -0.476724 -0.304492 0.400459 0.318699 -0.002816 0.006820 0.358273 0.449576 0.415958 -0.097315 -0.099836 0.114045 -0.041500 -0.219162 0.226601 -0.250409 0.365853 0.379126 0.150660 0.386271 -0.137246 -0.510710 0.027614 0.215454 0.027637 -0.188366 0.120342 -0.214604 -0.456171 -0.048619 -0.250608 0.283791 0.200363 -0.219377 -0.066627 0.291301 -0.044555 -0.311440 0.654423 0.089298 -0.101481 -0.029349 -0.437775 0.214224 -0.743250 -0.175851 0.279651 0.301199 -0.397909
13 -0.018348 -0.027133 -0.423838 0.201123 0.048137 -0.206533 -0.155435 0.266805 0.452864 -0.107293 -0.232179 -0.029156 0.141182 -0.106181 0.124825 -0.022395 -0.306022 0.303076 0.070508 -0.112914 0.313444 -0.193334 0.202386 -0.205304 0.278686 -0.278405 -0.043085 0.230018 0.018205 -0.365140 0.125724 0.057153 -0.168699 -0.603430 -0.064960 -0.072587 -0.110232 -0.177070 0.011373 0.497630 0.236911 0.175609 0.192372 -0.136786 -0.415290 -0.189512 0.216583 0.083397 0.025527 0.415574 0.072480 0.100095 0.238155 -0.053221 -0.447994 -0.269525 -0.367589 0.186060 -0.011936 0.302365 -0.285668 -0.140866 0.222961 -0.205688 -0.272639 -0.234248 -0.020821 0.030905 -0.301389 0.142860 0.078677 0.295789 0.291996 -0.124922 -0.060181 -0.230911 -0.246937 0.046394 -0.094025 -0.356942 0.154559 0.501701 0.261809 0.282891 0.054070 0.038103 0.619599 0.196761 -0.094545 0.158964 0.223581 -0.119480 0.251425 -0.073378 -0.215463 0.117524 -0.019328 -0.290344 -0.113511 0.082824 -0.107118 0.083662 0.111138 -0.039846 -0.274825 0.086575 0.350534 0.247380 0.096799 0.076786 -0.006565 0.681737 -0.214106 0.004401 -0.333032 -0.218908 -0.181149 0.069539 -0.083468 -0.079471 0.197682 0.035938 0.390581 -0.410082 0.100573 0.106117 0.086190 -0.134093
134 -0.239543 -0.259340 -0.131532 -0.094481 0.081378 -0.603771 -0.250189 0.259369 0.216597 0.016502 -0.366412 -0.108005 -0.084802 -0.275799 0.196517 -0.492094 -0.124568 -0.116540 -0.101291 -0.034940 0.296563 0.035757 -0.089951 -0.054625 -0.279203 -0.321060 0.399948 -0.031450 0.356859 -0.010279 0.351351 -0.548577 -0.510295 -0.409959 -0.095628 0.221056 -0.114004 -0.003963 -0.527341 0.021337 0.144510 0.166418 0.412304 -0.009732 -0.162685 0.231234 0.533793 -0.271431 0.154161 0.232268 -0.533682 0.286067 -0.295888 -0.178703 -0.243680 -0.109428 -0.172746 0.128998 0.078763 0.462838 -0.247871 -0.288661 -0.039218 -0.049197 0.236727 -0.200040 -0.671190 -0.025098 -0.058519 -0.231888 -0.066152 0.229986 -0.138385 -0.168963 0.052382 0.278029 -0.169276 -0.019575 -0.210735 -0.491694 -0.331620 0.401901 0.318350 -0.021127 0.020674 0.366827 0.447672 0.425796 -0.105885 -0.098641 0.126084 -0.029573 -0.208688 0.250279 -0.258362 0.363208 0.380126 0.160461 0.396138 -0.127583 -0.514045 0.042187 0.226575 0.037783 -0.192302 0.116904 -0.219943 -0.471045 -0.049219 -0.259531 0.287819 0.193918 -0.206850 -0.057329 0.322300 -0.054399 -0.294152 0.667338 0.096991 -0.099177 -0.027662 -0.448122 0.205438 -0.746122 -0.176939 0.270707 0.294639 -0.407649
81 -0.499820 -0.217465 -0.023362 0.094100 0.224042 -0.182159 -0.105464 -0.185962 0.068762 -0.388382 0.227838 0.381159 -0.235436 0.346817 0.435836 -0.077261 -0.215540 -0.185303 0.096221 0.091224 0.207357 -0.273290 0.107808 -0.236623 0.240088 -0.507910 0.499497 0.003530 0.227568 0.026850 -0.015633 -0.431267 -0.147782 0.066029 0.216857 -0.318874 0.395804 -0.208281 -0.076649 0.389178 0.116432 -0.311929 0.315105 -0.337948 0.019054 0.068036 0.340483 -0.228903 0.117160 -0.090345 -0.253393 -0.073726 0.370147 0.117738 -0.022738 -0.028016 -0.441558 0.136610 -0.084936 0.606756 0.290621 -0.734215 0.581135 -0.065866 0.293515 -0.415629 -0.059758 -0.434165 -0.176616 -0.046746 0.069039 0.470226 -0.142952 0.067491 -0.007140 0.407789 -0.155580 -0.062595 -0.104703 -0.050088 -0.368459 0.599164 0.050949 -0.163607 -0.220791 0.059973 0.220419 0.485208 -0.005884 0.342720 -0.133782 -0.533081 0.138001 -0.147289 0.117735 -0.076918 0.050908 0.185665 -0.291431 -0.098773 -0.172868 0.204831 -0.080452 0.147199 0.004335 0.241362 0.088691 -0.503639 0.076766 -0.671280 0.015367 0.251180 -0.445835 -0.155187 -0.069462 -0.185854 -0.199508 -0.058783 -0.361632 -0.569287 0.147518 -0.139508 0.610736 -0.343565 -0.126843 -0.406577 -0.012833 -0.139755
136 -0.022865 -0.034911 -0.409040 0.251806 0.089294 -0.173171 -0.131133 0.188018 0.418616 -0.135673 -0.216038 -0.004020 0.137147 -0.069952 0.124172 -0.027818 -0.303617 0.270449 0.082217 -0.106927 0.251454 -0.175694 0.239440 -0.195221 0.306470 -0.287817 -0.045631 0.242114 -0.015062 -0.360438 0.083013 0.043385 -0.188034 -0.622323 -0.071179 -0.075488 -0.049810 -0.215505 0.045486 0.520922 0.223636 0.118532 0.206136 -0.117433 -0.421893 -0.195231 0.222947 0.067239 -0.007149 0.414916 0.074151 0.085147 0.210897 -0.081665 -0.437022 -0.288571 -0.369519 0.195441 -0.020357 0.299904 -0.261079 -0.137883 0.254536 -0.172067 -0.265050 -0.238519 -0.032766 0.011678 -0.301479 0.158140 0.121458 0.301154 0.306381 -0.110923 -0.076099 -0.277949 -0.272205 0.026187 -0.142758 -0.352871 0.160399 0.533063 0.265989 0.287749 0.107782 0.031946 0.630867 0.192484 -0.104368 0.123753 0.231338 -0.104990 0.280026 -0.049750 -0.208835 0.074233 -0.015479 -0.257758 -0.140498 0.094658 -0.079002 0.077283 0.151029 -0.009240 -0.313780 0.143435 0.372623 0.238148 0.106489 0.097641 -0.008849 0.703510 -0.249974 0.041619 -0.321315 -0.212807 -0.157792 0.036760 -0.095126 -0.097529 0.191765 0.041888 0.392949 -0.432235 0.114156 0.091012 0.076242 -0.162304
223 -0.571961 -0.235226 -0.071912 0.130186 0.266896 -0.215070 -0.084562 -0.179367 0.062344 -0.419079 0.246761 0.411019 -0.211352 0.299661 0.410113 -0.141677 -0.197611 -0.164989 0.095154 0.053490 0.190847 -0.304050 0.110415 -0.219655 0.234293 -0.513670 0.488860 0.022075 0.274955 0.012741 -0.035453 -0.396010 -0.175238 0.072220 0.199360 -0.299454 0.386607 -0.221969 -0.084305 0.380358 0.100290 -0.330279 0.304269 -0.286611 0.010610 0.048329 0.352852 -0.258491 0.102172 -0.129297 -0.231446 -0.096406 0.392066 0.141709 -0.060474 -0.027430 -0.455914 0.122397 -0.089513 0.611590 0.266045 -0.715734 0.526874 -0.069887 0.290061 -0.395144 -0.024114 -0.379021 -0.194334 -0.027791 0.054656 0.448800 -0.128521 0.060736 -0.001457 0.365559 -0.155983 -0.065908 -0.155868 -0.049933 -0.382993 0.570842 0.049296 -0.182966 -0.187934 0.039329 0.247147 0.499670 -0.004800 0.314349 -0.127061 -0.464043 0.151896 -0.161821 0.102865 -0.071974 0.086660 0.201544 -0.244147 -0.098270 -0.189320 0.220106 -0.044061 0.146603 0.052020 0.246197 0.032989 -0.493773 0.087839 -0.633431 0.033102 0.255824 -0.442905 -0.155130 -0.024011 -0.191327 -0.206093 -0.057240 -0.350677 -0.595211 0.153353 -0.186969 0.605550 -0.347792 -0.142518 -0.422508 -0.000972 -0.157572
233 -0.722262 -0.598275 -0.337668 -0.184196 0.253509 -0.250694 -0.431981 0.435702 -0.031608 -0.368270 -0.519619 0.385381 -0.485301 0.254644 0.352088 -0.199741 -0.371589 0.164814 -0.147812 -0.489564 0.112962 -0.032583 -0.207586 -0.219435 -0.166625 -0.078147 0.533466 -0.578873 0.729843 0.081277 0.371658 -0.268077 -0.251314 -0.238204 -0.107280 0.052198 0.164269 0.165487 -0.053425 0.256323 0.609254 0.514166 -0.022908 0.195434 -0.305293 0.185519 0.155304 -0.281469 -0.022709 0.265668 -0.335125 0.028190 0.556171 0.430128 0.046127 -0.459305 -0.660289 0.283285 -0.201268 0.242773 0.014573 -0.747025 -0.037089 0.175426 0.112713 -0.002989 -0.198533 -0.104739 -0.202639 -0.044545 -0.180013 0.540316 0.458125 0.100587 -0.121611 0.067839 0.555731 0.372223 -0.406005 -0.799097 -0.022270 0.020297 0.334970 -0.200230 -0.364596 0.236736 0.461285 0.276228 -0.099981 0.854986 0.267285 0.120917 -0.533798 -0.147622 -0.176904 0.429441 0.463588 -0.783130 -0.629205 0.038745 -0.293696 -0.321831 0.103828 0.250687 0.013221 0.429227 -0.083014 -0.470971 -0.387020 -0.837144 -0.014667 0.391861 -0.372592 -0.237478 0.241579 -0.364135 -0.035246 0.084610 -0.814750 -0.049019 -0.094053 -0.287477 0.139159 -0.064773 -0.719101 0.426092 0.106874 -0.114314
18 -0.625823 -0.184526 -0.093429 0.124144 0.348492 -0.314199 -0.129159 -0.150498 0.088058 -0.444448 0.254596 0.448913 -0.201761 0.278770 0.417604 -0.174101 -0.170101 -0.159608 0.099259 0.061654 0.199858 -0.359032 0.106115 -0.207130 0.215888 -0.499970 0.477349 0.041477 0.312753 -0.038497 -0.000622 -0.355855 -0.159309 0.047219 0.190641 -0.304627 0.375335 -0.251810 -0.086599 0.385758 0.088106 -0.326241 0.308585 -0.267780 0.044869 0.012790 0.323824 -0.237162 0.119029 -0.202179 -0.210296 -0.090663 0.399185 0.174768 -0.091820 0.004088 -0.433851 0.118557 -0.070488 0.596756 0.214595 -0.696959 0.488897 -0.096763 0.287581 -0.381254 0.018416 -0.301665 -0.205029 0.019109 0.009567 0.432423 -0.092672 0.031161 -0.013379 0.348384 -0.155055 -0.057015 -0.120379 -0.020041 -0.362873 0.564651 0.073930 -0.169024 -0.217991 -0.001327 0.300271 0.437744 0.037816 0.307055 -0.125612 -0.452223 0.159554 -0.232216 0.113207 -0.071252 0.145531 0.215147 -0.174975 -0.113379 -0.242604 0.233318 -0.034505 0.118452 0.097561 0.246365 -0.020394 -0.526116 0.121633 -0.627048 0.026007 0.285789 -0.477328 -0.146114 -0.082250 -0.194466 -0.267722 -0.043133 -0.353134 -0.638770 0.181949 -0.222031 0.658689 -0.407939 -0.146761 -0.428157 -0.008724 -0.168747
258 -0.477105 -0.487935 -0.121891 -0.205817 0.201287 -0.463066 -0.103717 0.261436 0.161694 -0.541646 -0.085627 0.013661 -0.263811 -0.010880 0.219592 -0.174825 0.202001 -0.191513 -0.230436 0.193652 0.455476 -0.370321 -0.120800 -0.116722 -0.675921 -0.063892 -0.294149 -0.084403 0.005647 -0.503919 0.166272 0.002819 -0.564107 -0.071874 -0.257062 0.144501 0.532678 -0.119990 -0.063459 0.178185 -0.069919 0.159471 -0.054308 -0.299201 -0.058974 -0.125934 0.349625 -0.264762 -0.162668 0.007387 -0.065394 0.466525 0.076456 -0.066679 -0.237806 -0.081871 -0.653665 0.311545 -0.057383 0.215733 -0.169909 -0.368240 0.325115 0.013427 0.131536 -0.206804 -0.160297 -0.254750 -0.114941 0.121985 0.044385 -0.003748 0.221894 0.001248 -0.050120 0.176985 -0.037233 0.043666 0.121818 -0.160938 0.281722 0.360533 0.365799 -0.444726 -0.227957 -0.274111 0.002061 0.342952 0.025053 0.411323 -0.048398 0.115439 0.174110 -0.116021 0.177613 0.540081 0.167800 -0.223504 0.123800 0.224137 -0.295761 -0.706834 0.487282 0.149321 0.157423 0.090782 -0.279003 0.202346 -0.329470 -0.110611 -0.030964 0.358076 -0.050306 -0.101229 -0.165970 0.098467 -0.447737 -0.122327 -0.139600 -0.481556 -0.060671 -0.423146 0.699157 0.348570 -0.166429 0.229237 0.368263 -0.318152
253 -0.023521 -0.067492 -0.492218 0.183115 0.069055 -0.260217 -0.155960 0.260183 0.489266 -0.099155 -0.227221 -0.032611 0.115947 -0.101313 0.133966 -0.069896 -0.292986 0.287532 0.068949 -0.119194 0.312026 -0.182273 0.218304 -0.181706 0.286151 -0.280585 -0.073309 0.212728 0.033193 -0.366467 0.115848 0.075277 -0.165549 -0.554647 -0.090774 -0.039744 -0.131690 -0.189926 -0.025299 0.518629 0.268205 0.223341 0.175913 -0.151890 -0.409078 -0.210958 0.233425 0.079054 0.020185 0.414875 0.086723 0.076455 0.276788 -0.063386 -0.466780 -0.264024 -0.384732 0.192764 -0.028956 0.308291 -0.287618 -0.124998 0.245320 -0.194752 -0.323339 -0.219108 -0.004232 0.042691 -0.293973 0.146213 0.064629 0.259266 0.314678 -0.148501 -0.051683 -0.235084 -0.255160 0.047226 -0.099858 -0.410968 0.155961 0.472218 0.255102 0.290455 0.078947 0.051275 0.636990 0.254098 -0.093635 0.158732 0.212533 -0.110090 0.203371 -0.062699 -0.245371 0.087629 0.003464 -0.312021 -0.090985 0.113849 -0.105868 0.045755 0.074031 -0.040800 -0.239792 0.078387 0.359135 0.303381 0.100919 0.091764 -0.020835 0.700124 -0.204698 0.030621 -0.322385 -0.242724 -0.149977 0.042765 -0.122599 -0.064388 0.228908 0.023263 0.375944 -0.451613 0.082979 0.132820 0.059541 -0.112441
273 -0.704010 -0.564251 -0.326831 -0.180232 0.239613 -0.240889 -0.418264 0.442910 -0.026953 -0.363454 -0.515642 0.381689 -0.465707 0.251876 0.341844 -0.175376 -0.382906 0.168368 -0.148192 -0.489872 0.106145 -0.032856 -0.197411 -0.252119 -0.156366 -0.087303 0.533201 -0.556353 0.736590 0.086989 0.367948 -0.254004 -0.241475 -0.255348 -0.103324 0.054589 0.168291 0.183402 -0.038727 0.252453 0.618912 0.492860 -0.030119 0.191743 -0.282318 0.181613 0.154200 -0.285737 -0.042536 0.241825 -0.326865 0.017389 0.560067 0.421907 0.053548 -0.457481 -0.635121 0.269776 -0.207832 0.234012 0.021229 -0.719782 -0.040825 0.167953 0.125693 -0.001009 -0.181734 -0.099304 -0.198235 -0.026705 -0.188260 0.535179 0.458659 0.101160 -0.122258 0.058024 0.549404 0.373769 -0.420063 -0.787260 -0.025391 0.006412 0.332209 -0.205280 -0.341382 0.246246 0.473452 0.268227 -0.099880 0.845993 0.270908 0.121412 -0.515781 -0.134035 -0.181987 0.410636 0.472064 -0.759457 -0.641732 0.038651 -0.274614 -0.318696 0.109104 0.238514 0.013583 0.436411 -0.092506 -0.462905 -0.369712 -0.827861 -0.020527 0.381916 -0.374869 -0.254757 0.230633 -0.367928 -0.036882 0.093305 -0.799431 -0.055202 -0.084952 -0.277142 0.124436 -0.058079 -0.724365 0.414832 0.112904 -0.114790
194 -0.697168 -0.791823 -0.456217 0.223133 0.189582 -0.072338 0.392138 0.164543 0.214515 -0.546431 0.063384 0.181618 0.118507 -0.092871 0.079141 -0.231229 -0.447375 0.290852 -0.215176 -0.170300 0.117928 -0.103182 0.480642 -0.562228 0.073727 -0.268621 0.075341 -0.180088 0.474993 -0.240724 0.206114 -0.530010 -0.754580 -0.316501 -0.211094 0.009391 0.040217 0.265390 -0.108236 0.568532 0.123512 0.015440 -0.078458 -0.030155 -0.804999 -0.049170 0.477688 -0.820594 -0.329986 0.339540 0.105755 -0.176743 0.268722 -0.217626 -0.395360 -0.519922 -0.787062 -0.047621 -0.566022 0.639704 0.278459 -0.743451 0.310966 0.310407 0.241064 -0.333828 -0.468034 -0.291384 -0.148379 0.011397 0.156563 0.226430 0.105302 0.145285 0.227161 0.003158 0.112536 -0.181290 -0.896649 -0.636593 -0.134541 0.206951 0.477309 -0.951873 0.485187 0.062197 0.243565 1.034609 -0.384035 0.423586 0.199789 0.538587 0.499860 0.563888 -0.323596 0.256609 -0.139771 -0.356183 -0.269435 0.534488 -0.093592 -0.048625 0.620840 0.732980 -0.105145 0.051094 -0.264542 0.017770 -0.223235 -0.536744 0.360307 0.520188 -0.195910 -0.148634 0.569084 -0.350260 0.077256 -0.068191 -0.053599 -0.158361 0.029048 -0.437042 -0.173365 0.072905 -0.300102 -0.183277 0.078648 -0.450371
204 -0.989814 0.241994 0.152729 -0.073734 -0.037441 -0.263252 -0.205299 0.264059 0.584454 -0.368576 -0.272592 0.199427 -0.163689 0.105290 0.190330 0.515868 -0.048231 0.080038 -0.211803 0.415172 0.164795 0.154900 -0.116048 -0.761046 -0.397682 -0.055548 0.555533 -0.059145 0.305006 -0.578439 0.754779 -0.376864 0.073998 -0.788303 0.015730 0.394113 0.097332 0.379023 0.086934 0.280643 0.354012 0.114526 0.259644 -0.638656 0.138623 -0.125788 0.449520 -0.230140 -0.115692 -0.016352 -0.270494 -0.056982 -0.023641 -0.055427 0.090286 -0.421965 0.119452 0.288229 0.089713 0.318057 -0.148469 -0.580225 0.507549 -0.169231 0.665659 -0.503262 -0.180421 -0.337561 -0.389545 0.047709 -0.524143 0.198702 0.387682 0.135179 0.042611 0.270644 0.150590 0.020520 -0.176537 -0.291159 0.063798 0.385642 0.504690 -0.162792 -0.219665 0.218963 0.616163 -0.062329 0.226636 0.407584 0.099662 -0.240698 0.215632 0.110953 0.112590 0.150881 0.449459 -0.175362 -0.157949 0.382420 0.169491 -0.123918 0.211612 -0.125708 -0.675668 0.227752 -0.386559 -0.397202 0.218984 -0.646055 -0.295713 0.806176 -0.026266 -0.084493 -0.564162 0.094828 -0.385921 0.527243 -0.055676 -0.028010 0.080434 -0.167498 0.390924 -0.019184 -0.251139 -0.049134 0.644348 0.056051
143 -0.455218 -0.436988 -0.161365 -0.156660 0.293541 -0.424473 -0.053521 0.261258 0.149059 -0.457681 -0.126556 -0.036812 -0.189182 -0.020784 0.195596 -0.159624 0.138957 -0.130954 -0.164082 0.179334 0.535891 -0.345161 -0.111434 -0.095485 -0.579192 -0.060741 -0.277820 0.046831 0.080064 -0.462236 0.163902 -0.060765 -0.609044 -0.036684 -0.295163 0.156249 0.426401 -0.178215 -0.106521 0.256854 -0.039436 0.216358 -0.016876 -0.320233 -0.086675 -0.061962 0.317861 -0.232959 -0.079628 -0.028242 -0.042950 0.467970 0.110110 0.018116 -0.248871 -0.091848 -0.641235 0.203875 -0.038470 0.212787 -0.178124 -0.336239 0.271670 -0.011546 0.074571 -0.238261 -0.108261 -0.162887 -0.080668 0.105544 0.093510 0.043341 0.205013 -0.079361 -0.036117 0.182264 -0.019071 0.038496 0.189220 -0.130406 0.237702 0.364420 0.346662 -0.469496 -0.155808 -0.354963 -0.027491 0.398774 0.052139 0.450371 0.058530 0.076506 0.159355 -0.133007 0.162427 0.553184 0.167528 -0.241348 0.091377 0.201221 -0.409895 -0.652889 0.461302 0.085899 0.186472 0.098576 -0.390132 0.133127 -0.461612 -0.159504 0.027670 0.315499 -0.028559 -0.053509 -0.120276 0.086656 -0.506668 -0.104688 -0.146114 -0.472030 -0.063100 -0.440483 0.704149 0.373627 -0.068113 0.178614 0.304526 -0.341892
263 -0.028009 -0.069507 -0.405317 0.183831 0.055059 -0.165002 -0.102783 0.221746 0.391699 -0.098903 -0.192683 -0.026221 0.132984 -0.089455 0.108919 -0.016764 -0.293775 0.282391 0.061886 -0.102142 0.256855 -0.182992 0.234050 -0.188212 0.264943 -0.266132 -0.049108 0.197725 0.003888 -0.372735 0.099893 0.025666 -0.203464 -0.555883 -0.093882 -0.082521 -0.130193 -0.188193 0.025185 0.486692 0.228262 0.178935 0.170207 -0.126524 -0.436237 -0.181051 0.204070 0.084097 -0.009650 0.407510 0.107417 0.064458 0.233920 -0.082364 -0.419188 -0.283778 -0.396885 0.176887 -0.068525 0.322540 -0.239121 -0.182215 0.236775 -0.159912 -0.273793 -0.196454 -0.045760 0.026961 -0.287579 0.148427 0.088565 0.291611 0.262522 -0.085525 -0.051531 -0.226553 -0.234531 0.037279 -0.158707 -0.401942 0.166404 0.447436 0.258692 0.234376 0.103592 0.026339 0.586376 0.244768 -0.114609 0.146992 0.178252 -0.069281 0.262054 -0.043422 -0.212456 0.090630 -0.016194 -0.343099 -0.137276 0.130598 -0.075879 0.083787 0.115556 0.020020 -0.282855 0.094555 0.381331 0.273424 0.094875 0.071243 -0.010786 0.709798 -0.211648 0.026109 -0.269955 -0.237587 -0.102878 0.024983 -0.092524 -0.033327 0.218805 -0.016085 0.340857 -0.401507 0.115839 0.109775 0.040350 -0.120060
208 -0.620752 -0.184350 -0.083340 0.137827 0.321729 -0.310410 -0.121893 -0.167247 0.071510 -0.432184 0.247588 0.439943 -0.202214 0.288274 0.405202 -0.153397 -0.163349 -0.183466 0.103524 0.064007 0.198009 -0.352907 0.100138 -0.209987 0.216501 -0.484669 0.463595 0.038192 0.305893 -0.013312 -0.011529 -0.356132 -0.131061 0.045125 0.200011 -0.305913 0.390615 -0.241293 -0.079117 0.380993 0.106262 -0.333902 0.322187 -0.265658 0.056685 0.025234 0.313243 -0.238730 0.131935 -0.192472 -0.211159 -0.085407 0.387761 0.167309 -0.079026 0.010828 -0.414126 0.125193 -0.055565 0.589751 0.209960 -0.675318 0.492211 -0.108460 0.283281 -0.377905 0.020503 -0.307741 -0.191706 0.014160 0.008947 0.432320 -0.102136 0.023818 -0.024894 0.357434 -0.151638 -0.042464 -0.102496 -0.012764 -0.352052 0.545515 0.071673 -0.145630 -0.228877 0.014949 0.276175 0.427718 0.037671 0.298827 -0.132588 -0.458179 0.131455 -0.224141 0.121485 -0.075547 0.147064 0.208241 -0.192378 -0.127853 -0.242973 0.219503 -0.051089 0.094452 0.082788 0.250531 -0.000931 -0.522342 0.118959 -0.612532 0.027275 0.276131 -0.466013 -0.144162 -0.090787 -0.178979 -0.260285 -0.038404 -0.362513 -0.610644 0.182169 -0.193261 0.658954 -0.411011 -0.143258 -0.406580 0.002668 -0.160643
184 -0.265186 -0.276934 -0.151811 -0.096022 0.083731 -0.632727 -0.273961 0.267065 0.226659 0.013983 -0.384010 -0.103660 -0.086990 -0.277771 0.200301 -0.505668 -0.138066 -0.120594 -0.112231 -0.030706 0.292220 0.050374 -0.082823 -0.054693 -0.281816 -0.319111 0.415648 -0.039818 0.366190 -0.006486 0.351645 -0.557316 -0.515577 -0.410893 -0.106322 0.226770 -0.117347 -0.004499 -0.530803 0.023372 0.145292 0.155470 0.424127 -0.013259 -0.164511 0.234830 0.539380 -0.281942 0.144446 0.240349 -0.535952 0.284656 -0.306717 -0.187040 -0.234125 -0.105436 -0.171420 0.132929 0.081251 0.462182 -0.236560 -0.293329 -0.034342 -0.035250 0.238991 -0.199989 -0.675352 -0.032703 -0.054144 -0.230064 -0.060781 0.226293 -0.132644 -0.178514 0.061817 0.281239 -0.171964 -0.016509 -0.225799 -0.500111 -0.328202 0.398445 0.321392 -0.028631 0.016298 0.378215 0.450754 0.437127 -0.115976 -0.107216 0.134733 -0.019198 -0.207814 0.252963 -0.262878 0.353697 0.377823 0.170759 0.394596 -0.115510 -0.522373 0.051106 0.231789 0.040824 -0.203841 0.123587 -0.238436 -0.474093 -0.048471 -0.261025 0.300241 0.200189 -0.206924 -0.057487 0.331069 -0.048856 -0.304031 0.684477 0.105816 -0.088116 -0.036980 -0.449838 0.197968 -0.759302 -0.191891 0.276933 0.294063 -0.407786
307 -0.664041 -0.197616 -0.087657 0.131296 0.334224 -0.312982 -0.127606 -0.156686 0.094358 -0.451369 0.244968 0.450187 -0.201470 0.286554 0.416447 -0.162209 -0.167183 -0.166580 0.105525 0.054818 0.194117 -0.356936 0.095501 -0.202085 0.207197 -0.505213 0.474155 0.045721 0.308479 -0.036246 -0.001471 -0.351676 -0.146855 0.051435 0.182988 -0.296593 0.392604 -0.248882 -0.092523 0.387133 0.095464 -0.347350 0.316363 -0.274637 0.047753 0.013736 0.334655 -0.239763 0.104756 -0.195641 -0.206831 -0.087163 0.390453 0.177781 -0.086531 0.008208 -0.438543 0.126005 -0.066907 0.593040 0.205675 -0.684198 0.489832 -0.090146 0.288315 -0.378761 0.030407 -0.303659 -0.212751 0.012653 0.001697 0.427301 -0.094082 0.039170 -0.018846 0.341946 -0.159452 -0.054539 -0.117207 -0.015980 -0.363860 0.561015 0.062975 -0.160334 -0.211466 -0.001479 0.281735 0.436020 0.055765 0.307366 -0.143336 -0.452229 0.153731 -0.227203 0.133446 -0.075371 0.163551 0.222946 -0.178044 -0.122549 -0.234613 0.234294 -0.039414 0.109377 0.084752 0.253941 -0.011940 -0.523103 0.129832 -0.620376 0.019675 0.303334 -0.467617 -0.141940 -0.092404 -0.184254 -0.256295 -0.040515 -0.365087 -0.648485 0.193612 -0.223541 0.675373 -0.404409 -0.150154 -0.426793 -0.005079 -0.155130
53 -0.646475 -0.220881 -0.098154 0.124180 0.332207 -0.279035 -0.105886 -0.157452 0.054543 -0.469673 0.258021 0.472360 -0.216591 0.293419 0.407461 -0.150589 -0.173597 -0.144167 0.106841 0.051823 0.171637 -0.347161 0.099169 -0.229359 0.202863 -0.523352 0.495875 0.022533 0.313235 -0.023643 -0.012802 -0.359686 -0.159011 0.047444 0.172046 -0.285717 0.411098 -0.223489 -0.080120 0.384022 0.102862 -0.337761 0.295492 -0.265355 0.039178 0.008110 0.344273 -0.257334 0.073341 -0.196603 -0.198646 -0.117618 0.419431 0.178269 -0.061317 -0.018386 -0.441609 0.111748 -0.093378 0.582256 0.238470 -0.690470 0.499624 -0.068921 0.296239 -0.370267 0.047161 -0.327563 -0.206816 -0.000076 0.007431 0.421273 -0.104271 0.063920 -0.012411 0.336129 -0.150749 -0.065859 -0.176348 -0.024584 -0.366915 0.528862 0.052357 -0.195302 -0.189904 0.013361 0.273979 0.450972 0.040340 0.313115 -0.132305 -0.426121 0.166006 -0.210084 0.133534 -0.086265 0.162070 0.222272 -0.219972 -0.115091 -0.203327 0.221170 -0.027399 0.146268 0.104062 0.254731 -0.027604 -0.520202 0.127277 -0.627910 0.023572 0.293218 -0.466294 -0.167609 -0.053097 -0.199723 -0.228488 -0.062028 -0.364208 -0.631169 0.180781 -0.216355 0.624897 -0.358847 -0.161959 -0.444098 0.004166 -0.154000
300 -0.418936 -0.386496 -0.125037 -0.200234 0.264862 -0.426624 -0.074794 0.309450 0.157104 -0.476702 -0.128432 -0.004526 -0.216649 -0.035297 0.185915 -0.122006 0.124546 -0.162977 -0.225631 0.212125 0.534569 -0.326339 -0.151333 -0.112375 -0.602761 -0.081629 -0.305278 0.021483 0.079841 -0.461646 0.143392 -0.007319 -0.564752 -0.090192 -0.295250 0.165422 0.474970 -0.147780 -0.093144 0.220714 0.000939 0.208056 -0.003671 -0.329513 -0.055485 -0.098280 0.333099 -0.203182 -0.085044 -0.029375 -0.020928 0.461351 0.133448 0.015251 -0.175877 -0.069462 -0.619849 0.249059 -0.029456 0.194311 -0.196113 -0.305096 0.275852 -0.023720 0.102399 -0.189872 -0.103046 -0.177879 -0.076565 0.103128 0.103602 0.002213 0.214181 -0.072774 -0.042952 0.177715 -0.016532 0.091172 0.173069 -0.137405 0.254408 0.375582 0.339074 -0.466033 -0.190427 -0.323344 0.018177 0.357311 0.056307 0.417158 0.016403 0.059198 0.161061 -0.171603 0.158159 0.528608 0.160991 -0.241620 0.070589 0.203542 -0.357937 -0.670726 0.448763 0.069235 0.144504 0.104782 -0.337016 0.122060 -0.451648 -0.140055 -0.005684 0.314718 -0.033241 -0.089649 -0.166727 0.082249 -0.520660 -0.110863 -0.150193 -0.464148 -0.050552 -0.433581 0.697940 0.388802 -0.110317 0.160770 0.345640 -0.315962
173 -0.008126 -0.066173 -0.439921 0.182759 0.065839 -0.247314 -0.141064 0.257164 0.463926 -0.105730 -0.220199 -0.040988 0.133439 -0.106647 0.125332 -0.080410 -0.300946 0.301524 0.072714 -0.133914 0.302340 -0.179138 0.218053 -0.200185 0.300776 -0.279116 -0.077320 0.233051 0.048536 -0.338991 0.110460 0.070495 -0.183799 -0.561830 -0.079080 -0.018303 -0.114185 -0.180316 -0.018045 0.512092 0.255786 0.196401 0.172997 -0.125208 -0.418035 -0.208879 0.233938 0.068155 0.006585 0.406076 0.087544 0.069468 0.266892 -0.080222 -0.447788 -0.250507 -0.379529 0.180063 -0.029563 0.305256 -0.280691 -0.113919 0.221636 -0.190147 -0.298339 -0.217623 -0.000788 0.044577 -0.276384 0.145854 0.082362 0.256460 0.319176 -0.154808 -0.036226 -0.240178 -0.242478 0.049221 -0.117471 -0.391816 0.146304 0.455676 0.259797 0.269019 0.105215 0.060638 0.632040 0.251033 -0.104244 0.153134 0.234793 -0.084024 0.201647 -0.037863 -0.259460 0.081883 -0.004615 -0.293803 -0.100323 0.103483 -0.112288 0.041559 0.106582 -0.038938 -0.241433 0.090839 0.345927 0.291585 0.086509 0.100148 0.007373 0.666848 -0.202929 0.019186 -0.289197 -0.249001 -0.155764 0.056367 -0.121228 -0.064342 0.197095 0.019753 0.353136 -0.439225 0.080338 0.124298 0.075454 -0.144447
277 0.016126 -0.031253 -0.521646 0.173034 0.068905 -0.310835 -0.123129 0.166208 0.506076 -0.153507 -0.246996 -0.043328 0.114485 -0.077309 0.122940 -0.024331 -0.249396 0.226195 0.100469 -0.098889 0.260951 -0.166137 0.275227 -0.147104 0.247345 -0.289970 -0.060076 0.284142 -0.004248 -0.384098 0.073952 0.083854 -0.184615 -0.582186 -0.149112 -0.026946 -0.042460 -0.234561 0.019785 0.515650 0.278165 0.162653 0.200772 -0.155702 -0.347350 -0.212674 0.253842 0.089214 -0.072441 0.325478 0.088114 0.072788 0.254891 -0.143711 -0.446263 -0.257992 -0.355134 0.195341 -0.056056 0.312067 -0.265582 -0.138300 0.288644 -0.173468 -0.258355 -0.223148 -0.011212 0.019508 -0.255254 0.164779 0.103116 0.228458 0.270229 -0.137446 -0.064184 -0.259676 -0.297043 0.012255 -0.180425 -0.437742 0.151942 0.457298 0.255213 0.270946 0.124151 0.088207 0.612107 0.280990 -0.096188 0.150443 0.127404 -0.074246 0.198100 -0.037671 -0.226065 -0.023980 0.078469 -0.321631 -0.131686 0.162561 -0.012690 -0.015055 0.096676 -0.011365 -0.274869 0.101614 0.407524 0.291363 0.163409 0.095318 -0.023698 0.787829 -0.208322 0.104612 -0.340765 -0.248936 -0.110324 0.052993 -0.142991 -0.052626 0.265925 -0.017675 0.402247 -0.486354 0.119578 0.136332 0.067475 -0.118910
314 -0.276157 -0.296371 -0.162264 -0.095235 0.075736 -0.595382 -0.241707 0.245947 0.200934 -0.011062 -0.363320 -0.086213 -0.081762 -0.264478 0.200268 -0.488523 -0.150275 -0.103607 -0.120081 -0.043139 0.268705 0.037799 -0.074683 -0.069078 -0.265953 -0.314882 0.410708 -0.057986 0.356146 -0.008705 0.340836 -0.553279 -0.509656 -0.400577 -0.099734 0.228166 -0.102152 0.018596 -0.518899 0.032294 0.136542 0.149647 0.383822 0.004305 -0.171173 0.225686 0.534025 -0.291019 0.125243 0.236281 -0.518585 0.278075 -0.302736 -0.184574 -0.238783 -0.109395 -0.185583 0.122927 0.045725 0.459196 -0.221293 -0.297660 -0.043291 -0.021845 0.237898 -0.196433 -0.673668 -0.031474 -0.053708 -0.223645 -0.060958 0.214157 -0.137115 -0.167974 0.064512 0.272111 -0.152410 -0.028949 -0.246472 -0.505638 -0.331415 0.371065 0.326528 -0.068943 0.032218 0.367968 0.442950 0.459547 -0.135570 -0.090961 0.118682 0.015606 -0.202251 0.274368 -0.265608 0.355414 0.367036 0.139897 0.365347 -0.105871 -0.505623 0.026458 0.237863 0.078382 -0.185128 0.104723 -0.231358 -0.458616 -0.059545 -0.271600 0.316030 0.196350 -0.218221 -0.059567 0.351833 -0.062792 -0.279962 0.656882 0.091403 -0.080991 -0.036763 -0.436106 0.171105 -0.721996 -0.199835 0.277736 0.296145 -0.405803
304 -0.070927 -0.035439 -0.408131 0.179772 0.030165 -0.147752 -0.095925 0.264556 0.397964 -0.062292 -0.222274 0.020625 0.161236 -0.064312 0.113596 0.085874 -0.274858 0.323709 0.081823 -0.069409 0.335825 -0.179810 0.209712 -0.200654 0.241886 -0.213753 -0.026034 0.189172 0.007489 -0.374124 0.171626 0.043754 -0.107539 -0.602355 -0.025713 -0.123003 -0.160463 -0.165043 0.048670 0.488250 0.235327 0.180544 0.187030 -0.129889 -0.403998 -0.154994 0.147978 0.118118 0.075381 0.402466 0.155162 0.102417 0.238826 0.017901 -0.410194 -0.295278 -0.365256 0.194719 -0.072396 0.325541 -0.275662 -0.243499 0.236406 -0.192462 -0.302848 -0.259340 0.006767 0.023598 -0.303589 0.189883 0.068770 0.423664 0.227000 -0.033630 -0.064950 -0.206684 -0.190900 0.073029 -0.092581 -0.363085 0.145058 0.470230 0.306044 0.305379 0.011953 0.034945 0.546760 0.187584 -0.051059 0.225639 0.184659 -0.103552 0.306440 -0.100088 -0.183520 0.190617 -0.051899 -0.370966 -0.191664 0.098920 -0.065167 0.145471 0.051855 0.018720 -0.317929 0.074166 0.452776 0.251818 0.117414 -0.001280 -0.020250 0.690899 -0.198537 -0.030461 -0.297580 -0.143432 -0.172495 0.030614 -0.131324 -0.041777 0.266298 -0.053048 0.331243 -0.337452 0.170348 0.090717 0.025405 -0.061343
101 -0.075686 -0.047647 -0.417921 0.213865 0.025922 -0.114429 -0.095052 0.260058 0.368664 -0.092277 -0.209665 0.014003 0.161525 -0.072230 0.095418 0.079340 -0.288171 0.324214 0.068630 -0.102323 0.287945 -0.179219 0.213772 -0.201841 0.231027 -0.212095 -0.026364 0.154505 0.010573 -0.359724 0.145814 0.016881 -0.158249 -0.582340 -0.062436 -0.128996 -0.166480 -0.138551 0.067536 0.456710 0.224164 0.167901 0.159770 -0.108686 -0.438879 -0.148412 0.138616 0.085948 0.039691 0.398419 0.162900 0.074166 0.220944 -0.014396 -0.394709 -0.298819 -0.366976 0.183713 -0.098906 0.311519 -0.243438 -0.237272 0.219170 -0.154982 -0.265839 -0.212908 -0.042660 0.021274 -0.296865 0.186587 0.086071 0.389643 0.212617 -0.025051 -0.062162 -0.208155 -0.181640 0.046978 -0.148804 -0.367511 0.149060 0.434326 0.302307 0.241362 0.034996 0.013789 0.537960 0.198130 -0.081624 0.206268 0.163427 -0.073946 0.317215 -0.055773 -0.181178 0.172904 -0.044112 -0.380669 -0.188730 0.109594 -0.056091 0.143591 0.101005 0.069049 -0.315242 0.060742 0.406280 0.253457 0.104918 0.019664 -0.012495 0.693189 -0.190165 -0.037550 -0.259881 -0.184705 -0.129980 0.041019 -0.074448 -0.019601 0.254999 -0.061325 0.304333 -0.320837 0.153789 0.082554 0.022765 -0.085010
283 -0.278373 -0.281208 -0.140047 -0.092783 0.075555 -0.615977 -0.242587 0.262706 0.215427 0.003319 -0.353532 -0.112942 -0.077879 -0.273516 0.197618 -0.498115 -0.132118 -0.113283 -0.105695 -0.030658 0.296966 0.035353 -0.082330 -0.064147 -0.272924 -0.329064 0.394770 -0.030921 0.354737 -0.009464 0.338896 -0.545400 -0.517956 -0.412998 -0.095571 0.231280 -0.112793 0.009529 -0.516550 0.027591 0.136205 0.142563 0.412637 -0.015602 -0.163269 0.217383 0.543263 -0.287341 0.147053 0.220386 -0.522286 0.286615 -0.302026 -0.200604 -0.239681 -0.095056 -0.167990 0.117806 0.066383 0.466462 -0.239946 -0.285614 -0.029249 -0.046959 0.249585 -0.198402 -0.666947 -0.026491 -0.055254 -0.223411 -0.067324 0.214612 -0.151984 -0.165533 0.048196 0.268891 -0.176949 -0.023059 -0.213987 -0.475733 -0.333719 0.399136 0.322469 -0.040557 0.027871 0.361973 0.446424 0.441191 -0.109959 -0.111537 0.110899 -0.022624 -0.188385 0.257086 -0.253730 0.342920 0.373758 0.173586 0.399879 -0.119925 -0.503754 0.038843 0.241629 0.049904 -0.191902 0.106205 -0.238231 -0.467971 -0.039558 -0.246671 0.294871 0.198138 -0.201944 -0.058549 0.314548 -0.046128 -0.293696 0.670154 0.104797 -0.102278 -0.021420 -0.447585 0.206898 -0.747664 -0.176004 0.249406 0.301807 -0.392030
94 -0.044416 -0.046671 -0.418469 0.201414 0.013610 -0.152077 -0.137127 0.272575 0.405772 -0.075748 -0.200795 0.003685 0.143014 -0.100570 0.095507 0.023558 -0.318471 0.321717 0.054719 -0.131864 0.296964 -0.180335 0.227367 -0.189171 0.276415 -0.239946 -0.020991 0.160424 0.027084 -0.377725 0.148059 0.016939 -0.159115 -0.562539 -0.054499 -0.115477 -0.169715 -0.142848 0.020650 0.496463 0.226239 0.196079 0.172323 -0.122250 -0.474583 -0.174248 0.182802 0.084435 0.041627 0.447055 0.130104 0.075077 0.227283 -0.038088 -0.434182 -0.290911 -0.384878 0.168748 -0.076074 0.321386 -0.259348 -0.214459 0.225845 -0.175478 -0.283760 -0.220356 -0.041282 0.021853 -0.323158 0.151665 0.073788 0.362249 0.251262 -0.050139 -0.041626 -0.209323 -0.185557 0.053836 -0.120875 -0.362571 0.148861 0.470762 0.292562 0.247378 0.044041 0.021879 0.571815 0.230780 -0.084627 0.199550 0.187493 -0.088436 0.291202 -0.066542 -0.208977 0.162913 -0.066760 -0.352331 -0.146138 0.109047 -0.078396 0.146352 0.086541 0.041549 -0.287021 0.054694 0.372651 0.249378 0.111929 0.023352 -0.017496 0.683788 -0.200144 -0.027152 -0.265929 -0.206211 -0.131035 0.051752 -0.089151 -0.036065 0.229712 -0.016060 0.336520 -0.372615 0.115912 0.078780 0.043214 -0.097353
186 -0.442967 -0.433409 -0.171687 -0.141084 0.286960 -0.427252 -0.065340 0.224002 0.126578 -0.445933 -0.106402 -0.065019 -0.197281 -0.014809 0.219321 -0.172501 0.169133 -0.130863 -0.147365 0.165765 0.550724 -0.369738 -0.119131 -0.085516 -0.587455 -0.051318 -0.283776 0.042951 0.063125 -0.463015 0.161222 -0.049984 -0.617458 0.003554 -0.290109 0.139904 0.428297 -0.204370 -0.101492 0.260544 -0.054984 0.214480 -0.032817 -0.310054 -0.094964 -0.060340 0.310260 -0.245058 -0.068475 -0.029254 -0.055023 0.481646 0.109620 0.016332 -0.276211 -0.096391 -0.676346 0.203350 -0.030218 0.218035 -0.175630 -0.358345 0.281666 -0.022519 0.048481 -0.241563 -0.096335 -0.167093 -0.080255 0.113602 0.067425 0.062791 0.216303 -0.081263 -0.040561 0.184805 -0.018291 0.021138 0.207096 -0.133801 0.253774 0.373204 0.373779 -0.490357 -0.178136 -0.367777 -0.036840 0.411422 0.056366 0.473438 0.064360 0.086906 0.162142 -0.148826 0.173781 0.578660 0.174132 -0.255221 0.114894 0.201782 -0.427105 -0.668096 0.473748 0.089799 0.208776 0.095659 -0.392944 0.156571 -0.461036 -0.151306 0.034135 0.315272 -0.031534 -0.048111 -0.101601 0.093488 -0.510771 -0.120762 -0.156050 -0.498595 -0.060983 -0.450777 0.740567 0.386965 -0.057769 0.217987 0.286387 -0.355898
216 -0.702557 -0.603008 -0.338566 -0.190225 0.249758 -0.245429 -0.415253 0.444402 -0.038595 -0.362786 -0.512595 0.377125 -0.481549 0.253352 0.349859 -0.205563 -0.390319 0.166526 -0.155336 -0.502840 0.115221 -0.027583 -0.194433 -0.233189 -0.168441 -0.085489 0.538716 -0.580046 0.746017 0.091894 0.375286 -0.279144 -0.273784 -0.244104 -0.108746 0.054247 0.168325 0.189716 -0.061946 0.257819 0.612819 0.520746 -0.037281 0.197501 -0.310507 0.186205 0.163987 -0.302517 -0.034797 0.261584 -0.338669 0.020046 0.555611 0.422596 0.044341 -0.472535 -0.667022 0.266046 -0.216076 0.248891 0.028516 -0.754718 -0.049621 0.183413 0.121630 -0.002319 -0.208726 -0.106442 -0.188830 -0.035728 -0.180767 0.548591 0.459505 0.103182 -0.117872 0.065384 0.567916 0.372623 -0.433318 -0.804891 -0.039438 0.004726 0.336168 -0.230412 -0.351686 0.241126 0.468757 0.296035 -0.108538 0.859343 0.272428 0.138044 -0.532417 -0.128445 -0.186546 0.426333 0.466877 -0.784782 -0.637552 0.052583 -0.301889 -0.319514 0.121001 0.260289 0.018294 0.437927 -0.107634 -0.474604 -0.399124 -0.848718 -0.004086 0.380326 -0.377062 -0.254550 0.273148 -0.375475 -0.032634 0.083883 -0.816601 -0.058076 -0.093744 -0.299938 0.127846 -0.060819 -0.738030 0.422197 0.103417 -0.132368
220 -0.459269 -0.429504 -0.153393 -0.158518 0.292282 -0.412981 -0.062280 0.233283 0.144078 -0.452864 -0.116365 -0.054134 -0.198528 -0.013519 0.202724 -0.145813 0.150126 -0.128490 -0.157115 0.178989 0.538114 -0.349885 -0.114757 -0.097314 -0.570676 -0.054468 -0.272332 0.040856 0.080761 -0.458007 0.153541 -0.048823 -0.584805 -0.018016 -0.279930 0.143781 0.415103 -0.197765 -0.102104 0.266212 -0.038835 0.219616 -0.026143 -0.318428 -0.087225 -0.060396 0.305745 -0.235252 -0.061381 -0.029608 -0.047113 0.469282 0.111046 0.013258 -0.251456 -0.096071 -0.652231 0.204983 -0.028899 0.208530 -0.172394 -0.350453 0.284100 -0.024541 0.058296 -0.237775 -0.098748 -0.175648 -0.087030 0.111461 0.062915 0.040788 0.207048 -0.082137 -0.035518 0.183640 -0.003932 0.036120 0.208099 -0.137581 0.252895 0.367616 0.360794 -0.477824 -0.184663 -0.361120 -0.033369 0.387554 0.060835 0.467220 0.064760 0.074100 0.156747 -0.146358 0.174465 0.561303 0.169719 -0.258585 0.093399 0.212301 -0.406294 -0.648339 0.459278 0.083095 0.172832 0.100729 -0.377511 0.141752 -0.464369 -0.161237 0.021821 0.319348 -0.035265 -0.060299 -0.111657 0.095767 -0.505833 -0.118960 -0.155250 -0.477406 -0.069976 -0.434985 0.729059 0.381775 -0.056072 0.199009 0.285680 -0.330228
1 -0.653021 -0.196378 -0.076589 0.130045 0.323819 -0.289593 -0.102503 -0.171650 0.102238 -0.447138 0.256413 0.439457 -0.193827 0.287376 0.396719 -0.147039 -0.163977 -0.173365 0.089165 0.075369 0.190615 -0.337369 0.108999 -0.228768 0.212898 -0.494763 0.490282 0.037969 0.306471 -0.050680 -0.000146 -0.372526 -0.137662 0.047340 0.189359 -0.301381 0.371582 -0.228890 -0.074972 0.378181 0.079307 -0.344335 0.315153 -0.279270 0.032497 0.007577 0.322451 -0.253888 0.111077 -0.180412 -0.211557 -0.090986 0.375043 0.157312 -0.084897 -0.007826 -0.427702 0.125842 -0.078600 0.605062 0.232497 -0.709046 0.509733 -0.089817 0.297244 -0.396265 0.002872 -0.321365 -0.215950 0.000546 0.005190 0.419244 -0.099030 0.049390 -0.016996 0.350945 -0.140694 -0.071499 -0.119396 -0.021155 -0.364664 0.548940 0.074802 -0.180323 -0.209762 0.006099 0.265322 0.447609 0.046458 0.309143 -0.137840 -0.444961 0.160597 -0.193576 0.122941 -0.082626 0.126675 0.199448 -0.183635 -0.085031 -0.215638 0.238792 -0.038847 0.112299 0.058971 0.250440 -0.003271 -0.518005 0.127372 -0.641930 0.016911 0.291776 -0.453546 -0.124869 -0.083133 -0.177528 -0.231287 -0.041579 -0.348913 -0.613765 0.179404 -0.205116 0.641322 -0.388932 -0.149467 -0.438628 0.002111 -0.150400
