309 128
279 0.149020 0.253533 -0.128188 0.203848 0.068808 0.262126 0.074978 -0.155695 -0.106820 0.239579 0.139155 -0.199958 0.360789 -0.293212 -0.346915 -0.116370 0.038054 0.359189 0.099370 0.048211 0.078281 -0.036051 0.334043 0.136471 0.335916 0.103388 -0.158397 0.129080 -0.412430 -0.182498 -0.095796 0.008010 0.067102 -0.263622 -0.116463 -0.196497 -0.381400 -0.072346 0.252467 0.176341 -0.090484 0.175310 0.008315 0.066243 -0.240883 -0.074050 -0.342641 0.157250 0.415393 0.290348 0.208836 -0.073763 0.487945 0.255616 0.023206 -0.044668 -0.296313 -0.022704 0.115118 0.057545 -0.108491 -0.033985 -0.255662 -0.198060 -0.496387 0.264802 0.204436 0.157146 -0.424897 0.057095 0.243121 0.315524 0.472367 -0.133068 0.014882 -0.345434 0.339474 0.301043 0.147252 -0.088381 0.200559 -0.177333 0.124329 0.486193 0.256883 0.035677 0.226992 -0.409975 0.026097 -0.056969 0.413510 -0.076080 0.387467 -0.237691 -0.076060 -0.064288 -0.389271 -0.509623 -0.123698 -0.194477 -0.283643 0.161052 -0.099089 -0.003842 0.239803 0.117026 0.555555 0.358036 0.178413 0.059846 -0.217486 -0.000815 -0.132119 0.189636 -0.137546 -0.196604 -0.160607 -0.039305 -0.082991 0.023498 -0.127231 0.090311 -0.193990 -0.331256 0.138562 -0.026428 -0.361366 -0.095340
230 -0.279555 -0.228388 -0.204493 -0.336407 0.271473 -0.008992 -0.135561 -0.047682 -0.158376 -0.143124 -0.071255 -0.113298 -0.187133 -0.226040 -0.115914 -0.267955 0.194726 0.112114 -0.230267 0.171198 0.498084 -0.196728 0.214936 0.302460 -0.607198 -0.048723 -0.235351 -0.005972 -0.276208 -0.460023 -0.008442 -0.014080 -0.300228 -0.027517 -0.132530 -0.084294 0.436881 -0.059192 0.260934 0.088086 -0.112161 0.320463 -0.092674 -0.257197 -0.176639 -0.117852 -0.114869 0.068716 0.059480 0.008987 -0.023521 0.305236 0.565374 0.531657 -0.041887 -0.383332 -0.757492 0.050741 -0.185074 0.252959 0.022987 -0.600895 -0.060587 -0.126262 -0.165643 0.006562 -0.056994 -0.329072 -0.454578 -0.062620 0.310636 0.401774 0.450966 -0.188870 -0.032968 0.156102 0.157024 0.286581 0.298366 0.096554 0.225835 0.115120 0.279760 -0.127875 -0.250666 -0.453633 -0.254958 -0.002569 0.122169 0.441375 0.257942 -0.144248 0.308902 -0.458846 0.322596 0.453774 -0.205946 -0.622239 -0.121521 -0.047867 -0.392243 -0.502853 0.137758 0.145666 0.457166 0.041575 0.151444 -0.042298 -0.093911 -0.350470 -0.026161 -0.089678 -0.181764 0.207751 -0.018256 0.178410 -0.417810 -0.086405 -0.240085 -0.415740 -0.362114 -0.292854 0.611958 0.286390 -0.020062 -0.049140 -0.205384 -0.011160
234 0.170919 0.254164 -0.107787 0.203838 0.099756 0.232661 0.077469 -0.173403 -0.115033 0.222419 0.134983 -0.215750 0.339557 -0.305571 -0.353948 -0.129087 0.045844 0.356056 0.113663 0.043536 0.071847 -0.016545 0.338353 0.161027 0.287231 0.135528 -0.142284 0.145603 -0.411305 -0.199654 -0.119018 -0.014387 0.059526 -0.248914 -0.133610 -0.190839 -0.340339 -0.104105 0.271281 0.160379 -0.094370 0.166017 0.022513 0.079068 -0.209316 -0.069249 -0.336529 0.153420 0.394316 0.251178 0.198425 -0.057496 0.496602 0.252804 0.058612 -0.042392 -0.303948 -0.018850 0.129413 0.046713 -0.089966 -0.034885 -0.255286 -0.195708 -0.456218 0.255867 0.161059 0.160736 -0.437950 0.023936 0.254240 0.289631 0.469206 -0.138757 0.023147 -0.351944 0.333439 0.304949 0.159863 -0.081678 0.208276 -0.185833 0.109400 0.477285 0.268500 0.048212 0.196838 -0.411595 0.018507 -0.069368 0.391724 -0.072096 0.369539 -0.233705 -0.082204 -0.110232 -0.358478 -0.508640 -0.107011 -0.157859 -0.275505 0.138517 -0.083035 -0.052944 0.245054 0.147280 0.565638 0.359844 0.168934 0.065092 -0.217007 -0.008762 -0.104334 0.232080 -0.139956 -0.204124 -0.141142 -0.018795 -0.065782 0.018721 -0.157432 0.095955 -0.197093 -0.328372 0.170523 -0.018109 -0.379885 -0.099940
26 -0.101526 0.041595 0.070226 0.001325 0.257106 0.445041 0.194176 -0.437173 -0.504122 0.289765 0.337800 -0.202674 -0.027833 -0.178628 -0.163032 -0.328224 0.203671 0.163386 0.026684 0.243873 -0.033771 0.220084 0.333277 0.212068 -0.060781 -0.081601 0.166888 -0.194283 -0.086562 0.013474 -0.044785 -0.281735 -0.066369 0.521122 0.151204 -0.392791 -0.138291 -0.358225 -0.075768 0.085438 -0.449407 0.020025 -0.172455 -0.106187 -0.407797 0.425818 -0.357397 -0.220271 0.382255 -0.170014 -0.024432 -0.175770 0.368382 0.432833 0.057232 0.126001 -0.447497 -0.356877 -0.205013 0.315170 0.689687 -0.563612 -0.293284 0.217807 0.023697 -0.269693 -0.037056 -0.329449 0.002181 -0.381673 0.217320 0.174090 -0.005693 -0.085200 0.266948 0.020996 0.143071 0.229014 0.446159 0.292436 -0.326566 -0.229930 -0.227244 -0.137643 0.023117 -0.167013 -0.394092 -0.163581 -0.036356 -0.189143 0.156729 -0.326558 0.168494 -0.116004 0.102502 -0.191833 -0.614409 -0.334371 0.175285 -0.069152 -0.345720 0.253377 -0.076943 0.226008 0.690619 0.066972 0.259348 -0.399768 0.164313 -0.753148 -0.035133 -0.573319 -0.213089 0.343385 0.346300 -0.055614 -0.008234 -0.156200 -0.106461 -0.391998 -0.476058 -0.170307 -0.240304 -0.137934 0.252646 -0.393859 -0.232431 -0.234812
90 -0.272947 -0.187195 -0.208433 -0.314650 0.329314 0.016594 -0.124693 -0.047430 -0.137689 -0.119359 -0.085317 -0.144304 -0.177469 -0.229934 -0.132625 -0.257614 0.158961 0.122288 -0.252171 0.179281 0.529283 -0.194472 0.241277 0.320782 -0.620623 -0.037255 -0.252986 0.032501 -0.280727 -0.501625 0.008686 -0.045522 -0.297410 -0.029553 -0.152640 -0.071510 0.440043 -0.056681 0.220216 0.101500 -0.109999 0.360219 -0.073037 -0.271556 -0.182918 -0.087892 -0.117797 0.105645 0.075512 0.024607 -0.030643 0.305330 0.546947 0.553245 -0.063777 -0.420310 -0.740456 0.035102 -0.174337 0.235053 -0.000172 -0.593724 -0.060156 -0.119547 -0.187801 0.005018 -0.068456 -0.309705 -0.433621 -0.071357 0.324698 0.398617 0.453815 -0.195342 -0.046346 0.163578 0.165635 0.285434 0.322362 0.130127 0.216868 0.139196 0.277066 -0.123921 -0.244800 -0.507297 -0.284060 -0.000664 0.134338 0.432682 0.264468 -0.138834 0.307350 -0.462491 0.333980 0.478670 -0.231442 -0.623992 -0.146358 -0.025671 -0.386330 -0.461612 0.107389 0.127943 0.439881 0.049710 0.118609 -0.068588 -0.136190 -0.393864 -0.006999 -0.098330 -0.133428 0.250546 -0.020763 0.191086 -0.394015 -0.081711 -0.224396 -0.367919 -0.348688 -0.284792 0.606619 0.333292 -0.002732 -0.049262 -0.201830 0.006066
150 -0.290748 -0.224981 -0.211360 -0.328399 0.294566 0.001299 -0.142904 -0.067760 -0.147756 -0.142717 -0.059763 -0.112208 -0.188869 -0.217157 -0.111173 -0.263223 0.186911 0.119691 -0.236933 0.177813 0.496100 -0.202690 0.237144 0.313781 -0.606164 -0.057099 -0.238709 -0.008487 -0.281840 -0.480356 -0.009700 -0.018842 -0.284874 -0.018931 -0.129075 -0.099282 0.437902 -0.060126 0.249821 0.096349 -0.123763 0.317582 -0.094798 -0.260720 -0.179042 -0.107893 -0.121647 0.090124 0.069657 0.021698 -0.022883 0.299360 0.548825 0.535536 -0.043384 -0.400333 -0.760662 0.048043 -0.197565 0.257963 0.023066 -0.607825 -0.042239 -0.130680 -0.178742 0.007495 -0.055958 -0.325016 -0.456051 -0.058140 0.309970 0.406224 0.449866 -0.182457 -0.047612 0.167710 0.160578 0.286427 0.303363 0.098043 0.221470 0.140903 0.275883 -0.110868 -0.261920 -0.466692 -0.266428 0.000544 0.121832 0.436158 0.247412 -0.146790 0.311376 -0.467693 0.328685 0.456612 -0.218806 -0.626189 -0.139863 -0.035827 -0.379882 -0.477341 0.118731 0.154311 0.441422 0.054568 0.164738 -0.051182 -0.097730 -0.365209 -0.027064 -0.071030 -0.176267 0.218004 -0.019772 0.177988 -0.398689 -0.099683 -0.237005 -0.407317 -0.346511 -0.290997 0.613931 0.288016 -0.014476 -0.052245 -0.214857 0.003553
28 -0.092458 0.016253 0.067686 0.017011 0.248590 0.463852 0.205264 -0.434625 -0.525951 0.283634 0.339752 -0.195394 -0.034016 -0.169989 -0.171673 -0.347912 0.195319 0.163438 0.041878 0.246187 -0.047968 0.211688 0.316794 0.193679 -0.035905 -0.098452 0.177214 -0.184916 -0.069295 0.017778 -0.056908 -0.283955 -0.078576 0.520777 0.154420 -0.400353 -0.123634 -0.351123 -0.074902 0.097512 -0.436743 0.023107 -0.168512 -0.095602 -0.404802 0.419060 -0.348608 -0.232328 0.375769 -0.166389 -0.033413 -0.177384 0.398996 0.442562 0.067746 0.129967 -0.464594 -0.367777 -0.209518 0.324790 0.692195 -0.569471 -0.288582 0.210759 0.029439 -0.279578 -0.036692 -0.331119 -0.004182 -0.398446 0.238555 0.188145 -0.007092 -0.103922 0.259160 0.023157 0.139842 0.232995 0.422971 0.293164 -0.336611 -0.238667 -0.214083 -0.150079 0.025841 -0.144042 -0.377992 -0.140196 -0.053075 -0.173148 0.174686 -0.325007 0.154533 -0.127460 0.095788 -0.189149 -0.608826 -0.331139 0.146145 -0.079246 -0.354076 0.256405 -0.083757 0.230192 0.696358 0.068969 0.272995 -0.395236 0.151916 -0.751224 -0.013849 -0.562540 -0.221362 0.326941 0.358660 -0.074892 -0.019288 -0.154442 -0.114402 -0.388585 -0.475126 -0.160938 -0.233424 -0.129668 0.241656 -0.397624 -0.218315 -0.232038
228 0.166983 0.264555 -0.086800 0.236836 0.058601 0.260356 0.078781 -0.197084 -0.088214 0.239619 0.113780 -0.236947 0.339916 -0.284184 -0.360971 -0.110448 0.041365 0.348250 0.083215 0.074677 0.061445 -0.026419 0.326097 0.164352 0.297269 0.116595 -0.120410 0.124809 -0.423824 -0.210545 -0.095428 -0.016096 0.050409 -0.258743 -0.107002 -0.191013 -0.357539 -0.090976 0.260083 0.169630 -0.117121 0.140002 0.036122 0.085453 -0.227309 -0.078980 -0.328645 0.164104 0.395976 0.290995 0.204915 -0.042896 0.433593 0.216317 0.042695 -0.053765 -0.283813 -0.008624 0.123483 0.049390 -0.109055 -0.049164 -0.245287 -0.210384 -0.467567 0.256048 0.144668 0.141478 -0.440457 0.028116 0.252772 0.307600 0.454687 -0.117912 0.037581 -0.338278 0.320911 0.312472 0.162826 -0.064555 0.220919 -0.146787 0.123639 0.493799 0.251150 0.016804 0.213180 -0.413535 0.028182 -0.088697 0.418950 -0.072293 0.411406 -0.216976 -0.082554 -0.069741 -0.415152 -0.481261 -0.115986 -0.152030 -0.266560 0.175431 -0.079345 -0.024449 0.192794 0.143886 0.561598 0.347809 0.184353 0.054404 -0.226158 0.016841 -0.114333 0.227001 -0.136631 -0.172762 -0.170859 -0.029255 -0.045206 0.030923 -0.156830 0.095009 -0.188872 -0.329553 0.197704 -0.059704 -0.361400 -0.104827
299 0.122670 0.240703 -0.119820 0.197116 0.074397 0.254959 0.106806 -0.153461 -0.095672 0.199931 0.138613 -0.152689 0.383668 -0.273134 -0.364327 -0.041164 0.061218 0.341153 0.101804 0.090952 0.078891 -0.067601 0.401193 0.116670 0.287765 0.114881 -0.126333 0.084767 -0.436958 -0.224456 -0.091692 -0.056970 0.048835 -0.314858 -0.137907 -0.224469 -0.348981 -0.041467 0.275135 0.194179 -0.104942 0.072675 0.043217 0.084780 -0.160765 -0.042535 -0.358294 0.142813 0.439238 0.254204 0.260260 -0.055982 0.465280 0.258580 0.092406 -0.057538 -0.308350 0.000193 0.064912 0.120085 -0.113137 -0.091153 -0.208959 -0.160221 -0.438302 0.238384 0.167931 0.125179 -0.434202 0.079955 0.270974 0.359951 0.401559 -0.115673 0.015718 -0.301282 0.326073 0.252058 0.067540 -0.117348 0.171932 -0.171061 0.177582 0.446357 0.253738 0.058355 0.198997 -0.401666 0.011439 -0.025933 0.362754 -0.100784 0.481329 -0.193098 -0.037899 -0.057299 -0.357086 -0.504388 -0.135610 -0.196400 -0.251274 0.174301 -0.118566 0.069128 0.208576 0.121589 0.570263 0.383995 0.253380 0.045687 -0.209057 0.032934 -0.112491 0.139448 -0.153442 -0.199179 -0.193936 0.013603 -0.087039 -0.016079 -0.092779 0.020115 -0.200424 -0.310409 0.202580 -0.028558 -0.370641 -0.085724
127 -0.085769 0.010981 0.065387 0.007123 0.286618 0.439155 0.178946 -0.432003 -0.550572 0.303869 0.364629 -0.202295 -0.030655 -0.198670 -0.155780 -0.362045 0.193609 0.161146 0.046937 0.211634 -0.031567 0.186677 0.321529 0.220130 -0.044198 -0.089387 0.174613 -0.180692 -0.073074 0.020204 -0.065865 -0.286312 -0.088325 0.521279 0.136025 -0.382740 -0.129593 -0.373393 -0.085173 0.083017 -0.431866 0.034079 -0.182776 -0.070657 -0.423986 0.416470 -0.346065 -0.216814 0.388195 -0.188484 -0.045651 -0.178717 0.368152 0.454821 0.032774 0.121788 -0.465965 -0.338472 -0.214041 0.307140 0.682526 -0.557979 -0.320745 0.219527 -0.003474 -0.246000 -0.051655 -0.320354 -0.001617 -0.378468 0.235523 0.182486 -0.015033 -0.095563 0.255987 0.032749 0.142522 0.224274 0.441382 0.273457 -0.324032 -0.234431 -0.222235 -0.141739 0.035991 -0.179882 -0.382569 -0.132950 -0.056103 -0.184558 0.163618 -0.305459 0.157717 -0.145352 0.073378 -0.173307 -0.598554 -0.350149 0.174775 -0.076953 -0.380625 0.256813 -0.049214 0.245318 0.699477 0.072821 0.257485 -0.399875 0.128155 -0.731955 -0.021799 -0.578589 -0.218825 0.345963 0.381791 -0.060744 -0.003234 -0.147679 -0.109131 -0.395108 -0.476328 -0.171450 -0.253181 -0.157796 0.236392 -0.374341 -0.252858 -0.234552
57 0.152503 0.216682 -0.139413 0.108936 0.102964 0.225883 0.037246 -0.126049 -0.139968 0.247979 0.151845 -0.199229 0.323896 -0.326018 -0.336120 -0.171098 0.053385 0.366788 0.119469 -0.012849 0.115523 -0.020482 0.292844 0.108055 0.335566 0.076668 -0.198282 0.163294 -0.338747 -0.172416 -0.114137 0.068796 0.053940 -0.180466 -0.114270 -0.162978 -0.385062 -0.088869 0.192421 0.154293 -0.030624 0.230889 -0.024331 0.040665 -0.270058 -0.065178 -0.316396 0.123312 0.411107 0.250460 0.202177 -0.077595 0.556376 0.295744 -0.008066 0.000694 -0.309637 -0.075248 0.103731 0.046295 -0.071046 0.012984 -0.306621 -0.180370 -0.492212 0.257606 0.232446 0.180049 -0.409199 0.037110 0.235964 0.266486 0.512813 -0.190314 0.040102 -0.338294 0.322918 0.305742 0.196114 -0.062918 0.191231 -0.225776 0.080050 0.445159 0.257701 0.073198 0.224658 -0.350676 0.020446 -0.020394 0.412354 -0.082932 0.265379 -0.264457 -0.112577 -0.073354 -0.335055 -0.517065 -0.061687 -0.208586 -0.330035 0.097176 -0.094065 -0.038227 0.344256 0.100507 0.506982 0.345295 0.138821 0.077434 -0.167289 -0.055483 -0.128200 0.188187 -0.106195 -0.245014 -0.121183 0.001608 -0.106356 0.016815 -0.115049 0.107815 -0.189935 -0.349069 0.117027 0.000708 -0.373240 -0.129098
7 0.156811 0.229098 -0.103607 0.174079 0.047977 0.264862 0.075111 -0.135007 -0.092262 0.235655 0.146298 -0.195990 0.389944 -0.311982 -0.344461 -0.106396 0.044092 0.350608 0.080430 0.048316 0.080972 -0.043494 0.326251 0.114269 0.340096 0.080106 -0.156071 0.109275 -0.411177 -0.190006 -0.068172 -0.003788 0.067520 -0.268065 -0.097370 -0.189431 -0.393627 -0.055569 0.221424 0.177705 -0.111516 0.171368 0.019486 0.065359 -0.255057 -0.080693 -0.349215 0.166033 0.441260 0.301791 0.223606 -0.067557 0.473639 0.269709 0.015568 -0.024537 -0.277401 -0.047428 0.130674 0.079806 -0.114605 -0.024794 -0.233070 -0.204559 -0.507717 0.260084 0.220069 0.157740 -0.440913 0.066759 0.237458 0.328301 0.451489 -0.131869 0.022406 -0.319125 0.328361 0.312635 0.176824 -0.073040 0.218845 -0.164313 0.132377 0.505514 0.244226 0.020864 0.226581 -0.409001 0.022303 -0.069132 0.423881 -0.113630 0.395278 -0.238411 -0.076124 -0.033996 -0.403168 -0.513353 -0.115162 -0.190489 -0.305177 0.176703 -0.105107 0.012500 0.217162 0.094690 0.527672 0.349726 0.191538 0.051692 -0.210016 0.007085 -0.116263 0.176690 -0.139636 -0.193830 -0.179909 -0.016845 -0.081149 0.036587 -0.136026 0.121563 -0.190766 -0.328503 0.158672 -0.038863 -0.355751 -0.102276
93 -0.298815 -0.255225 -0.209487 -0.376593 0.260739 -0.021418 -0.156436 -0.037236 -0.190130 -0.169524 -0.059744 -0.102583 -0.227698 -0.228157 -0.093443 -0.298318 0.214624 0.113055 -0.235206 0.163817 0.482387 -0.217872 0.222263 0.297373 -0.621667 -0.057088 -0.248144 -0.032731 -0.255881 -0.450981 -0.006698 0.009926 -0.305808 -0.000760 -0.118520 -0.087676 0.469505 -0.054448 0.271074 0.070790 -0.110429 0.307773 -0.124310 -0.244624 -0.166657 -0.115332 -0.118140 0.040161 0.058039 0.010051 -0.015773 0.299024 0.565317 0.534919 -0.042005 -0.356912 -0.771763 0.068781 -0.199521 0.243099 0.041987 -0.598637 -0.066057 -0.120478 -0.146436 0.027903 -0.070503 -0.328883 -0.465436 -0.061220 0.307281 0.391617 0.469130 -0.197039 -0.044775 0.158036 0.179597 0.286574 0.283297 0.071689 0.235639 0.093148 0.282735 -0.127021 -0.269243 -0.443711 -0.252705 -0.012685 0.110354 0.433882 0.256397 -0.131860 0.310246 -0.468996 0.319975 0.464451 -0.199005 -0.628684 -0.121127 -0.064682 -0.382264 -0.540981 0.148612 0.156841 0.488805 0.056459 0.159766 -0.028857 -0.089596 -0.333316 -0.044732 -0.118059 -0.213733 0.179861 -0.033148 0.163516 -0.420165 -0.083640 -0.246087 -0.443343 -0.376072 -0.304989 0.593529 0.280315 -0.065919 -0.032285 -0.193983 -0.019173
278 0.175891 0.249704 -0.100346 0.199313 0.079179 0.229565 0.069359 -0.163403 -0.102836 0.232481 0.137320 -0.226344 0.350245 -0.339527 -0.354671 -0.174013 0.047895 0.361830 0.089276 0.039082 0.098138 -0.008003 0.288168 0.112479 0.320358 0.098613 -0.159448 0.145195 -0.378601 -0.176725 -0.084749 0.026358 0.051062 -0.232325 -0.078266 -0.173170 -0.354417 -0.088082 0.242998 0.171962 -0.094479 0.211934 -0.006888 0.025653 -0.311445 -0.110252 -0.324110 0.138635 0.392337 0.298565 0.184974 -0.070727 0.492624 0.276165 -0.011049 -0.042064 -0.311218 -0.061418 0.148663 0.054572 -0.109478 -0.028489 -0.250162 -0.222851 -0.502888 0.251858 0.203940 0.164205 -0.428189 0.029525 0.229140 0.266759 0.505975 -0.159506 0.050139 -0.339660 0.310947 0.327163 0.205626 -0.044770 0.231582 -0.157848 0.090274 0.470773 0.265592 0.014892 0.241659 -0.398018 0.021361 -0.086034 0.430486 -0.100365 0.338221 -0.247772 -0.090865 -0.081531 -0.411661 -0.486885 -0.070997 -0.148253 -0.298939 0.143664 -0.068643 -0.063344 0.229411 0.112473 0.507733 0.336769 0.138941 0.056705 -0.211050 -0.008499 -0.102310 0.230010 -0.131611 -0.187209 -0.168702 -0.036071 -0.056821 0.024713 -0.180484 0.156161 -0.179728 -0.337029 0.131828 -0.041583 -0.336877 -0.129972
241 0.166927 0.238400 -0.121922 0.179032 0.073952 0.200873 0.054960 -0.161862 -0.074406 0.234465 0.123706 -0.210393 0.352905 -0.331174 -0.348418 -0.155555 0.049753 0.346155 0.106273 0.031582 0.117495 -0.013073 0.303178 0.125234 0.325213 0.071510 -0.146464 0.161615 -0.385882 -0.200705 -0.101470 0.015846 0.024377 -0.229970 -0.103308 -0.164688 -0.355177 -0.112849 0.210243 0.167188 -0.073980 0.190669 0.011593 0.044353 -0.265170 -0.096569 -0.301250 0.162189 0.406893 0.283445 0.194016 -0.048593 0.503453 0.238736 -0.007895 -0.037202 -0.318557 -0.052218 0.114639 0.072028 -0.086845 -0.040212 -0.254034 -0.200033 -0.504088 0.235352 0.177606 0.150964 -0.445476 0.021750 0.258514 0.274161 0.493780 -0.179256 0.039683 -0.329167 0.301565 0.298208 0.172917 -0.055778 0.188861 -0.175777 0.105328 0.463615 0.267378 0.030763 0.236940 -0.330701 0.028555 -0.056048 0.434041 -0.098014 0.338169 -0.246192 -0.103793 -0.089679 -0.376737 -0.488387 -0.073588 -0.183177 -0.322668 0.140714 -0.088232 -0.035970 0.240072 0.107931 0.540380 0.352049 0.152663 0.085871 -0.197486 0.008758 -0.116310 0.230891 -0.107607 -0.210764 -0.154595 -0.011370 -0.050945 0.012080 -0.138109 0.115176 -0.151746 -0.390897 0.167417 -0.027398 -0.369167 -0.131028
242 0.168865 0.253444 -0.127649 0.177285 0.039027 0.247397 0.052172 -0.120456 -0.097822 0.244346 0.147819 -0.177779 0.367257 -0.302790 -0.317470 -0.108279 0.048957 0.361372 0.078677 0.019467 0.119365 -0.054193 0.302244 0.077872 0.343841 0.042050 -0.170158 0.110790 -0.386255 -0.192496 -0.070681 0.021454 0.058135 -0.234258 -0.074338 -0.193994 -0.390011 -0.033165 0.205207 0.189225 -0.064602 0.166945 0.005651 0.042130 -0.277274 -0.090759 -0.336814 0.152630 0.409094 0.316044 0.230610 -0.067964 0.488612 0.268496 -0.004512 -0.030611 -0.296724 -0.057419 0.104882 0.069356 -0.108434 -0.043159 -0.226835 -0.203039 -0.507302 0.250916 0.221018 0.160735 -0.432813 0.075507 0.222112 0.298522 0.446650 -0.147020 0.016086 -0.302929 0.313591 0.302042 0.176628 -0.059369 0.208114 -0.158001 0.123205 0.455799 0.227950 0.020942 0.244457 -0.354344 0.019377 -0.033030 0.415020 -0.123587 0.346459 -0.239719 -0.079233 -0.017132 -0.411509 -0.499103 -0.093143 -0.191819 -0.324139 0.158824 -0.106084 0.017056 0.257579 0.064817 0.495316 0.326617 0.176682 0.041571 -0.183574 0.009896 -0.123318 0.160204 -0.094128 -0.197458 -0.174798 0.001132 -0.082305 0.021799 -0.108676 0.128073 -0.160364 -0.328464 0.126982 -0.040701 -0.357856 -0.112351
202 0.140497 0.229692 -0.146391 0.133972 0.066413 0.265847 0.066288 -0.119444 -0.116327 0.240654 0.165280 -0.134046 0.395652 -0.307542 -0.329165 -0.091143 0.050217 0.362576 0.116447 0.029099 0.131918 -0.074278 0.336774 0.075312 0.361157 0.045544 -0.180202 0.101925 -0.384042 -0.187048 -0.080219 0.024382 0.062843 -0.245712 -0.086069 -0.211633 -0.418500 -0.029951 0.191490 0.196292 -0.061502 0.177544 -0.003189 0.056775 -0.249725 -0.049189 -0.352200 0.152812 0.452337 0.297639 0.259342 -0.081783 0.507914 0.297894 0.002166 -0.012298 -0.293964 -0.048383 0.068455 0.095338 -0.118144 -0.025910 -0.234665 -0.184378 -0.526381 0.257062 0.265698 0.148892 -0.420226 0.113612 0.240114 0.334103 0.449012 -0.162053 0.014943 -0.306289 0.325450 0.276230 0.149313 -0.080629 0.164536 -0.193382 0.142687 0.473798 0.220945 0.043583 0.237682 -0.359403 0.035102 -0.014500 0.399595 -0.137314 0.372035 -0.244890 -0.064204 -0.014471 -0.378545 -0.504607 -0.104460 -0.254390 -0.316454 0.168573 -0.146416 0.058376 0.272031 0.070055 0.515268 0.344839 0.187582 0.044715 -0.181600 -0.008770 -0.142355 0.124265 -0.100340 -0.211942 -0.160331 -0.013027 -0.103511 0.007180 -0.073855 0.080093 -0.186137 -0.341258 0.148056 -0.033643 -0.389221 -0.096375
135 0.166108 0.225531 -0.129717 0.150461 0.086905 0.220408 0.058878 -0.130158 -0.110372 0.232885 0.155526 -0.209055 0.337013 -0.336247 -0.345928 -0.170493 0.046588 0.341531 0.088917 0.023149 0.112326 -0.018269 0.309855 0.140109 0.328712 0.099286 -0.188934 0.140067 -0.384473 -0.191332 -0.087163 0.032663 0.056023 -0.216232 -0.110109 -0.163344 -0.378992 -0.084091 0.220374 0.171134 -0.069756 0.244081 -0.021604 0.055487 -0.274550 -0.076769 -0.327740 0.135594 0.411348 0.270291 0.201378 -0.061612 0.516310 0.273001 -0.012120 -0.020534 -0.294872 -0.060189 0.133530 0.042546 -0.102193 -0.001097 -0.285357 -0.188036 -0.512716 0.254519 0.210386 0.169726 -0.413397 0.047347 0.221275 0.260203 0.481475 -0.166575 0.025948 -0.331932 0.302181 0.297938 0.191384 -0.056059 0.207080 -0.189057 0.084808 0.455916 0.257657 0.031700 0.208733 -0.365982 0.034289 -0.056467 0.411884 -0.079368 0.302412 -0.259902 -0.094772 -0.080678 -0.370119 -0.517889 -0.066190 -0.185642 -0.315912 0.140140 -0.088192 -0.050928 0.281641 0.088741 0.494465 0.357773 0.138731 0.063175 -0.196178 -0.041849 -0.092877 0.202903 -0.121447 -0.206324 -0.144708 -0.029117 -0.075639 0.033110 -0.153860 0.119924 -0.192448 -0.333323 0.131207 0.006920 -0.372429 -0.108642
91 -0.412334 -0.010013 -0.338904 0.164870 0.316947 0.591935 -0.272039 -0.616709 0.185746 0.428555 0.108676 -0.358996 -0.132661 0.022050 -0.154658 -0.207918 -0.161149 0.154927 -0.290534 0.040891 0.023565 0.249466 0.370345 0.673315 -0.390410 0.195243 -0.007379 -0.393506 -0.444428 -0.536170 0.260771 -0.290283 0.439906 0.153173 0.022320 -0.219734 -0.348857 -0.097882 -0.290089 0.107661 -0.422401 0.701581 -0.160070 0.092073 -0.698488 0.319006 -0.250724 0.216528 0.504262 0.490950 -0.306496 -0.098656 -0.031787 0.373476 -0.221419 -0.662841 -0.467754 0.162349 -0.134136 0.057441 0.104457 -0.544419 0.151287 -0.102880 -0.573231 -0.046375 -0.426485 -0.350337 -0.444889 -0.383185 0.051290 0.385364 0.064977 0.347958 0.016162 0.225238 0.246339 0.078826 0.511777 0.046422 0.192578 0.274162 0.062824 0.782081 -0.452788 -0.413721 -0.336806 -0.266554 -0.009583 -0.033088 0.063008 -0.185918 -0.023767 -0.264480 0.120611 0.221140 -0.860016 -0.915332 0.073600 0.327177 0.139533 0.629961 -0.443368 0.178295 -0.352919 0.120396 0.567019 -0.147157 0.336420 -0.764131 -0.383327 0.001070 0.035713 0.678220 0.107979 0.259441 0.453964 -0.202668 0.069746 0.512810 -0.202069 -0.087836 -0.025044 0.112903 0.289869 0.123448 -0.574589 0.378749
161 -0.525688 -0.038724 -0.189765 0.030556 0.076227 -0.123360 -0.289860 -0.075139 -0.060018 0.196818 -0.269575 -0.116297 0.072847 -0.368975 -0.138696 -0.259422 -0.105121 0.178710 -0.033157 -0.043349 0.274601 0.209450 0.079261 0.079316 -0.252372 -0.064014 0.614195 -0.309722 0.157698 -0.045846 0.289570 -0.331150 -0.125263 -0.401931 0.075398 0.016248 -0.336991 -0.105713 -0.207165 0.086299 0.224280 0.353288 0.224913 -0.014552 -0.395222 0.281335 -0.129990 -0.154060 0.436442 0.335069 -0.431101 -0.167442 0.157762 0.426069 -0.297056 -0.454049 -0.480731 0.036114 0.030896 0.331644 0.157783 -0.582354 -0.308726 -0.171218 -0.134974 -0.137804 -0.495836 -0.200801 -0.250455 -0.328581 0.158438 0.508580 0.274141 -0.089555 0.020864 0.096966 0.375502 0.469661 0.025856 -0.518314 -0.074860 -0.035215 0.449103 0.168855 0.009007 0.315009 0.325690 -0.004024 -0.098333 0.228863 0.325494 -0.279416 -0.246570 -0.039353 -0.107384 0.141230 0.035508 -0.438334 0.226001 -0.072479 -0.363691 0.090253 0.096166 0.244919 0.097641 0.068778 0.365416 -0.546496 0.261522 -0.610421 -0.048622 0.050660 -0.288705 0.410612 0.447176 -0.117968 -0.121408 0.552088 -0.241891 -0.237146 -0.131495 -0.226271 -0.165712 -0.716886 -0.164104 0.125332 -0.299031 -0.239008
108 0.156144 0.234305 -0.121773 0.190206 0.071282 0.260780 0.093811 -0.137784 -0.097482 0.226158 0.155603 -0.163645 0.385877 -0.278471 -0.339174 -0.061451 0.032755 0.335325 0.091322 0.079923 0.087756 -0.050818 0.361706 0.135245 0.313911 0.108084 -0.143737 0.099323 -0.420480 -0.205479 -0.065850 -0.029033 0.066041 -0.291311 -0.117287 -0.194179 -0.352645 -0.040360 0.246275 0.196866 -0.091020 0.122275 0.028825 0.083328 -0.198390 -0.076253 -0.359086 0.165991 0.430552 0.285025 0.243742 -0.054108 0.453700 0.246462 0.044475 -0.036876 -0.279759 -0.004750 0.090541 0.080475 -0.130612 -0.058475 -0.220704 -0.187961 -0.489967 0.249349 0.208097 0.115777 -0.445408 0.098661 0.266515 0.356906 0.423610 -0.129690 -0.002623 -0.309986 0.331787 0.256914 0.107235 -0.092642 0.179168 -0.160423 0.161910 0.486601 0.239208 0.033949 0.200959 -0.388457 0.028737 -0.046200 0.398112 -0.084672 0.443571 -0.209375 -0.056216 -0.034149 -0.377443 -0.499680 -0.146825 -0.207249 -0.272387 0.170706 -0.114008 0.065488 0.201753 0.112653 0.558572 0.370342 0.198659 0.064731 -0.204407 0.019685 -0.112574 0.151009 -0.138323 -0.173977 -0.194789 -0.025747 -0.077809 0.004966 -0.107813 0.050718 -0.184725 -0.312289 0.178233 -0.030191 -0.366006 -0.086124
274 -0.293204 -0.206332 -0.217316 -0.326244 0.324212 0.001786 -0.164022 -0.071627 -0.150946 -0.144392 -0.077034 -0.127498 -0.194131 -0.227337 -0.116632 -0.272899 0.204040 0.127343 -0.260588 0.187312 0.526611 -0.205497 0.228236 0.349119 -0.634759 -0.045512 -0.263684 -0.029994 -0.296285 -0.523078 0.005178 -0.024103 -0.296989 -0.016366 -0.133567 -0.103689 0.447664 -0.049765 0.248917 0.098507 -0.140047 0.337677 -0.106519 -0.274865 -0.205754 -0.105121 -0.120917 0.094629 0.089940 0.039925 -0.027551 0.293656 0.538304 0.540632 -0.025205 -0.413644 -0.770368 0.066342 -0.207533 0.242160 0.010626 -0.606260 -0.034548 -0.145481 -0.185905 0.014256 -0.070289 -0.333783 -0.454139 -0.068864 0.319172 0.399580 0.448624 -0.165903 -0.037594 0.169397 0.172142 0.290857 0.309438 0.102078 0.238927 0.152359 0.272542 -0.086486 -0.267391 -0.472935 -0.263502 -0.011971 0.120006 0.412967 0.236359 -0.148967 0.310884 -0.470911 0.308998 0.457165 -0.241830 -0.630107 -0.133992 -0.020294 -0.360533 -0.456957 0.123342 0.153728 0.408725 0.046523 0.165203 -0.041778 -0.092995 -0.361327 -0.047526 -0.069641 -0.173052 0.239339 -0.021881 0.198672 -0.396934 -0.096708 -0.218936 -0.385136 -0.338159 -0.305719 0.615072 0.293361 -0.005736 -0.043381 -0.208277 0.010752
252 0.144103 0.241880 -0.096737 0.197470 0.081506 0.295392 0.142298 -0.177294 -0.114428 0.202260 0.139443 -0.138070 0.366755 -0.241002 -0.351366 0.011300 0.069632 0.344178 0.124643 0.099047 0.050839 -0.078775 0.435094 0.142585 0.294582 0.136986 -0.126333 0.066776 -0.456096 -0.209688 -0.133835 -0.075060 0.060099 -0.296725 -0.189692 -0.246671 -0.309727 -0.048890 0.317040 0.176741 -0.101112 0.030476 0.052528 0.157773 -0.088904 -0.010585 -0.385700 0.149929 0.459071 0.209230 0.321469 -0.087833 0.472749 0.273914 0.162214 -0.021437 -0.281463 0.025503 0.031171 0.092390 -0.076266 -0.083376 -0.227562 -0.128025 -0.417857 0.267284 0.164345 0.131097 -0.437516 0.077858 0.292783 0.402202 0.420957 -0.097322 0.011872 -0.337037 0.375347 0.236829 -0.000214 -0.145141 0.136151 -0.229463 0.197379 0.467403 0.247863 0.079144 0.180025 -0.468422 0.032051 -0.010763 0.361717 -0.065363 0.525801 -0.185013 -0.010317 -0.079056 -0.325438 -0.533937 -0.180771 -0.223703 -0.216921 0.165010 -0.127339 0.124467 0.256118 0.150795 0.611693 0.432318 0.275970 0.036114 -0.238686 -0.023355 -0.150031 0.112948 -0.177985 -0.235374 -0.179614 0.004437 -0.134770 -0.008856 -0.068913 -0.039643 -0.230004 -0.291683 0.205783 0.004592 -0.393545 -0.067603
298 -0.074074 0.030478 0.068822 0.015352 0.282201 0.421838 0.195904 -0.431629 -0.539088 0.293315 0.357886 -0.184459 -0.029047 -0.178139 -0.159530 -0.355384 0.197497 0.168321 0.055831 0.222029 -0.049584 0.185814 0.329121 0.208161 -0.044219 -0.099926 0.172932 -0.189147 -0.070381 0.015958 -0.061688 -0.278968 -0.079820 0.524367 0.145778 -0.398317 -0.131648 -0.374558 -0.090730 0.093740 -0.442535 0.017145 -0.168940 -0.077457 -0.417144 0.407319 -0.339557 -0.220131 0.378477 -0.195183 -0.027960 -0.183168 0.364794 0.450514 0.036965 0.126171 -0.454379 -0.340137 -0.208822 0.310967 0.688496 -0.555917 -0.300494 0.213949 -0.002069 -0.261551 -0.030717 -0.330181 -0.004996 -0.377327 0.222568 0.181278 -0.022353 -0.093701 0.245288 0.032116 0.148503 0.213394 0.428664 0.285837 -0.325810 -0.229525 -0.219737 -0.147807 0.022415 -0.176689 -0.376357 -0.130544 -0.046876 -0.193323 0.147198 -0.297765 0.157113 -0.137681 0.084882 -0.184717 -0.581364 -0.344475 0.167908 -0.071401 -0.376445 0.260630 -0.055341 0.231589 0.686606 0.066338 0.251335 -0.409257 0.136608 -0.721021 -0.010270 -0.553276 -0.221923 0.338291 0.363951 -0.064475 -0.001678 -0.148215 -0.106252 -0.388748 -0.454261 -0.178393 -0.223616 -0.149372 0.245552 -0.387316 -0.250802 -0.232355
225 -0.102111 0.043016 0.068548 0.019148 0.270335 0.422090 0.218324 -0.442569 -0.506598 0.300269 0.366422 -0.198075 -0.003929 -0.202199 -0.172815 -0.357169 0.211267 0.157911 0.029756 0.247972 -0.031261 0.209486 0.351472 0.182884 -0.038569 -0.091371 0.184839 -0.182819 -0.068825 0.008155 -0.053132 -0.285712 -0.096152 0.510629 0.147878 -0.394721 -0.143602 -0.364844 -0.076828 0.108594 -0.446131 -0.002281 -0.156869 -0.110025 -0.413556 0.405697 -0.344176 -0.238181 0.388241 -0.191388 -0.020660 -0.182067 0.359631 0.427562 0.028776 0.130647 -0.459632 -0.357714 -0.205697 0.340339 0.691910 -0.567922 -0.312103 0.212501 0.027459 -0.283705 -0.051654 -0.315074 -0.007503 -0.363346 0.236930 0.176939 0.001832 -0.101703 0.268511 0.021601 0.142168 0.226941 0.438462 0.286436 -0.331615 -0.228439 -0.207061 -0.174414 0.052905 -0.169178 -0.364556 -0.128829 -0.044828 -0.183127 0.156284 -0.317489 0.186763 -0.107638 0.075860 -0.198092 -0.600464 -0.336644 0.181599 -0.060075 -0.373561 0.240069 -0.054557 0.235262 0.681589 0.052897 0.250764 -0.399233 0.151330 -0.739193 -0.007173 -0.548143 -0.217776 0.351529 0.358973 -0.056824 -0.022802 -0.136059 -0.106801 -0.399415 -0.462105 -0.158672 -0.240698 -0.173744 0.241858 -0.408944 -0.234391 -0.248607
132 -0.522566 -0.048007 -0.195875 0.013096 0.080819 -0.107100 -0.300406 -0.071742 -0.078641 0.195612 -0.261635 -0.114551 0.049085 -0.354127 -0.126070 -0.259217 -0.112444 0.171244 -0.027234 -0.063480 0.255823 0.202789 0.051276 0.103667 -0.244690 -0.038142 0.608697 -0.315388 0.170994 -0.033615 0.286731 -0.327546 -0.114460 -0.382475 0.075771 0.012989 -0.325440 -0.115595 -0.205078 0.071254 0.223209 0.367972 0.206204 0.010703 -0.392567 0.290575 -0.137999 -0.137107 0.428552 0.322357 -0.433725 -0.168141 0.151771 0.444095 -0.295731 -0.457047 -0.486159 0.041370 0.021394 0.306115 0.157576 -0.565680 -0.315164 -0.163254 -0.143226 -0.120132 -0.495777 -0.196634 -0.232450 -0.327216 0.145956 0.491873 0.264140 -0.071014 0.011585 0.098248 0.372713 0.464398 0.026749 -0.513212 -0.068810 -0.040137 0.422039 0.182489 -0.020943 0.302651 0.314189 -0.018687 -0.102153 0.224535 0.322736 -0.277254 -0.264021 -0.049932 -0.092504 0.139771 0.034103 -0.446789 0.222828 -0.077570 -0.350295 0.085207 0.082247 0.233642 0.102272 0.071659 0.355038 -0.553212 0.240861 -0.598652 -0.046489 0.034899 -0.277992 0.409730 0.442241 -0.111077 -0.105263 0.526998 -0.249680 -0.220047 -0.136017 -0.230864 -0.156584 -0.680035 -0.170595 0.142725 -0.315261 -0.223148
183 -0.300990 -0.198022 -0.202321 -0.317063 0.288987 0.000923 -0.136413 -0.043402 -0.147444 -0.144950 -0.072525 -0.110487 -0.191315 -0.230553 -0.112165 -0.253642 0.180306 0.124210 -0.241436 0.178931 0.497273 -0.190147 0.225348 0.312520 -0.615108 -0.049996 -0.246470 -0.013902 -0.258054 -0.484454 0.004402 -0.023027 -0.290615 -0.034082 -0.130726 -0.087467 0.438435 -0.053745 0.258709 0.107546 -0.111630 0.319355 -0.093113 -0.268084 -0.184558 -0.107483 -0.116794 0.067153 0.074872 0.032393 -0.014693 0.283457 0.556065 0.534738 -0.028010 -0.399554 -0.764992 0.051658 -0.200017 0.249076 0.021478 -0.600828 -0.052280 -0.136577 -0.158903 0.014400 -0.067357 -0.319013 -0.456853 -0.058036 0.317674 0.395845 0.461895 -0.184202 -0.041778 0.164656 0.186143 0.300592 0.291244 0.092736 0.231352 0.122351 0.286278 -0.123232 -0.261199 -0.458477 -0.258868 -0.014205 0.113304 0.441579 0.257498 -0.144706 0.316567 -0.465163 0.306711 0.458823 -0.223659 -0.628420 -0.141564 -0.030148 -0.373921 -0.493499 0.135015 0.144432 0.443499 0.046784 0.151429 -0.054249 -0.100625 -0.363287 -0.030766 -0.082881 -0.184728 0.211940 -0.025541 0.176252 -0.426040 -0.082432 -0.247216 -0.413308 -0.361145 -0.306731 0.605452 0.303421 -0.031950 -0.064373 -0.195751 -0.001501
6 -0.545426 -0.052357 -0.201523 0.023392 0.085243 -0.122532 -0.287978 -0.063012 -0.087227 0.199758 -0.256242 -0.111828 0.053609 -0.369675 -0.129131 -0.257791 -0.104916 0.175551 -0.017439 -0.055555 0.271253 0.192640 0.060316 0.081968 -0.237246 -0.062553 0.621839 -0.315720 0.169510 -0.027713 0.277932 -0.329378 -0.119171 -0.390474 0.080611 0.011125 -0.320275 -0.114618 -0.205160 0.071328 0.227925 0.355425 0.214504 0.001061 -0.390584 0.292377 -0.137711 -0.151225 0.438601 0.325948 -0.428690 -0.170299 0.169556 0.454403 -0.287211 -0.438038 -0.484195 0.040575 0.038257 0.312307 0.169435 -0.573752 -0.329919 -0.162860 -0.143080 -0.128006 -0.487427 -0.196649 -0.239227 -0.335387 0.158200 0.507340 0.272167 -0.082717 0.018922 0.103846 0.391286 0.499354 0.029637 -0.528537 -0.082741 -0.050845 0.444180 0.173786 -0.004048 0.312006 0.329398 -0.009557 -0.108164 0.236224 0.333304 -0.285253 -0.260050 -0.050970 -0.099577 0.138295 0.044321 -0.447458 0.221967 -0.088731 -0.373557 0.074707 0.097356 0.244231 0.128935 0.081004 0.358147 -0.565732 0.256645 -0.624228 -0.036591 0.032947 -0.299435 0.406448 0.449072 -0.126634 -0.123737 0.546671 -0.258637 -0.246689 -0.138213 -0.237796 -0.160852 -0.727575 -0.177685 0.146005 -0.303446 -0.248821
3 -0.523088 -0.055107 -0.189489 0.015300 0.089911 -0.115358 -0.282903 -0.075208 -0.086290 0.199448 -0.248850 -0.131959 0.053116 -0.376601 -0.136782 -0.271313 -0.102706 0.167506 -0.026595 -0.058131 0.265020 0.199200 0.063832 0.096331 -0.239221 -0.051600 0.600849 -0.306477 0.165443 -0.034952 0.274322 -0.321529 -0.128224 -0.382346 0.071394 0.015712 -0.323398 -0.106055 -0.200795 0.074375 0.214947 0.357467 0.206585 0.016920 -0.405520 0.278857 -0.127262 -0.149430 0.430339 0.332385 -0.431344 -0.166675 0.150483 0.440510 -0.306299 -0.445558 -0.484738 0.043098 0.032160 0.316389 0.155210 -0.569760 -0.319829 -0.158956 -0.149481 -0.130124 -0.496446 -0.193718 -0.235977 -0.334641 0.158322 0.498514 0.262044 -0.079792 0.018219 0.096180 0.384426 0.471397 0.033768 -0.518065 -0.064704 -0.041300 0.441973 0.171909 0.004400 0.298274 0.318713 0.001588 -0.107373 0.223404 0.322152 -0.268659 -0.256621 -0.043909 -0.106295 0.151754 0.023503 -0.438723 0.233839 -0.075450 -0.362068 0.078751 0.096687 0.240666 0.118980 0.077594 0.355039 -0.540717 0.256207 -0.603626 -0.035516 0.036007 -0.288262 0.409029 0.446592 -0.112042 -0.111197 0.539214 -0.236239 -0.229028 -0.144518 -0.237104 -0.167564 -0.706269 -0.167318 0.141998 -0.304691 -0.234042
33 -0.297761 -0.212811 -0.222009 -0.341970 0.321677 0.013427 -0.129187 -0.030947 -0.151480 -0.130084 -0.079091 -0.128305 -0.185325 -0.239897 -0.121256 -0.252604 0.153818 0.130950 -0.259226 0.173928 0.531317 -0.192088 0.243104 0.321744 -0.607188 -0.049339 -0.252984 0.027431 -0.261187 -0.482122 0.004248 -0.027288 -0.292216 -0.031622 -0.164037 -0.082278 0.432989 -0.062573 0.219629 0.108603 -0.095456 0.359152 -0.071805 -0.276375 -0.176066 -0.093540 -0.120883 0.095212 0.071234 0.020637 -0.008536 0.298747 0.556289 0.555777 -0.056141 -0.408128 -0.749470 0.043768 -0.169088 0.242941 0.005145 -0.582992 -0.059030 -0.123745 -0.173551 0.016438 -0.046271 -0.309145 -0.431553 -0.068990 0.343902 0.392836 0.451658 -0.198545 -0.047805 0.166871 0.171449 0.295654 0.316564 0.102424 0.219754 0.127985 0.275191 -0.138358 -0.248805 -0.493755 -0.276865 0.006795 0.114414 0.440208 0.272501 -0.152738 0.313146 -0.462959 0.326191 0.461372 -0.231151 -0.637239 -0.144462 -0.029358 -0.389989 -0.477006 0.100574 0.144133 0.432596 0.049926 0.129807 -0.075658 -0.129027 -0.382083 -0.012877 -0.096289 -0.150589 0.235848 -0.020529 0.183049 -0.404873 -0.091858 -0.236696 -0.387622 -0.345589 -0.290653 0.608254 0.326604 -0.011274 -0.061512 -0.218406 -0.000978
250 0.162231 0.255393 -0.118174 0.185168 0.051989 0.265309 0.063155 -0.144097 -0.108873 0.239761 0.141418 -0.178877 0.351625 -0.291279 -0.338216 -0.114173 0.050830 0.370284 0.099813 0.021472 0.095186 -0.051536 0.296036 0.095503 0.337056 0.062494 -0.168346 0.105887 -0.383303 -0.183692 -0.085970 0.022605 0.072508 -0.226987 -0.096863 -0.207856 -0.393086 -0.045384 0.227711 0.172878 -0.079122 0.171520 -0.004190 0.052298 -0.276850 -0.076772 -0.345743 0.159610 0.408159 0.305495 0.225530 -0.082984 0.486528 0.281084 0.016902 -0.043575 -0.320266 -0.040947 0.088030 0.060615 -0.103056 -0.037173 -0.235631 -0.196923 -0.504233 0.266455 0.223477 0.171921 -0.428818 0.068929 0.226386 0.320309 0.471900 -0.131443 0.012794 -0.320230 0.333763 0.309534 0.174157 -0.071758 0.208570 -0.179438 0.099250 0.472748 0.233747 0.027995 0.241663 -0.378798 0.015577 -0.042882 0.396812 -0.116539 0.362624 -0.246982 -0.070692 -0.037861 -0.394919 -0.501244 -0.109734 -0.187204 -0.291152 0.161981 -0.114846 0.015253 0.247821 0.093884 0.520069 0.319728 0.168196 0.040434 -0.194226 0.003692 -0.141280 0.171315 -0.115116 -0.204294 -0.163461 -0.038182 -0.088862 0.032249 -0.108114 0.108646 -0.165523 -0.318566 0.119009 -0.038170 -0.372466 -0.102092
112 -0.550148 -0.051201 -0.193063 0.010709 0.085076 -0.112323 -0.275439 -0.058571 -0.097618 0.195258 -0.252827 -0.126236 0.043026 -0.379990 -0.131116 -0.251194 -0.097826 0.187703 -0.019972 -0.044784 0.274886 0.190071 0.060290 0.061335 -0.238590 -0.059444 0.617930 -0.314698 0.175429 -0.038157 0.275718 -0.316675 -0.123675 -0.402888 0.084058 0.021811 -0.307718 -0.098796 -0.191920 0.067101 0.234347 0.341149 0.203485 0.011413 -0.368888 0.279040 -0.130110 -0.147550 0.438158 0.310983 -0.419548 -0.173890 0.183122 0.451348 -0.271053 -0.412905 -0.464435 0.041212 0.051497 0.297972 0.165217 -0.569618 -0.330893 -0.148055 -0.129534 -0.118891 -0.471983 -0.178547 -0.226047 -0.330571 0.145167 0.498992 0.283417 -0.092917 0.015309 0.097465 0.402322 0.504558 0.032223 -0.529972 -0.067718 -0.083179 0.449256 0.159781 -0.000850 0.314742 0.328197 -0.013365 -0.108002 0.239093 0.326109 -0.273155 -0.258951 -0.051068 -0.101066 0.142366 0.047063 -0.423106 0.212568 -0.074287 -0.375719 0.062797 0.116658 0.231512 0.148389 0.078424 0.345124 -0.556787 0.255760 -0.620611 -0.029598 0.016435 -0.301468 0.379893 0.428433 -0.137566 -0.129820 0.554095 -0.269376 -0.246801 -0.148879 -0.224646 -0.168440 -0.715319 -0.188706 0.144563 -0.285018 -0.243503
157 -0.399132 0.000363 -0.345621 0.186526 0.233807 0.580502 -0.322670 -0.596227 0.159866 0.449471 0.083236 -0.370056 -0.087923 -0.000161 -0.150192 -0.151664 -0.219778 0.222486 -0.219208 0.039187 -0.059758 0.262926 0.367413 0.760939 -0.398986 0.194110 0.004917 -0.311955 -0.452929 -0.471060 0.300986 -0.310407 0.462403 0.249127 -0.067537 -0.214785 -0.435359 -0.099146 -0.309898 0.114935 -0.386453 0.697878 -0.151889 0.107045 -0.728932 0.288320 -0.300406 0.256150 0.494052 0.539427 -0.284107 -0.199195 -0.149794 0.338805 -0.275800 -0.569831 -0.512680 0.190162 -0.196669 0.075302 0.163507 -0.555884 0.150983 -0.189645 -0.552566 0.029687 -0.491016 -0.424208 -0.436197 -0.331989 0.078161 0.448282 0.060909 0.389576 -0.056932 0.264768 0.283166 0.090057 0.497123 -0.038635 0.202440 0.277227 0.146851 0.787700 -0.432966 -0.393901 -0.300684 -0.227913 -0.034418 -0.110290 0.015612 -0.173981 -0.025213 -0.235215 0.104311 0.280376 -0.821214 -0.908054 0.043260 0.299809 0.236063 0.570440 -0.457243 0.394810 -0.331471 0.124384 0.568124 -0.151814 0.308922 -0.650257 -0.303505 0.037772 -0.004728 0.713833 0.151003 0.235211 0.394602 -0.214317 0.067249 0.469519 -0.119080 -0.189239 -0.005857 0.131124 0.316103 0.119363 -0.652512 0.342553
82 -0.324399 -0.224833 -0.226801 -0.337379 0.301814 0.016911 -0.135994 -0.075165 -0.132657 -0.134979 -0.075821 -0.117584 -0.175925 -0.223225 -0.119516 -0.256950 0.179597 0.122475 -0.255595 0.193548 0.517111 -0.189264 0.247445 0.323465 -0.617551 -0.061302 -0.238147 -0.010681 -0.289048 -0.505418 0.012835 -0.040776 -0.287524 -0.033915 -0.141177 -0.092377 0.436668 -0.043472 0.243535 0.110983 -0.119990 0.325956 -0.088107 -0.283134 -0.194516 -0.116112 -0.101801 0.094011 0.063188 0.030292 -0.020533 0.286304 0.522115 0.519396 -0.040762 -0.418537 -0.743076 0.054954 -0.207236 0.261205 0.011731 -0.603303 -0.014810 -0.127759 -0.169491 -0.000517 -0.070426 -0.323040 -0.446922 -0.069813 0.315533 0.386198 0.427342 -0.166229 -0.036927 0.169454 0.151075 0.276716 0.296964 0.105248 0.216416 0.152266 0.281154 -0.120071 -0.246078 -0.476937 -0.263258 0.015595 0.115834 0.417377 0.238654 -0.154271 0.320247 -0.432563 0.311854 0.443815 -0.240058 -0.623210 -0.137262 -0.008495 -0.352225 -0.453055 0.123359 0.158340 0.386500 0.046035 0.148980 -0.057017 -0.097826 -0.361164 -0.027723 -0.050890 -0.155442 0.243425 -0.013112 0.185208 -0.398494 -0.102838 -0.215478 -0.380579 -0.336949 -0.293724 0.606657 0.304631 -0.001915 -0.080171 -0.202312 0.012345
47 0.167837 0.225501 -0.114010 0.169654 0.073277 0.266191 0.091072 -0.153886 -0.110734 0.237020 0.147327 -0.187308 0.363307 -0.302460 -0.347202 -0.098242 0.039468 0.330110 0.090522 0.082232 0.107118 -0.044153 0.316406 0.144486 0.304006 0.116384 -0.148010 0.104650 -0.402933 -0.209747 -0.065516 -0.020225 0.078919 -0.255571 -0.096746 -0.180593 -0.352200 -0.040230 0.226503 0.179695 -0.117869 0.194664 0.007926 0.077771 -0.226288 -0.084064 -0.363812 0.160330 0.428856 0.296784 0.234312 -0.044625 0.456232 0.253551 0.030495 -0.039334 -0.288972 -0.007895 0.115055 0.043519 -0.143034 -0.031961 -0.239419 -0.204549 -0.522030 0.258331 0.208627 0.140282 -0.439614 0.080402 0.245152 0.320729 0.452658 -0.133377 0.008304 -0.325907 0.325736 0.273699 0.162594 -0.062131 0.202780 -0.169205 0.129569 0.494116 0.226729 0.015701 0.182091 -0.391541 0.041726 -0.061993 0.408811 -0.085613 0.400696 -0.235710 -0.062374 -0.045061 -0.408407 -0.505446 -0.123238 -0.197487 -0.289497 0.182706 -0.127466 0.005756 0.200045 0.104264 0.527941 0.372633 0.152787 0.066114 -0.196051 -0.016799 -0.095314 0.181352 -0.134766 -0.169571 -0.169940 -0.049865 -0.051654 0.036972 -0.134267 0.088876 -0.193553 -0.313457 0.170722 -0.041325 -0.370875 -0.072366
281 -0.339168 -0.321291 -0.194882 -0.339379 0.179917 -0.067412 -0.257451 -0.179945 -0.175628 -0.243250 0.012537 -0.031970 -0.304864 -0.119547 -0.026483 -0.330037 0.335568 0.066826 -0.207821 0.158932 0.353781 -0.243364 0.202668 0.291704 -0.719397 -0.054307 -0.207645 -0.199004 -0.365441 -0.491463 -0.009530 0.062617 -0.264380 0.058527 0.015405 -0.148468 0.484781 -0.031852 0.342570 -0.002757 -0.231743 0.218920 -0.224549 -0.191993 -0.193198 -0.130961 -0.094274 0.001008 0.028296 0.031193 -0.126181 0.301579 0.490741 0.428374 -0.032199 -0.313760 -0.770228 0.146912 -0.256735 0.266432 0.112433 -0.682714 0.004190 -0.104098 -0.141714 -0.011564 -0.129805 -0.414775 -0.527519 -0.034355 0.179702 0.425886 0.443966 -0.086427 -0.054457 0.189287 0.158379 0.209557 0.262270 0.050527 0.273680 0.101936 0.248709 0.055185 -0.335514 -0.326934 -0.187172 -0.053478 0.113037 0.376860 0.125833 -0.122298 0.261581 -0.475417 0.311011 0.452835 -0.179523 -0.591705 -0.057941 -0.076055 -0.265379 -0.501487 0.145760 0.200121 0.473541 0.056403 0.287630 0.057336 0.107245 -0.297222 -0.167376 -0.044420 -0.273461 0.114794 -0.082806 0.173314 -0.317380 -0.125260 -0.237506 -0.453748 -0.349267 -0.294430 0.569367 0.126407 -0.096007 0.017382 -0.198651 0.001770
25 0.187913 0.250165 -0.155322 0.183973 0.106855 0.200268 0.035644 -0.151625 -0.102821 0.237335 0.140083 -0.281904 0.317424 -0.375232 -0.372859 -0.260322 0.050206 0.385043 0.107679 -0.014895 0.090050 0.027543 0.307653 0.138708 0.359562 0.096233 -0.216744 0.205813 -0.371696 -0.178311 -0.141718 0.087967 0.031847 -0.175366 -0.142358 -0.150745 -0.380991 -0.147666 0.235307 0.147763 -0.055895 0.273236 -0.048495 0.013462 -0.344069 -0.093464 -0.283344 0.131154 0.364445 0.254650 0.150757 -0.078199 0.599487 0.278123 -0.037721 -0.022708 -0.328330 -0.120549 0.156214 0.026443 -0.059284 0.026696 -0.321730 -0.191980 -0.492616 0.262477 0.182435 0.230406 -0.415819 -0.030108 0.229586 0.173375 0.559550 -0.188555 0.063640 -0.388791 0.289070 0.345420 0.227845 -0.037240 0.241969 -0.222541 0.022982 0.416740 0.309743 0.051736 0.220495 -0.375336 -0.002513 -0.091632 0.416886 -0.047751 0.224823 -0.261477 -0.152024 -0.134299 -0.365127 -0.528147 -0.026980 -0.109764 -0.331369 0.100088 -0.028213 -0.134150 0.333913 0.111110 0.492827 0.374117 0.102963 0.091768 -0.206670 -0.051665 -0.087366 0.268253 -0.120812 -0.250292 -0.074621 -0.026048 -0.069012 0.049850 -0.189863 0.182452 -0.200006 -0.342030 0.087646 0.026807 -0.347156 -0.154710
123 -0.405555 -0.028025 -0.378563 0.138705 0.461233 0.532665 -0.248111 -0.544383 0.263551 0.277358 0.121789 -0.202644 -0.246014 0.084693 -0.126558 -0.294024 -0.118276 0.049584 -0.408510 -0.029125 0.161000 0.168383 0.364377 0.474541 -0.300129 0.172333 0.022072 -0.550834 -0.357310 -0.619861 0.161883 -0.190243 0.423991 -0.101326 0.141534 -0.238464 -0.207991 -0.120542 -0.260260 0.119332 -0.373217 0.666017 -0.167076 0.140218 -0.612172 0.297225 -0.100952 0.214706 0.505511 0.478335 -0.306911 0.076005 0.157565 0.490536 -0.126698 -0.895272 -0.435810 0.143283 -0.000701 0.054876 -0.057499 -0.531971 0.171862 0.025051 -0.648269 -0.089625 -0.343857 -0.203215 -0.500729 -0.370434 0.058235 0.343549 0.104130 0.253226 0.098034 0.129706 0.244222 0.028763 0.469128 0.067427 0.137824 0.274210 -0.031412 0.774247 -0.420854 -0.402556 -0.252865 -0.247772 0.004952 0.185599 0.134556 -0.185359 -0.051699 -0.345470 0.128433 0.135574 -0.855842 -0.915146 0.102017 0.358318 -0.027431 0.713142 -0.422268 -0.143725 -0.426955 0.140971 0.570328 -0.148281 0.356732 -0.913306 -0.479678 0.016129 0.035513 0.606851 0.077112 0.242578 0.583094 -0.204448 -0.023962 0.555640 -0.252101 0.084159 -0.014762 -0.011748 0.178104 0.163514 -0.478198 0.426720
38 -0.524824 -0.048832 -0.191421 0.012102 0.075475 -0.115993 -0.293298 -0.066369 -0.081327 0.189700 -0.246801 -0.109400 0.049596 -0.366601 -0.134635 -0.252749 -0.101824 0.183852 -0.024439 -0.050518 0.258107 0.198722 0.054321 0.093266 -0.252540 -0.045951 0.623623 -0.325033 0.170915 -0.045792 0.277338 -0.323041 -0.115926 -0.394794 0.078771 0.006909 -0.327201 -0.124340 -0.200107 0.062046 0.231325 0.363946 0.212494 0.012857 -0.381600 0.295409 -0.138414 -0.142720 0.446527 0.313588 -0.436497 -0.170673 0.166807 0.445996 -0.291156 -0.442653 -0.470775 0.043613 0.033588 0.303276 0.159826 -0.575848 -0.325641 -0.172133 -0.139797 -0.114652 -0.475384 -0.193781 -0.237926 -0.331768 0.138134 0.503521 0.274000 -0.085542 0.002218 0.104651 0.395108 0.499274 0.048060 -0.524200 -0.073178 -0.060373 0.425187 0.188543 -0.030162 0.315320 0.318464 -0.030129 -0.097409 0.232947 0.327611 -0.284945 -0.280500 -0.057534 -0.101510 0.136930 0.041501 -0.452035 0.219193 -0.080408 -0.365518 0.082245 0.093930 0.225595 0.120234 0.073896 0.358972 -0.568659 0.248942 -0.619830 -0.045211 0.024264 -0.288709 0.401545 0.431331 -0.122652 -0.120602 0.549251 -0.268078 -0.226308 -0.137326 -0.232393 -0.166488 -0.704432 -0.175698 0.153114 -0.312254 -0.226901
158 0.140602 0.241206 -0.129074 0.195266 0.061688 0.246578 0.055878 -0.156929 -0.110346 0.237356 0.154950 -0.204128 0.374472 -0.330863 -0.345993 -0.125601 0.043897 0.375326 0.092922 0.008997 0.078166 -0.038247 0.331364 0.101912 0.346787 0.049823 -0.147683 0.128457 -0.398495 -0.194340 -0.101870 0.004810 0.056579 -0.252375 -0.109477 -0.204057 -0.385727 -0.075260 0.245531 0.193340 -0.076906 0.156394 0.005492 0.050518 -0.278643 -0.092193 -0.324769 0.143579 0.394003 0.299557 0.203184 -0.074389 0.501204 0.265334 0.009084 -0.049237 -0.314330 -0.059788 0.116476 0.075692 -0.090323 -0.048509 -0.222712 -0.200896 -0.477548 0.250476 0.193892 0.160016 -0.434895 0.044597 0.228214 0.288501 0.464385 -0.139532 0.017498 -0.315879 0.312427 0.310183 0.172454 -0.072136 0.216683 -0.149608 0.114450 0.445463 0.258849 0.029231 0.238025 -0.379033 0.009321 -0.060967 0.408798 -0.097315 0.364884 -0.238809 -0.090684 -0.059907 -0.399282 -0.513417 -0.093505 -0.173512 -0.314079 0.150956 -0.078575 -0.016021 0.245397 0.091268 0.520393 0.335585 0.168882 0.056963 -0.216452 0.004156 -0.119505 0.203448 -0.110998 -0.219511 -0.154120 -0.015857 -0.076297 0.017325 -0.132897 0.130743 -0.162332 -0.334828 0.134831 -0.039560 -0.361732 -0.130058
231 -0.543618 -0.049760 -0.202948 0.014270 0.088894 -0.115039 -0.282051 -0.071136 -0.068259 0.194975 -0.259076 -0.124363 0.046646 -0.375866 -0.130800 -0.258487 -0.110572 0.177319 -0.034745 -0.059636 0.271968 0.205106 0.059022 0.081100 -0.245204 -0.043967 0.605011 -0.312596 0.166346 -0.046466 0.292450 -0.324844 -0.121567 -0.402446 0.071678 0.019977 -0.317995 -0.100718 -0.197475 0.076420 0.222126 0.359976 0.205271 0.012695 -0.399047 0.288252 -0.130035 -0.150158 0.438572 0.337488 -0.434887 -0.167596 0.162812 0.445217 -0.296886 -0.453699 -0.475728 0.048651 0.035075 0.303206 0.151935 -0.575073 -0.315818 -0.161335 -0.137084 -0.120099 -0.505258 -0.185821 -0.233446 -0.332683 0.155218 0.498248 0.284415 -0.077323 0.015671 0.101421 0.396710 0.486329 0.023688 -0.525834 -0.067663 -0.053511 0.445969 0.165610 -0.006413 0.303493 0.320554 -0.008586 -0.103661 0.237752 0.330755 -0.266882 -0.259710 -0.035584 -0.102159 0.149001 0.037903 -0.454086 0.230528 -0.069447 -0.354978 0.075051 0.098437 0.246688 0.114317 0.076037 0.355212 -0.550826 0.259877 -0.622371 -0.032349 0.032088 -0.290934 0.405980 0.445282 -0.119900 -0.105576 0.547644 -0.256296 -0.227559 -0.144493 -0.236014 -0.170742 -0.692788 -0.179154 0.142166 -0.300380 -0.231827
116 0.166876 0.218269 -0.113987 0.168239 0.088045 0.225226 0.050037 -0.160767 -0.116747 0.240767 0.122781 -0.219907 0.323199 -0.318359 -0.347479 -0.175450 0.043774 0.351502 0.103726 0.023627 0.118461 -0.021842 0.244476 0.140707 0.320819 0.102262 -0.166321 0.150804 -0.370623 -0.178546 -0.088394 0.039328 0.055926 -0.201478 -0.088391 -0.150332 -0.358126 -0.081514 0.213696 0.143978 -0.090866 0.241620 -0.010874 0.062214 -0.293941 -0.108075 -0.329369 0.165107 0.409573 0.299949 0.189210 -0.049134 0.494701 0.270712 -0.013669 -0.027513 -0.297256 -0.032135 0.137528 0.004280 -0.127493 0.015343 -0.283109 -0.218994 -0.553739 0.275063 0.209867 0.174148 -0.427414 0.031860 0.225968 0.275102 0.507930 -0.168017 0.027337 -0.334418 0.321001 0.314996 0.230459 -0.037867 0.234430 -0.186316 0.082562 0.506480 0.235211 0.019653 0.213084 -0.358247 0.042160 -0.072845 0.445909 -0.082143 0.291521 -0.269839 -0.105061 -0.055278 -0.393180 -0.488390 -0.071488 -0.178669 -0.331306 0.134295 -0.089308 -0.069007 0.257221 0.110908 0.511153 0.334143 0.101684 0.093740 -0.195818 -0.033393 -0.103751 0.235485 -0.113281 -0.190285 -0.134848 -0.044619 -0.045141 0.051740 -0.155373 0.125137 -0.162992 -0.344763 0.139141 -0.012562 -0.367371 -0.117518
79 -0.537101 -0.050254 -0.199880 0.011374 0.089332 -0.126939 -0.298780 -0.073643 -0.080698 0.210447 -0.266629 -0.127642 0.055284 -0.368081 -0.138023 -0.258027 -0.100437 0.173017 -0.024663 -0.048500 0.269102 0.198383 0.060418 0.083435 -0.255340 -0.053874 0.613742 -0.308194 0.167081 -0.040826 0.281312 -0.315466 -0.121263 -0.396729 0.075360 0.019708 -0.315609 -0.106161 -0.207413 0.064822 0.225071 0.360097 0.211236 0.001628 -0.387596 0.284305 -0.124928 -0.138048 0.429130 0.316725 -0.438242 -0.168907 0.151199 0.429522 -0.300970 -0.443505 -0.460335 0.046773 0.039826 0.307325 0.148592 -0.566488 -0.310950 -0.167802 -0.141952 -0.128991 -0.490886 -0.194830 -0.228595 -0.331943 0.143552 0.495108 0.267784 -0.082646 0.012904 0.107263 0.375447 0.474247 0.029483 -0.517401 -0.068774 -0.042747 0.438679 0.174978 -0.015591 0.301877 0.318908 -0.008092 -0.096209 0.229496 0.320508 -0.275030 -0.264337 -0.042965 -0.099077 0.144515 0.045450 -0.431850 0.225006 -0.071814 -0.353824 0.074293 0.093607 0.230978 0.111867 0.072661 0.347621 -0.552129 0.254226 -0.603727 -0.043097 0.041407 -0.278367 0.399027 0.436457 -0.106568 -0.114314 0.545629 -0.242946 -0.220582 -0.132331 -0.225660 -0.165158 -0.702216 -0.166960 0.143159 -0.297094 -0.234180
134 -0.548635 -0.065244 -0.216113 0.020211 0.088350 -0.120982 -0.295442 -0.067546 -0.083837 0.208001 -0.275923 -0.122725 0.053976 -0.374275 -0.143173 -0.263706 -0.102801 0.181819 -0.032905 -0.058447 0.275716 0.194449 0.057252 0.084172 -0.256888 -0.048464 0.596110 -0.311650 0.174958 -0.040279 0.286081 -0.323708 -0.128666 -0.405917 0.071344 0.013058 -0.313177 -0.114837 -0.201702 0.072012 0.235561 0.366376 0.198998 0.010119 -0.399038 0.289467 -0.131581 -0.152835 0.432417 0.334714 -0.426687 -0.175504 0.170003 0.445133 -0.299749 -0.454994 -0.492685 0.050929 0.031237 0.302931 0.155337 -0.571880 -0.321306 -0.163898 -0.140664 -0.106043 -0.503069 -0.193353 -0.236261 -0.335392 0.156129 0.501588 0.281320 -0.083675 0.011977 0.098852 0.376508 0.480261 0.015206 -0.522369 -0.070348 -0.051123 0.436534 0.165859 -0.008499 0.301364 0.309236 -0.004285 -0.104968 0.236297 0.324731 -0.268160 -0.256346 -0.039137 -0.097285 0.154820 0.033955 -0.446594 0.223090 -0.077936 -0.359667 0.066823 0.106623 0.239734 0.123089 0.066520 0.348930 -0.553125 0.239886 -0.604622 -0.038069 0.032449 -0.283470 0.399185 0.444416 -0.125028 -0.116018 0.541770 -0.248210 -0.230548 -0.132326 -0.242213 -0.165806 -0.683842 -0.177801 0.156316 -0.306836 -0.244870
262 -0.314724 -0.242883 -0.238166 -0.333655 0.301255 0.013747 -0.147708 -0.080150 -0.143107 -0.148280 -0.065847 -0.109958 -0.185978 -0.213762 -0.109215 -0.277308 0.189386 0.118092 -0.248359 0.169562 0.494305 -0.195641 0.227726 0.322876 -0.605565 -0.044819 -0.247687 -0.033571 -0.283614 -0.490389 -0.000064 -0.026950 -0.280894 -0.014212 -0.140029 -0.097830 0.438949 -0.042089 0.253363 0.099371 -0.123696 0.311261 -0.108076 -0.251994 -0.206990 -0.114096 -0.100258 0.072378 0.061386 0.048458 -0.033680 0.281099 0.518792 0.512981 -0.032289 -0.404879 -0.757154 0.063259 -0.215095 0.240655 0.014726 -0.594969 -0.025839 -0.120457 -0.171876 0.007782 -0.079247 -0.329643 -0.449548 -0.057650 0.306894 0.390509 0.430683 -0.153828 -0.034267 0.160597 0.157767 0.258037 0.268141 0.087635 0.225275 0.149130 0.273449 -0.109080 -0.239445 -0.458356 -0.252366 0.007091 0.110639 0.415096 0.224500 -0.122030 0.311623 -0.428851 0.299587 0.449093 -0.226761 -0.611868 -0.122945 -0.010221 -0.337938 -0.452326 0.127359 0.166637 0.406993 0.042943 0.152302 -0.032353 -0.083285 -0.338132 -0.037709 -0.050278 -0.174856 0.225581 -0.014951 0.178814 -0.377390 -0.111687 -0.223837 -0.383169 -0.342427 -0.303084 0.599412 0.297087 -0.025873 -0.042280 -0.195377 0.000421
286 -0.412400 0.008734 -0.312750 0.120450 0.129765 0.557772 -0.334854 -0.566328 0.172833 0.497139 -0.034571 -0.448400 -0.057704 -0.025920 -0.134400 0.001832 -0.151436 0.306918 -0.105033 0.116122 -0.128631 0.315345 0.348862 0.806283 -0.496041 0.201564 -0.012064 -0.247742 -0.493727 -0.526669 0.384916 -0.359198 0.548201 0.300196 -0.067058 -0.178643 -0.510496 0.049761 -0.253532 0.043912 -0.389721 0.712695 -0.132420 -0.005297 -0.684503 0.235182 -0.387329 0.273616 0.538773 0.593262 -0.267260 -0.260940 -0.210089 0.313163 -0.244363 -0.498668 -0.449235 0.219319 -0.247521 0.070092 0.204405 -0.607471 0.138473 -0.338659 -0.443069 0.067637 -0.520452 -0.471549 -0.371462 -0.301871 0.046205 0.572436 0.060222 0.454428 -0.098186 0.216398 0.385922 0.250125 0.572981 -0.065435 0.312743 0.255153 0.287980 0.734226 -0.506000 -0.329672 -0.282896 -0.417423 0.023782 -0.109512 0.002704 -0.204324 -0.016426 -0.180524 -0.004928 0.375630 -0.767838 -0.941645 -0.012405 0.301935 0.323049 0.347936 -0.455798 0.509295 -0.362138 0.085343 0.510188 -0.053819 0.272776 -0.554629 -0.293222 0.076574 0.033902 0.733668 0.090985 0.251996 0.272320 -0.080498 0.056495 0.466432 -0.066680 -0.249913 -0.024664 0.198999 0.276512 0.033913 -0.602514 0.324429
83 0.090998 0.218954 -0.120840 0.108255 0.019244 0.312650 0.059726 -0.127372 -0.092276 0.270692 0.189271 -0.061491 0.440122 -0.269423 -0.298443 -0.017337 0.053848 0.335441 0.097051 -0.000194 0.151531 -0.126091 0.340853 -0.000742 0.370635 -0.039998 -0.178492 0.040775 -0.389098 -0.186369 -0.052045 -0.001871 0.087724 -0.246324 -0.061040 -0.238771 -0.480894 0.045621 0.140568 0.204957 -0.076664 0.103888 -0.003183 0.034461 -0.257451 -0.036368 -0.351080 0.162515 0.499085 0.334685 0.304301 -0.111345 0.424488 0.312718 0.003383 -0.029645 -0.294437 -0.064936 -0.008060 0.154662 -0.113385 -0.072849 -0.130964 -0.174173 -0.523296 0.238293 0.289480 0.129082 -0.416861 0.176464 0.211891 0.391055 0.375528 -0.136736 -0.010136 -0.241139 0.327339 0.230644 0.145411 -0.065590 0.115315 -0.159849 0.173437 0.442279 0.185014 0.016523 0.270217 -0.323153 0.025465 0.019654 0.358349 -0.205659 0.424428 -0.245238 -0.026447 0.057973 -0.412962 -0.497648 -0.085510 -0.286880 -0.304848 0.214948 -0.213701 0.183411 0.221012 0.001491 0.481598 0.328998 0.250105 0.016736 -0.167315 0.033053 -0.150026 0.046307 -0.063291 -0.201167 -0.175738 0.026985 -0.099153 0.012480 0.024665 0.051859 -0.148536 -0.324582 0.165309 -0.070037 -0.411745 -0.081479
120 -0.571847 -0.054213 -0.220579 0.024835 0.079964 -0.134618 -0.306888 -0.076023 -0.064098 0.204587 -0.271554 -0.115688 0.065900 -0.362274 -0.130558 -0.260496 -0.105720 0.178008 -0.020839 -0.044896 0.274664 0.196658 0.063792 0.082214 -0.249529 -0.064621 0.625916 -0.313393 0.159920 -0.045193 0.288565 -0.331223 -0.115842 -0.406739 0.077158 0.010113 -0.333152 -0.112374 -0.211747 0.078989 0.226045 0.357052 0.211543 -0.001845 -0.390744 0.280922 -0.130387 -0.131740 0.436831 0.330479 -0.439999 -0.166578 0.155477 0.437443 -0.300520 -0.464257 -0.480726 0.047481 0.026363 0.321469 0.154087 -0.577431 -0.306873 -0.175763 -0.144859 -0.129293 -0.490368 -0.199102 -0.243852 -0.324947 0.154217 0.513721 0.268289 -0.081067 0.006079 0.107436 0.374276 0.478316 0.025754 -0.526025 -0.079370 -0.033972 0.445318 0.186866 -0.012145 0.302312 0.322016 0.005895 -0.100081 0.238027 0.321895 -0.290890 -0.254059 -0.045015 -0.094837 0.139971 0.037873 -0.440994 0.221250 -0.082267 -0.362730 0.086449 0.085901 0.246470 0.106313 0.072274 0.359359 -0.553839 0.261806 -0.609004 -0.046962 0.050069 -0.291107 0.406488 0.435645 -0.123218 -0.112947 0.546103 -0.248069 -0.226363 -0.123581 -0.232516 -0.147758 -0.714823 -0.163785 0.137193 -0.307580 -0.239222
199 -0.295986 -0.211963 -0.225813 -0.303700 0.297938 0.004154 -0.119883 -0.064835 -0.140251 -0.131353 -0.069652 -0.136548 -0.187217 -0.226253 -0.131050 -0.270825 0.182498 0.122855 -0.248918 0.184249 0.500611 -0.180982 0.243476 0.320483 -0.649039 -0.031348 -0.254439 -0.000675 -0.297037 -0.512067 0.025509 -0.037972 -0.299005 -0.015753 -0.138704 -0.070097 0.429502 -0.041946 0.233733 0.092205 -0.123061 0.344386 -0.100467 -0.278098 -0.207769 -0.096005 -0.107975 0.076396 0.061708 0.037749 -0.039995 0.301792 0.517658 0.515953 -0.054333 -0.420542 -0.755238 0.037861 -0.192902 0.225751 0.016132 -0.602789 -0.044195 -0.107227 -0.183636 -0.007614 -0.081526 -0.321077 -0.438359 -0.074163 0.304832 0.408921 0.447977 -0.184224 -0.031987 0.172388 0.165099 0.269331 0.302736 0.117458 0.227093 0.125273 0.286458 -0.123317 -0.234693 -0.470915 -0.277367 0.012742 0.117112 0.428146 0.253745 -0.117596 0.301731 -0.438556 0.304613 0.475113 -0.224155 -0.625875 -0.127342 -0.021252 -0.366649 -0.455269 0.128875 0.146961 0.438482 0.035470 0.123689 -0.051253 -0.100700 -0.374827 -0.019110 -0.082036 -0.137846 0.249858 -0.004057 0.188226 -0.389388 -0.080408 -0.219388 -0.375645 -0.356991 -0.289528 0.586353 0.314894 -0.005588 -0.043707 -0.214462 0.004937
45 0.081131 0.210272 -0.132880 0.049261 0.030430 0.296869 0.038070 -0.096260 -0.133607 0.268879 0.199902 -0.041186 0.437017 -0.279470 -0.287402 -0.038594 0.066953 0.368756 0.120593 -0.035110 0.169138 -0.157030 0.306202 -0.042364 0.410633 -0.069205 -0.201745 0.047891 -0.349980 -0.155561 -0.067875 0.044756 0.092336 -0.209891 -0.038878 -0.250961 -0.517415 0.038634 0.134925 0.204774 -0.038135 0.132017 -0.019001 0.014803 -0.281612 -0.039574 -0.372636 0.172149 0.518777 0.330488 0.318429 -0.138332 0.492488 0.372884 -0.007000 0.006650 -0.312686 -0.093918 0.002878 0.154035 -0.112017 -0.041027 -0.151109 -0.180501 -0.564021 0.265696 0.353498 0.163042 -0.413618 0.189143 0.184759 0.384566 0.412501 -0.168526 -0.009889 -0.231431 0.336514 0.258849 0.198752 -0.066471 0.116798 -0.187292 0.139298 0.471437 0.170657 0.038011 0.307695 -0.313106 0.025708 0.035654 0.363253 -0.254893 0.360551 -0.289473 -0.034000 0.047190 -0.385766 -0.512288 -0.068953 -0.320231 -0.357901 0.201610 -0.235051 0.161572 0.293983 -0.004836 0.484550 0.308003 0.231975 0.028381 -0.169103 0.012532 -0.167781 0.030232 -0.062856 -0.243187 -0.175398 0.032528 -0.141420 0.004274 0.050105 0.080086 -0.142461 -0.363421 0.141946 -0.063816 -0.422675 -0.105280
223 -0.100195 0.029809 0.090128 0.029471 0.232842 0.488380 0.243438 -0.460655 -0.515643 0.290563 0.345078 -0.230201 -0.010387 -0.187127 -0.184699 -0.341607 0.209126 0.165125 0.033004 0.282193 -0.024709 0.225146 0.334550 0.160715 -0.039198 -0.109123 0.185936 -0.174806 -0.078395 0.001857 -0.040904 -0.299292 -0.119280 0.478880 0.164619 -0.383902 -0.125209 -0.331544 -0.053971 0.111150 -0.430265 0.013712 -0.151527 -0.149486 -0.401579 0.414119 -0.329378 -0.247071 0.384222 -0.134747 -0.026555 -0.166505 0.408585 0.416129 0.064129 0.113247 -0.459744 -0.368397 -0.196713 0.361534 0.683219 -0.588573 -0.279687 0.189891 0.047903 -0.304019 -0.053762 -0.356166 -0.014713 -0.377455 0.260331 0.195987 0.020132 -0.104128 0.279167 0.014228 0.138044 0.231889 0.405510 0.285525 -0.331865 -0.226713 -0.185700 -0.169176 0.060982 -0.125021 -0.355321 -0.131730 -0.060404 -0.169863 0.204330 -0.329557 0.193318 -0.085684 0.073069 -0.189766 -0.635479 -0.331843 0.144901 -0.060533 -0.347377 0.232165 -0.062540 0.226164 0.673728 0.046925 0.290607 -0.365093 0.175748 -0.742267 -0.006416 -0.539213 -0.215090 0.329448 0.356602 -0.075764 -0.039352 -0.132175 -0.105502 -0.394457 -0.488638 -0.138869 -0.238143 -0.142841 0.246109 -0.432579 -0.195989 -0.254441
13 0.208201 0.254026 -0.103368 0.226760 0.076032 0.213746 0.070060 -0.166336 -0.090544 0.229426 0.107120 -0.258211 0.309506 -0.329500 -0.349422 -0.176108 0.036662 0.350044 0.086162 0.047703 0.090806 0.013017 0.273074 0.168564 0.291670 0.132153 -0.139857 0.160221 -0.378999 -0.194778 -0.094271 0.022885 0.046623 -0.229655 -0.110322 -0.170744 -0.304963 -0.095973 0.258396 0.151976 -0.091443 0.211002 0.002081 0.053936 -0.283458 -0.107578 -0.317349 0.139838 0.362338 0.292209 0.161320 -0.035548 0.488954 0.241393 0.001401 -0.059660 -0.315737 -0.037605 0.160944 0.008031 -0.091321 -0.027046 -0.281789 -0.220565 -0.480033 0.247937 0.160602 0.165481 -0.432200 -0.007344 0.243281 0.250851 0.506905 -0.149963 0.040241 -0.366180 0.311807 0.325531 0.181293 -0.053528 0.251462 -0.168379 0.076661 0.463946 0.258100 0.024528 0.206361 -0.390837 0.014582 -0.082998 0.446430 -0.051118 0.334574 -0.241638 -0.108840 -0.093150 -0.403909 -0.491370 -0.101649 -0.122920 -0.284050 0.125372 -0.049515 -0.085692 0.229853 0.130341 0.530436 0.335971 0.117933 0.070225 -0.197866 -0.015157 -0.103577 0.261931 -0.138797 -0.185849 -0.156983 -0.051128 -0.036397 0.030343 -0.201753 0.150849 -0.163079 -0.323158 0.131855 -0.023451 -0.329577 -0.115885
81 -0.082556 0.011742 0.095453 0.016612 0.212026 0.505250 0.240898 -0.440542 -0.516491 0.292010 0.325625 -0.255778 -0.035032 -0.165633 -0.190258 -0.332670 0.201384 0.185267 0.047980 0.300000 -0.041257 0.255927 0.315145 0.156380 -0.035112 -0.099938 0.175922 -0.201795 -0.092425 0.005728 -0.031463 -0.314468 -0.121178 0.484949 0.168385 -0.393256 -0.137390 -0.318739 -0.065514 0.101667 -0.427152 0.043747 -0.172914 -0.145046 -0.382957 0.439606 -0.349095 -0.250320 0.382350 -0.106637 -0.014277 -0.151946 0.415393 0.400694 0.079583 0.141112 -0.446206 -0.407745 -0.193185 0.338442 0.720554 -0.556149 -0.285710 0.208162 0.051698 -0.319698 -0.068740 -0.375384 0.014778 -0.409775 0.269905 0.175275 0.004690 -0.107297 0.277535 -0.006729 0.126244 0.228330 0.406905 0.291095 -0.333133 -0.240663 -0.194725 -0.159850 0.059965 -0.114047 -0.370382 -0.154514 -0.059757 -0.172583 0.223062 -0.338974 0.170806 -0.061346 0.073481 -0.204009 -0.660994 -0.313256 0.127138 -0.073857 -0.323537 0.235786 -0.078312 0.246008 0.707579 0.037972 0.300445 -0.370993 0.190461 -0.756560 0.002438 -0.569403 -0.217690 0.300800 0.351838 -0.102027 -0.026478 -0.150535 -0.105763 -0.397044 -0.511870 -0.128219 -0.276603 -0.146533 0.259091 -0.418637 -0.191675 -0.284614
273 -0.221320 -0.059993 -0.177608 -0.203982 0.349023 0.461173 -0.457224 0.035149 -0.738695 0.120932 -0.077241 -0.075846 -0.516465 -0.141260 -0.009431 -0.134939 -0.094184 0.451440 -0.045115 -0.497844 -0.128110 -0.090782 -0.228747 0.546027 -0.048497 0.353190 0.111315 -0.512732 0.149217 0.024351 -0.055431 0.065209 0.380128 0.091754 -0.097165 -0.206170 -0.019059 -0.063597 0.188994 -0.152248 0.326887 0.599501 -0.257267 0.548483 -0.080747 0.387222 -0.552028 0.155322 0.421644 0.162006 -0.048604 -0.145111 0.696815 0.985170 0.256779 -0.015685 -0.544365 0.073099 0.006099 -0.383244 0.243665 -0.213948 -0.609698 0.010449 -0.272692 0.564252 0.084892 0.102777 -0.215141 -0.158410 -0.124839 0.478221 0.546338 0.122379 -0.267443 -0.054743 0.749258 0.688455 0.307418 -0.435073 0.268701 -0.511438 -0.035837 0.545063 -0.756671 0.019008 -0.089264 -0.730858 -0.031472 0.371651 0.220631 -0.118173 -0.523662 -0.622410 0.149884 0.244436 -0.063503 -0.850535 -0.360603 -0.247874 -0.238071 -0.234493 -0.189608 0.015675 0.763175 0.430734 0.263842 -0.505985 -0.094829 -0.629208 -0.185696 -0.615478 -0.351260 0.096355 0.009468 -0.285732 -0.043158 -0.049601 -0.800482 -0.080886 -0.365099 -0.225626 -0.145959 0.069553 -0.409224 0.539702 -0.522673 0.130673
263 0.134230 0.252857 -0.131052 0.204200 0.088502 0.249697 0.068262 -0.158425 -0.109603 0.212223 0.144481 -0.197090 0.321195 -0.288323 -0.345280 -0.120521 0.036588 0.372314 0.102236 0.042577 0.045066 -0.041618 0.325449 0.127886 0.329190 0.092217 -0.136438 0.122040 -0.398142 -0.202973 -0.108613 -0.002328 0.060366 -0.236424 -0.133758 -0.222454 -0.372192 -0.087385 0.269576 0.181931 -0.084888 0.159546 0.002899 0.063027 -0.250619 -0.062569 -0.329441 0.168354 0.383233 0.285464 0.212860 -0.071380 0.499179 0.259896 0.048543 -0.041924 -0.327300 -0.031111 0.110765 0.061859 -0.092773 -0.039149 -0.242547 -0.197048 -0.458132 0.272282 0.179687 0.164740 -0.433379 0.033146 0.223060 0.290607 0.467914 -0.113366 0.015509 -0.325206 0.305378 0.304269 0.159498 -0.081959 0.223477 -0.173842 0.078869 0.483072 0.251155 0.029849 0.225055 -0.409175 0.004901 -0.079972 0.388658 -0.105288 0.364521 -0.231770 -0.069957 -0.103343 -0.370314 -0.506398 -0.118422 -0.151715 -0.282299 0.181107 -0.096867 -0.033887 0.237200 0.146822 0.550766 0.331747 0.166683 0.044369 -0.247247 0.027543 -0.123688 0.208385 -0.151909 -0.228559 -0.136246 -0.053368 -0.090748 0.034245 -0.142623 0.117710 -0.173300 -0.322520 0.138294 -0.024678 -0.357802 -0.098640
12 -0.109793 0.024480 0.058795 0.016288 0.278373 0.438527 0.197770 -0.456516 -0.541416 0.295463 0.376175 -0.169704 -0.019142 -0.184548 -0.164256 -0.350053 0.194442 0.170529 0.049181 0.221792 -0.029396 0.202903 0.347637 0.197713 -0.042042 -0.110079 0.192348 -0.175989 -0.080081 0.019463 -0.063772 -0.285349 -0.096812 0.523744 0.138438 -0.399159 -0.132463 -0.376883 -0.075169 0.113941 -0.437588 -0.001392 -0.165153 -0.100635 -0.428073 0.406953 -0.338793 -0.215324 0.369173 -0.187863 -0.023305 -0.184425 0.369813 0.446235 0.035140 0.112774 -0.481703 -0.344745 -0.224837 0.338112 0.685315 -0.563666 -0.303142 0.218140 -0.001394 -0.257460 -0.031636 -0.325707 -0.018177 -0.370180 0.254897 0.193348 -0.003832 -0.097697 0.263206 0.023876 0.155607 0.224566 0.427247 0.280592 -0.333439 -0.215212 -0.222028 -0.155499 0.050663 -0.165236 -0.372861 -0.121235 -0.051475 -0.185650 0.147471 -0.317423 0.189538 -0.132277 0.097161 -0.193803 -0.584541 -0.349913 0.166894 -0.081496 -0.386810 0.252116 -0.064845 0.261053 0.705784 0.070596 0.268307 -0.413339 0.156878 -0.747365 -0.021543 -0.545985 -0.230418 0.349810 0.372742 -0.066453 -0.015785 -0.149074 -0.122884 -0.419344 -0.461809 -0.183346 -0.221558 -0.157625 0.237229 -0.405408 -0.256394 -0.237174
173 0.189258 0.227993 -0.111841 0.157955 0.089382 0.205165 0.051008 -0.145545 -0.116734 0.241627 0.127471 -0.218627 0.311406 -0.312019 -0.332720 -0.185258 0.047928 0.344146 0.106948 0.031803 0.131318 -0.014548 0.243469 0.151973 0.324636 0.108348 -0.168878 0.161873 -0.346082 -0.169009 -0.075743 0.045539 0.052032 -0.194877 -0.080864 -0.141275 -0.330198 -0.086973 0.195010 0.146431 -0.074959 0.260106 -0.012241 0.053270 -0.278461 -0.112405 -0.339773 0.166592 0.422953 0.280682 0.189847 -0.043851 0.516634 0.271243 -0.018124 -0.005225 -0.302903 -0.031903 0.147681 0.007813 -0.112595 0.009228 -0.298134 -0.219317 -0.555258 0.269257 0.223908 0.171626 -0.434248 0.040369 0.232058 0.270015 0.525990 -0.182523 0.033676 -0.340637 0.322167 0.324086 0.231041 -0.032290 0.218986 -0.197882 0.081700 0.502261 0.232770 0.027827 0.207556 -0.346310 0.048209 -0.071416 0.457902 -0.078285 0.283185 -0.285146 -0.113346 -0.066203 -0.381810 -0.503338 -0.085440 -0.193961 -0.352572 0.106613 -0.097241 -0.067432 0.282434 0.103528 0.523696 0.334776 0.096453 0.099336 -0.171916 -0.061498 -0.107853 0.229505 -0.110761 -0.191873 -0.153726 -0.041313 -0.053234 0.027596 -0.168176 0.128132 -0.156304 -0.361448 0.132814 -0.015943 -0.351778 -0.118752
258 -0.300365 -0.271040 -0.199028 -0.342447 0.232231 -0.034807 -0.218660 -0.106892 -0.165736 -0.199875 -0.030827 -0.059415 -0.259006 -0.170538 -0.072632 -0.299180 0.244679 0.081536 -0.242152 0.148100 0.422180 -0.226207 0.208999 0.316166 -0.665049 -0.058403 -0.236063 -0.131550 -0.309975 -0.486167 -0.016739 0.051258 -0.265591 0.011160 -0.065174 -0.119278 0.463923 -0.036016 0.296637 0.035400 -0.162031 0.260957 -0.170862 -0.208897 -0.183268 -0.126487 -0.098761 0.031607 0.053207 0.052472 -0.051958 0.280862 0.526736 0.491642 -0.012309 -0.343732 -0.773801 0.114007 -0.219253 0.252501 0.054073 -0.633795 -0.021227 -0.129323 -0.147497 0.029889 -0.099203 -0.367967 -0.484099 -0.070058 0.260432 0.390720 0.449987 -0.117389 -0.049407 0.165723 0.177801 0.271161 0.261964 0.054972 0.245655 0.114377 0.256163 -0.036908 -0.315245 -0.385693 -0.214236 -0.043203 0.090443 0.394606 0.178982 -0.132054 0.283114 -0.466034 0.296921 0.437582 -0.214800 -0.608599 -0.096585 -0.039039 -0.300786 -0.487159 0.123507 0.174398 0.448465 0.056283 0.240973 0.015560 0.007755 -0.306678 -0.110977 -0.072302 -0.235001 0.147175 -0.060769 0.168281 -0.362255 -0.128616 -0.251972 -0.419915 -0.346809 -0.305290 0.571811 0.218761 -0.088411 -0.016066 -0.185072 -0.005356
78 -0.528998 -0.048620 -0.195648 0.018243 0.084585 -0.121607 -0.277627 -0.067604 -0.075519 0.193945 -0.264103 -0.120825 0.062293 -0.389246 -0.138356 -0.262417 -0.105235 0.178944 -0.031139 -0.053917 0.270268 0.204011 0.068376 0.078972 -0.246155 -0.051612 0.621991 -0.317122 0.179378 -0.044364 0.293467 -0.323059 -0.129478 -0.417978 0.068485 0.017779 -0.324153 -0.104272 -0.198426 0.083945 0.234066 0.360309 0.211705 0.005359 -0.403100 0.281508 -0.130455 -0.153139 0.444083 0.337802 -0.432651 -0.173917 0.160877 0.447446 -0.304601 -0.455313 -0.490322 0.040661 0.031770 0.319762 0.158609 -0.589879 -0.314754 -0.160987 -0.134742 -0.125230 -0.508518 -0.196214 -0.238650 -0.334782 0.162606 0.512825 0.288960 -0.091183 0.017342 0.096594 0.392836 0.486649 0.016175 -0.530424 -0.066547 -0.052850 0.456567 0.161950 0.004950 0.315628 0.332274 0.002942 -0.109458 0.235204 0.331436 -0.281483 -0.260266 -0.034348 -0.106838 0.149628 0.034033 -0.452782 0.231282 -0.072641 -0.368786 0.069610 0.106734 0.251199 0.118494 0.068137 0.360542 -0.562595 0.256393 -0.617501 -0.028913 0.046549 -0.300650 0.406810 0.449977 -0.127699 -0.125964 0.555384 -0.254678 -0.238788 -0.138222 -0.239497 -0.172721 -0.712869 -0.184922 0.142921 -0.304222 -0.246311
307 -0.109434 0.054489 0.078900 0.008395 0.284938 0.419849 0.209040 -0.439161 -0.537018 0.302042 0.370761 -0.185226 -0.011783 -0.205397 -0.168372 -0.356703 0.217378 0.158411 0.048006 0.248684 -0.032342 0.201125 0.343754 0.191911 -0.047848 -0.089703 0.192425 -0.172730 -0.067475 0.020596 -0.059931 -0.277794 -0.103201 0.529683 0.160865 -0.391314 -0.139460 -0.384519 -0.069167 0.096225 -0.452769 -0.014228 -0.158566 -0.107422 -0.415633 0.414111 -0.348446 -0.235891 0.391282 -0.218847 -0.026982 -0.183146 0.374249 0.464464 0.043021 0.144719 -0.462617 -0.359382 -0.201344 0.341685 0.686102 -0.579895 -0.329500 0.215846 0.032911 -0.281398 -0.022261 -0.310928 -0.008931 -0.377247 0.224002 0.190942 0.004381 -0.107071 0.281716 0.029301 0.153381 0.246055 0.472165 0.303636 -0.339249 -0.244512 -0.227881 -0.176113 0.044261 -0.173991 -0.380421 -0.146961 -0.030468 -0.193957 0.152331 -0.332280 0.184077 -0.134732 0.089805 -0.193848 -0.587025 -0.338241 0.200743 -0.084743 -0.411260 0.255415 -0.043036 0.215596 0.716585 0.068478 0.246760 -0.431022 0.149521 -0.766602 -0.010406 -0.574295 -0.219934 0.356819 0.357185 -0.050567 -0.034942 -0.121572 -0.125485 -0.419754 -0.478404 -0.171171 -0.234500 -0.174240 0.248251 -0.410632 -0.242813 -0.248717
18 -0.109411 0.053350 0.063857 0.010808 0.297184 0.399472 0.182783 -0.426716 -0.513086 0.298623 0.370100 -0.171268 -0.004348 -0.211299 -0.156224 -0.362654 0.205605 0.159659 0.029823 0.226324 -0.031808 0.185095 0.348004 0.193820 -0.029776 -0.075919 0.190540 -0.179989 -0.050716 0.018390 -0.058138 -0.270242 -0.088088 0.519785 0.146580 -0.395805 -0.137991 -0.380544 -0.067987 0.107940 -0.445020 -0.007890 -0.169207 -0.091482 -0.415993 0.393179 -0.345356 -0.224669 0.386778 -0.223377 -0.027774 -0.210747 0.358606 0.461514 0.034331 0.127254 -0.461945 -0.333683 -0.211700 0.328706 0.674293 -0.582650 -0.312803 0.215664 0.029520 -0.253725 -0.034995 -0.291871 -0.010396 -0.350880 0.216213 0.182676 0.011170 -0.105169 0.272739 0.033262 0.161750 0.230387 0.446248 0.274717 -0.326391 -0.230028 -0.206924 -0.183571 0.036718 -0.179119 -0.352285 -0.134228 -0.046261 -0.175672 0.138033 -0.315196 0.187355 -0.147054 0.072677 -0.186519 -0.574872 -0.337917 0.193880 -0.059214 -0.396506 0.255597 -0.037870 0.237971 0.691095 0.071200 0.225216 -0.428384 0.133379 -0.746207 -0.014022 -0.555524 -0.225215 0.356752 0.357861 -0.059038 -0.028870 -0.134313 -0.120151 -0.410941 -0.460255 -0.181509 -0.242010 -0.172818 0.227387 -0.399540 -0.256040 -0.231396
208 -0.104469 0.051706 0.070723 0.018219 0.289040 0.414771 0.216650 -0.450575 -0.515637 0.310077 0.367701 -0.209658 0.000552 -0.229770 -0.189657 -0.364490 0.221435 0.152765 0.030375 0.259945 -0.023926 0.194103 0.369649 0.172852 -0.056312 -0.073543 0.164986 -0.174146 -0.057364 0.001951 -0.048487 -0.289047 -0.110653 0.497291 0.148759 -0.384330 -0.130177 -0.362132 -0.062990 0.104176 -0.453539 -0.007221 -0.157110 -0.107490 -0.436391 0.397731 -0.333776 -0.260093 0.394879 -0.209608 -0.024382 -0.185417 0.350774 0.419476 0.025468 0.119944 -0.452571 -0.348085 -0.205202 0.349520 0.684368 -0.591435 -0.313492 0.208324 0.035822 -0.287391 -0.059839 -0.316264 -0.008440 -0.357356 0.230670 0.178058 -0.001882 -0.112353 0.283265 0.029537 0.146034 0.222566 0.438724 0.296390 -0.315726 -0.239198 -0.192022 -0.197037 0.056462 -0.181667 -0.364847 -0.124419 -0.045050 -0.192828 0.164909 -0.293606 0.203486 -0.106908 0.070843 -0.189219 -0.603738 -0.334486 0.209589 -0.048893 -0.395453 0.239484 -0.021650 0.223965 0.683316 0.048587 0.232145 -0.384377 0.149195 -0.729559 0.001870 -0.552178 -0.217046 0.353289 0.365175 -0.048236 -0.036635 -0.121221 -0.099518 -0.393046 -0.467490 -0.149945 -0.254773 -0.177734 0.234346 -0.410742 -0.233216 -0.254123
136 0.168446 0.216116 -0.078944 0.227361 0.078522 0.241641 0.080566 -0.184649 -0.078689 0.213348 0.100600 -0.240934 0.309032 -0.321127 -0.349538 -0.171753 0.035044 0.351677 0.078486 0.042287 0.040314 0.011221 0.292296 0.168979 0.317358 0.122911 -0.147511 0.150772 -0.395887 -0.179074 -0.111526 0.016909 0.043423 -0.231077 -0.119379 -0.167293 -0.330735 -0.125879 0.261928 0.158982 -0.113782 0.191519 -0.001687 0.067732 -0.286555 -0.100192 -0.296458 0.150417 0.352600 0.306697 0.167808 -0.051574 0.441974 0.227623 0.009797 -0.063159 -0.306600 -0.034216 0.156709 -0.005168 -0.085171 -0.016131 -0.251193 -0.194517 -0.475739 0.256274 0.134492 0.169770 -0.415211 -0.017377 0.235039 0.258431 0.500380 -0.122794 0.041426 -0.371392 0.300627 0.317605 0.175897 -0.056000 0.251494 -0.153483 0.069203 0.486832 0.269315 0.004549 0.210481 -0.412550 0.024279 -0.118683 0.438252 -0.056841 0.330034 -0.225545 -0.110196 -0.101905 -0.402251 -0.471963 -0.102368 -0.110150 -0.271185 0.163138 -0.040577 -0.094310 0.195615 0.159897 0.529232 0.343904 0.129053 0.059477 -0.254418 0.004934 -0.111076 0.271882 -0.142822 -0.200415 -0.126343 -0.076384 -0.043998 0.053732 -0.198331 0.153489 -0.185708 -0.330225 0.134583 -0.019263 -0.346950 -0.107188
233 -0.225154 -0.064708 -0.170928 -0.204887 0.356194 0.465751 -0.453267 0.022617 -0.736865 0.121075 -0.072394 -0.076657 -0.519994 -0.144939 -0.014250 -0.143514 -0.078965 0.455348 -0.041790 -0.481898 -0.120367 -0.086045 -0.224068 0.554216 -0.049986 0.359258 0.107057 -0.511784 0.144889 0.011815 -0.052750 0.053525 0.378665 0.094819 -0.106132 -0.204281 -0.018039 -0.063646 0.202240 -0.149168 0.319037 0.599830 -0.248629 0.539111 -0.092940 0.381631 -0.556368 0.158474 0.433832 0.168480 -0.043732 -0.147190 0.707307 0.989295 0.268174 -0.017425 -0.552072 0.076466 0.011871 -0.380554 0.242370 -0.234823 -0.607746 0.014026 -0.268934 0.559211 0.085892 0.101662 -0.221515 -0.166958 -0.116480 0.473865 0.555552 0.112885 -0.261841 -0.058393 0.755094 0.685253 0.311705 -0.426631 0.271684 -0.509647 -0.030898 0.532716 -0.758710 0.008681 -0.099967 -0.741152 -0.025589 0.375434 0.227681 -0.118189 -0.509709 -0.632392 0.154883 0.246498 -0.075959 -0.865976 -0.360154 -0.247121 -0.242635 -0.235709 -0.195833 0.020136 0.766335 0.422908 0.265519 -0.501774 -0.098401 -0.632610 -0.180583 -0.606008 -0.341226 0.109929 0.005615 -0.279948 -0.051662 -0.049424 -0.803134 -0.073679 -0.377085 -0.227586 -0.142077 0.077337 -0.400649 0.527170 -0.516182 0.134954
204 -0.590515 0.575350 0.288305 -0.086985 0.058109 0.680379 -0.053779 -0.263685 0.025163 0.314263 -0.023412 -0.417039 -0.231990 -0.314208 -0.298404 0.237729 0.318599 0.326941 -0.212109 0.519671 -0.014269 0.357939 0.111109 -0.096545 -0.566123 0.364620 0.223325 -0.333422 -0.116973 -0.570707 0.439410 -0.185014 0.308986 -0.317353 0.238173 0.153979 -0.128245 0.275021 0.241268 0.026577 -0.145787 0.444820 0.052274 -0.403481 -0.044766 0.265481 -0.368020 -0.136622 0.508054 0.191292 -0.020285 -0.291202 0.525161 0.449768 0.362483 -0.304391 -0.099926 -0.110839 0.215245 -0.043780 0.161953 -0.739785 -0.111915 -0.028122 0.251575 -0.097160 -0.020742 -0.049784 -0.189924 -0.263521 -0.261656 0.263917 0.574413 0.219420 0.255555 -0.064819 0.701038 0.683903 0.529396 0.149703 0.269509 -0.482047 0.199836 0.088711 -0.413128 0.028131 -0.094975 -1.073185 0.217661 0.121023 0.284847 -0.272739 -0.009659 -0.166546 0.165300 0.062080 -0.576064 -0.628986 0.014516 0.346715 -0.005067 -0.077901 -0.031091 -0.297756 0.283480 0.036475 0.185365 -0.140851 0.589897 -1.064238 -0.409036 -0.347248 -0.051568 0.297499 -0.293288 0.139660 -0.385950 0.386323 -0.490708 0.035032 -0.630320 0.049517 -0.232033 0.239941 -0.141018 -0.192405 0.113681 0.215870
253 0.195556 0.232066 -0.124752 0.161851 0.085885 0.202572 0.040589 -0.122787 -0.122002 0.245063 0.130784 -0.210719 0.319009 -0.329682 -0.335627 -0.188743 0.037233 0.351926 0.109595 0.017691 0.132966 -0.011199 0.243240 0.153144 0.344495 0.097191 -0.164792 0.163550 -0.354888 -0.170305 -0.074836 0.051690 0.068633 -0.185633 -0.077170 -0.155255 -0.353968 -0.079513 0.199696 0.150308 -0.062108 0.273752 -0.010627 0.042620 -0.288157 -0.114675 -0.345779 0.164879 0.412530 0.290438 0.174138 -0.043556 0.520185 0.280019 -0.037268 -0.012187 -0.284054 -0.038807 0.162878 0.001836 -0.113750 0.021792 -0.298105 -0.225079 -0.564493 0.262130 0.240158 0.182112 -0.434473 0.039386 0.219142 0.252329 0.518014 -0.188023 0.018132 -0.346799 0.318091 0.331995 0.245081 -0.030055 0.222659 -0.178616 0.065326 0.506238 0.217108 0.028430 0.205259 -0.347771 0.044440 -0.074580 0.443804 -0.086973 0.268171 -0.295449 -0.115034 -0.061408 -0.390863 -0.490916 -0.081217 -0.194383 -0.354268 0.119232 -0.104492 -0.078127 0.290409 0.097992 0.510077 0.319422 0.078078 0.091112 -0.178440 -0.064910 -0.102453 0.231310 -0.114992 -0.184133 -0.142919 -0.059456 -0.043586 0.023202 -0.169525 0.158657 -0.154580 -0.352607 0.117029 -0.021714 -0.352966 -0.113799
194 -0.109222 -0.342922 -0.331861 0.367467 0.232014 0.628651 0.202881 -0.370653 -0.250071 0.013703 -0.045416 -0.052255 -0.052234 -0.419039 -0.264511 -0.522164 -0.169670 0.527806 -0.397178 -0.317258 -0.128947 0.060736 0.502905 0.079322 -0.026460 0.405354 -0.289444 -0.605332 0.217884 -0.130549 0.166605 -0.238951 -0.016367 -0.043242 -0.398801 -0.139687 0.117013 0.333561 0.148180 0.293519 0.024092 0.176567 -0.456306 0.363045 -0.831671 0.198777 -0.208927 -0.601715 0.209309 0.529793 0.296791 -0.438060 0.581353 0.516845 0.062214 -0.436581 -0.936587 -0.074182 -0.480601 0.043563 0.432402 -0.636409 -0.235437 0.322155 0.016834 0.351986 -0.642421 -0.043059 -0.377513 -0.189167 0.510649 0.311239 0.611503 0.032552 0.106147 -0.360321 0.679742 0.249908 -0.441180 -0.318090 0.249018 -0.273759 0.388022 -0.419261 0.151174 -0.099407 -0.151413 -0.152143 -0.462914 0.308762 0.270658 0.577782 0.338624 0.197372 -0.196932 0.280885 -0.711117 -0.881796 -0.129404 0.360035 -0.045777 -0.063041 0.213754 0.606437 0.557558 0.089615 0.185117 0.183821 0.112383 -0.531026 0.027446 -0.170350 -0.345308 0.417197 0.487592 -0.305211 0.149270 -0.113297 -0.376094 -0.076777 -0.449311 -0.352565 -0.530235 0.314072 -0.575068 0.114352 -0.298129 -0.055749
184 -0.544119 -0.055283 -0.209900 0.018516 0.084901 -0.118786 -0.291606 -0.063177 -0.096339 0.201171 -0.259346 -0.108913 0.038074 -0.367418 -0.132289 -0.253864 -0.108188 0.181216 -0.030249 -0.060296 0.260495 0.199246 0.054975 0.080145 -0.242258 -0.050716 0.615410 -0.319191 0.191521 -0.026901 0.274790 -0.321941 -0.117297 -0.389985 0.072032 0.010791 -0.308830 -0.114836 -0.201127 0.062196 0.242470 0.347668 0.201520 0.017633 -0.377786 0.297419 -0.135135 -0.150612 0.425751 0.316545 -0.420758 -0.184683 0.174473 0.450356 -0.274073 -0.422758 -0.474225 0.048343 0.046112 0.289608 0.172395 -0.565864 -0.326548 -0.147032 -0.129853 -0.109216 -0.479933 -0.185509 -0.219416 -0.333760 0.151667 0.494798 0.281007 -0.089052 0.015962 0.101679 0.394568 0.500777 0.018053 -0.534085 -0.073409 -0.075048 0.430984 0.162662 -0.021516 0.318296 0.312337 -0.010949 -0.113273 0.240904 0.324550 -0.266534 -0.272172 -0.049005 -0.099431 0.137879 0.048167 -0.427963 0.212108 -0.076642 -0.367778 0.070957 0.104863 0.235020 0.144253 0.082023 0.336772 -0.573217 0.244461 -0.622165 -0.026602 0.019391 -0.295918 0.392572 0.442056 -0.130698 -0.124833 0.551066 -0.263932 -0.236422 -0.144221 -0.235608 -0.172870 -0.697752 -0.191068 0.161395 -0.300427 -0.243713
304 0.163488 0.245255 -0.093531 0.210214 0.062545 0.262817 0.114093 -0.172237 -0.133898 0.223903 0.138846 -0.184447 0.382598 -0.271071 -0.355708 -0.047779 0.059598 0.350792 0.093827 0.086987 0.073775 -0.059240 0.335803 0.145917 0.270399 0.133130 -0.111357 0.087412 -0.410651 -0.180526 -0.055788 -0.056050 0.069147 -0.291511 -0.108115 -0.203137 -0.315496 -0.012708 0.267104 0.174099 -0.112084 0.108472 0.035865 0.107978 -0.173951 -0.081331 -0.382147 0.140617 0.432026 0.277875 0.246115 -0.044338 0.425835 0.238822 0.081958 -0.042659 -0.272186 0.023388 0.095377 0.070052 -0.113246 -0.059425 -0.237190 -0.198913 -0.453130 0.255302 0.185534 0.117371 -0.435486 0.095193 0.261115 0.375484 0.415104 -0.100276 -0.000468 -0.307944 0.345979 0.286143 0.105997 -0.100179 0.206584 -0.170665 0.170340 0.484845 0.237263 0.037120 0.190186 -0.408228 0.029378 -0.053031 0.404602 -0.076799 0.475721 -0.208970 -0.049770 -0.029946 -0.380466 -0.478729 -0.159427 -0.207106 -0.266401 0.155517 -0.098959 0.058572 0.206892 0.125843 0.557193 0.336250 0.201943 0.050141 -0.188774 0.001567 -0.121221 0.165578 -0.141962 -0.164356 -0.231875 -0.015559 -0.078480 -0.022423 -0.131911 0.037056 -0.198716 -0.305516 0.181573 -0.040053 -0.350996 -0.092789
277 0.138372 0.234602 -0.139496 0.138451 0.139523 0.200491 0.055817 -0.164618 -0.164192 0.233031 0.136671 -0.242799 0.290951 -0.356440 -0.382301 -0.202378 0.068169 0.402257 0.153170 -0.010222 0.091992 -0.005212 0.329637 0.146301 0.357540 0.108813 -0.181663 0.204048 -0.360733 -0.185511 -0.184075 0.081404 0.017895 -0.176800 -0.172098 -0.181824 -0.352976 -0.158614 0.281497 0.145104 -0.015558 0.215552 -0.021092 0.066885 -0.258121 -0.067538 -0.317846 0.116347 0.382859 0.199445 0.207550 -0.087262 0.622369 0.290599 0.032891 0.024515 -0.334595 -0.083646 0.113086 0.022266 -0.037994 0.014000 -0.364301 -0.167968 -0.466435 0.289139 0.196680 0.223834 -0.424491 -0.018598 0.259576 0.239631 0.581080 -0.200621 0.061043 -0.396852 0.324496 0.325202 0.162096 -0.089733 0.199172 -0.277844 0.049131 0.441463 0.318407 0.107841 0.219795 -0.387849 0.017980 -0.042220 0.424824 -0.047425 0.263353 -0.262292 -0.126821 -0.175588 -0.295387 -0.534674 -0.059749 -0.175580 -0.340425 0.078244 -0.039668 -0.090629 0.404355 0.152189 0.554807 0.390560 0.145554 0.098582 -0.222879 -0.073557 -0.128875 0.232257 -0.141319 -0.308426 -0.113855 0.003834 -0.128176 0.002949 -0.159900 0.103775 -0.208424 -0.384986 0.114709 0.021065 -0.366531 -0.162335
283 -0.536074 -0.054683 -0.198064 0.009752 0.087639 -0.113086 -0.326618 -0.077342 -0.096179 0.202864 -0.267313 -0.110562 0.042757 -0.337497 -0.121095 -0.258940 -0.123504 0.184380 -0.030492 -0.073735 0.265820 0.194934 0.052957 0.098833 -0.234966 -0.061921 0.617615 -0.328758 0.174357 -0.030090 0.274830 -0.317210 -0.101865 -0.392640 0.080650 0.005033 -0.334892 -0.119940 -0.204841 0.082395 0.244306 0.362045 0.209460 0.019307 -0.391435 0.285118 -0.131824 -0.131248 0.439661 0.322811 -0.432110 -0.174487 0.161313 0.446327 -0.288474 -0.438381 -0.484642 0.051040 0.021414 0.314067 0.153977 -0.571649 -0.307896 -0.166937 -0.143353 -0.103963 -0.479960 -0.192914 -0.242417 -0.330946 0.136265 0.500745 0.258143 -0.066751 -0.002255 0.098744 0.376128 0.472024 0.028886 -0.531282 -0.074053 -0.044582 0.432146 0.189565 -0.030588 0.307591 0.323736 0.001831 -0.100606 0.233787 0.299263 -0.287800 -0.272638 -0.060466 -0.083527 0.128902 0.045895 -0.441927 0.206889 -0.086380 -0.343323 0.079271 0.076115 0.247579 0.105179 0.077175 0.349457 -0.574078 0.247629 -0.606361 -0.045718 0.051669 -0.291654 0.397984 0.429069 -0.123350 -0.096296 0.532817 -0.271171 -0.225949 -0.119119 -0.232557 -0.146474 -0.701687 -0.169086 0.146741 -0.306586 -0.207918
220 -0.287530 -0.225984 -0.204168 -0.316046 0.283239 -0.001033 -0.139861 -0.080510 -0.148243 -0.136457 -0.057667 -0.128600 -0.199972 -0.207314 -0.111388 -0.277262 0.203554 0.113627 -0.232447 0.181298 0.485136 -0.199881 0.229071 0.314790 -0.623055 -0.034527 -0.240780 -0.027336 -0.289596 -0.490901 0.006215 -0.017945 -0.291057 -0.002005 -0.126309 -0.085171 0.427618 -0.052822 0.255843 0.084916 -0.142988 0.327455 -0.113554 -0.257092 -0.199475 -0.096750 -0.115068 0.062376 0.075548 0.036623 -0.053353 0.298526 0.516367 0.504907 -0.045552 -0.397455 -0.746039 0.055026 -0.194562 0.228671 0.031623 -0.600650 -0.052520 -0.121315 -0.172797 0.004732 -0.088834 -0.329673 -0.450793 -0.065896 0.278050 0.396933 0.434688 -0.168149 -0.031573 0.165415 0.165048 0.258114 0.307966 0.096995 0.241214 0.117770 0.277674 -0.083254 -0.256080 -0.440376 -0.249138 -0.014573 0.125279 0.413346 0.238156 -0.123500 0.300818 -0.446063 0.302480 0.466513 -0.216294 -0.617312 -0.115225 -0.034032 -0.352421 -0.459691 0.136176 0.156478 0.425278 0.037431 0.163337 -0.021655 -0.075363 -0.346146 -0.040496 -0.069367 -0.171860 0.216569 -0.015816 0.191602 -0.382016 -0.087739 -0.211502 -0.388014 -0.350268 -0.293012 0.584735 0.265775 -0.012059 -0.027218 -0.207066 0.002282
300 -0.281999 -0.214124 -0.219796 -0.327186 0.290814 -0.008066 -0.136702 -0.038974 -0.129284 -0.141198 -0.074779 -0.106500 -0.185160 -0.236317 -0.118097 -0.264239 0.164678 0.111305 -0.262950 0.177654 0.524273 -0.194986 0.229060 0.323316 -0.613810 -0.067677 -0.264453 -0.014941 -0.262330 -0.480736 -0.008787 -0.017689 -0.298077 -0.036359 -0.155031 -0.084776 0.449313 -0.050809 0.247207 0.100983 -0.113876 0.320788 -0.095137 -0.272497 -0.191573 -0.114124 -0.107498 0.077187 0.077926 0.042044 -0.011860 0.284956 0.551182 0.541543 -0.021311 -0.408205 -0.768344 0.051138 -0.206709 0.257010 0.012385 -0.595873 -0.045577 -0.134162 -0.165488 0.025085 -0.074829 -0.319146 -0.448819 -0.070849 0.336240 0.393596 0.441493 -0.184271 -0.039466 0.167282 0.171675 0.293740 0.276712 0.084423 0.215527 0.149544 0.282429 -0.140715 -0.242464 -0.463290 -0.249423 0.011746 0.102971 0.420566 0.244066 -0.137185 0.318208 -0.453231 0.300036 0.450402 -0.240217 -0.628979 -0.140335 -0.023067 -0.363143 -0.479821 0.134741 0.150220 0.413608 0.040514 0.159097 -0.054219 -0.116047 -0.345873 -0.019506 -0.075142 -0.180733 0.221852 -0.004685 0.172534 -0.410087 -0.098267 -0.230680 -0.400100 -0.337608 -0.308593 0.599986 0.304331 -0.034934 -0.067692 -0.199520 -0.000648
101 0.112355 0.239859 -0.116770 0.193665 0.065481 0.262717 0.061144 -0.167374 -0.107770 0.225189 0.145356 -0.170032 0.376700 -0.266841 -0.346576 -0.073465 0.048117 0.378611 0.104345 0.028513 0.070976 -0.064823 0.332281 0.125745 0.313819 0.081108 -0.123235 0.095508 -0.409605 -0.187830 -0.090569 -0.013971 0.057775 -0.264372 -0.114029 -0.220361 -0.377785 -0.044335 0.244656 0.171821 -0.080191 0.119029 0.017293 0.080087 -0.208375 -0.062152 -0.343580 0.169531 0.414961 0.283742 0.227574 -0.068043 0.453784 0.242037 0.059587 -0.053986 -0.290867 -0.013498 0.070146 0.084715 -0.105036 -0.057836 -0.212311 -0.190060 -0.460907 0.253204 0.187420 0.145100 -0.432751 0.080261 0.231246 0.335397 0.417873 -0.104359 0.001999 -0.293004 0.312789 0.275209 0.131882 -0.090784 0.191216 -0.167127 0.131801 0.473908 0.222896 0.027966 0.230431 -0.372352 0.017198 -0.050260 0.367537 -0.116770 0.394713 -0.213391 -0.055616 -0.040259 -0.367677 -0.474548 -0.135702 -0.187925 -0.280745 0.173971 -0.109919 0.048204 0.217201 0.108604 0.536915 0.320419 0.199144 0.046184 -0.218616 0.029912 -0.129484 0.157534 -0.129945 -0.196712 -0.180485 -0.007492 -0.092343 0.011500 -0.094517 0.067929 -0.165761 -0.326345 0.165021 -0.038858 -0.372364 -0.096417
143 -0.297006 -0.230385 -0.226379 -0.315956 0.311669 0.014368 -0.144834 -0.072004 -0.150179 -0.145654 -0.071369 -0.116788 -0.202120 -0.207110 -0.117176 -0.272005 0.173258 0.131015 -0.246041 0.162578 0.482655 -0.201585 0.244323 0.328675 -0.624710 -0.031893 -0.250911 -0.007173 -0.288554 -0.500672 0.018383 -0.029253 -0.286991 -0.006276 -0.140055 -0.086020 0.442076 -0.042204 0.239396 0.095113 -0.122428 0.330905 -0.109214 -0.260937 -0.194664 -0.088725 -0.111729 0.090917 0.058639 0.034062 -0.026757 0.291647 0.516978 0.527289 -0.058403 -0.412160 -0.746743 0.050406 -0.199179 0.225968 0.016471 -0.594870 -0.043057 -0.107089 -0.176488 0.012512 -0.075238 -0.307465 -0.441079 -0.068226 0.309590 0.397432 0.443679 -0.169684 -0.047666 0.169678 0.162228 0.267003 0.301241 0.104027 0.231241 0.133005 0.266810 -0.101502 -0.252555 -0.479159 -0.272974 0.010205 0.112377 0.428883 0.233972 -0.123423 0.296836 -0.441772 0.318357 0.464214 -0.223332 -0.623775 -0.143721 -0.021920 -0.354365 -0.456603 0.113391 0.159952 0.432500 0.048946 0.133816 -0.046930 -0.102662 -0.365455 -0.028380 -0.075847 -0.156292 0.236076 -0.029422 0.184545 -0.370157 -0.100414 -0.233087 -0.368321 -0.340288 -0.283987 0.587229 0.311009 -0.021729 -0.035162 -0.212213 0.014082
53 -0.097004 0.042930 0.061869 0.028740 0.286873 0.433759 0.208455 -0.439612 -0.545612 0.285578 0.371172 -0.165060 -0.013858 -0.205515 -0.179385 -0.362149 0.213234 0.173246 0.045593 0.241257 -0.035670 0.197420 0.340502 0.172116 -0.032960 -0.098314 0.187190 -0.177997 -0.055438 0.019802 -0.066933 -0.277214 -0.104752 0.516631 0.132583 -0.388133 -0.111072 -0.370369 -0.066070 0.117292 -0.448621 -0.019810 -0.171189 -0.097538 -0.428021 0.381924 -0.330458 -0.237692 0.359859 -0.206181 -0.009028 -0.205544 0.380560 0.448893 0.051271 0.122049 -0.476918 -0.351357 -0.220600 0.334406 0.676875 -0.562506 -0.296794 0.218853 0.026381 -0.259605 -0.021608 -0.306685 -0.020672 -0.375338 0.246236 0.184463 -0.009121 -0.103975 0.274412 0.016028 0.153430 0.212698 0.407377 0.286357 -0.323922 -0.240039 -0.218175 -0.188542 0.067861 -0.153410 -0.360619 -0.115569 -0.047610 -0.190356 0.144170 -0.293616 0.199334 -0.118765 0.085365 -0.193273 -0.563762 -0.325791 0.174567 -0.075344 -0.389690 0.251074 -0.039937 0.255219 0.710468 0.072439 0.239481 -0.407083 0.147453 -0.731884 -0.000700 -0.540548 -0.223028 0.328805 0.366829 -0.066140 -0.024260 -0.144374 -0.113159 -0.415149 -0.462100 -0.189991 -0.240527 -0.154582 0.224249 -0.406243 -0.229472 -0.248633
314 -0.539583 -0.064282 -0.202120 0.003775 0.083632 -0.114544 -0.293485 -0.056186 -0.092496 0.177505 -0.260082 -0.105946 0.039389 -0.358282 -0.123649 -0.245631 -0.112512 0.178291 -0.036171 -0.056154 0.252103 0.188805 0.039021 0.068577 -0.243081 -0.044952 0.599731 -0.315745 0.171716 -0.034791 0.275675 -0.310856 -0.116674 -0.392952 0.074161 0.025848 -0.294867 -0.109617 -0.188527 0.062404 0.231944 0.338154 0.190723 0.021161 -0.366424 0.282178 -0.131567 -0.148449 0.422949 0.312528 -0.412848 -0.169898 0.155410 0.434318 -0.277897 -0.409506 -0.467985 0.045896 0.035636 0.273751 0.166411 -0.549611 -0.320730 -0.150251 -0.123423 -0.099002 -0.484416 -0.186791 -0.218927 -0.328417 0.133989 0.475311 0.273271 -0.084928 0.016806 0.096179 0.378557 0.483240 0.015447 -0.513442 -0.070781 -0.076984 0.421440 0.155658 -0.018103 0.305040 0.306135 -0.011542 -0.112697 0.236786 0.306286 -0.255999 -0.273395 -0.041639 -0.095916 0.142498 0.040768 -0.434684 0.214074 -0.077643 -0.351416 0.056782 0.111457 0.236243 0.134170 0.063978 0.341473 -0.541083 0.234381 -0.603596 -0.027759 0.021494 -0.293953 0.383572 0.430501 -0.130108 -0.121134 0.546406 -0.263490 -0.228713 -0.147312 -0.224932 -0.171454 -0.671040 -0.180983 0.162536 -0.282628 -0.237711
2 -0.548534 -0.047980 -0.209296 0.018189 0.076835 -0.126988 -0.300028 -0.061585 -0.088909 0.197676 -0.267983 -0.110797 0.056624 -0.367550 -0.131479 -0.254139 -0.112681 0.182837 -0.023817 -0.057773 0.271896 0.198782 0.060986 0.089797 -0.248817 -0.060464 0.622689 -0.308055 0.174969 -0.031005 0.283749 -0.326523 -0.123886 -0.392651 0.071105 0.013103 -0.329033 -0.122040 -0.204496 0.073673 0.242358 0.366481 0.219308 0.002957 -0.386567 0.287719 -0.140563 -0.138854 0.435786 0.317852 -0.434185 -0.175947 0.167163 0.445908 -0.301514 -0.442641 -0.474110 0.051660 0.028862 0.322131 0.152898 -0.569537 -0.320356 -0.177784 -0.141054 -0.117489 -0.487784 -0.197318 -0.241576 -0.332592 0.150262 0.508467 0.279829 -0.083301 0.002970 0.110772 0.382424 0.483836 0.035731 -0.533225 -0.080516 -0.048421 0.434666 0.184288 -0.013449 0.322200 0.324771 -0.007154 -0.095356 0.228441 0.325300 -0.283626 -0.270426 -0.055824 -0.104255 0.140071 0.055981 -0.440440 0.213947 -0.082167 -0.361498 0.077205 0.091792 0.242639 0.115739 0.072750 0.365814 -0.574386 0.246288 -0.611177 -0.044212 0.045823 -0.292415 0.402479 0.438792 -0.123737 -0.121960 0.552757 -0.260662 -0.240303 -0.124327 -0.238869 -0.157774 -0.721339 -0.165673 0.147269 -0.305140 -0.234156
94 0.155957 0.261689 -0.121417 0.195211 0.040415 0.246216 0.043156 -0.150258 -0.111308 0.263364 0.162030 -0.233564 0.383341 -0.327788 -0.362840 -0.132657 0.051811 0.373478 0.080486 0.021471 0.095194 -0.032083 0.316796 0.136981 0.322024 0.073644 -0.151067 0.127868 -0.416561 -0.198391 -0.071662 0.011240 0.055432 -0.237006 -0.082924 -0.194086 -0.396799 -0.050131 0.219834 0.177076 -0.100852 0.177738 0.007285 0.046383 -0.289067 -0.102161 -0.329340 0.157333 0.399455 0.306412 0.189694 -0.046809 0.463994 0.235893 -0.006011 -0.047608 -0.281258 -0.059391 0.129189 0.071543 -0.116074 -0.029308 -0.253321 -0.229532 -0.496063 0.247074 0.205693 0.156091 -0.436350 0.058109 0.221878 0.295445 0.433925 -0.131976 0.025301 -0.296214 0.294724 0.306869 0.209698 -0.034607 0.231321 -0.134738 0.101783 0.464917 0.249711 0.008053 0.231191 -0.371645 0.024902 -0.080046 0.403333 -0.101428 0.360305 -0.237127 -0.083277 -0.024040 -0.426324 -0.480522 -0.081084 -0.170490 -0.304024 0.162782 -0.085351 -0.006284 0.229707 0.067896 0.493892 0.320584 0.168218 0.062291 -0.189560 -0.003156 -0.093747 0.191588 -0.113366 -0.162305 -0.183877 -0.002756 -0.046847 0.029616 -0.145259 0.137347 -0.161616 -0.322493 0.153646 -0.052742 -0.357386 -0.118154
145 -0.538310 -0.058935 -0.199390 -0.003701 0.099269 -0.114949 -0.313021 -0.057579 -0.097470 0.208867 -0.277978 -0.139623 0.035920 -0.386668 -0.143427 -0.271320 -0.110282 0.175970 -0.030315 -0.061340 0.281265 0.205700 0.045600 0.088429 -0.260538 -0.043674 0.630754 -0.314137 0.189924 -0.036874 0.293291 -0.323071 -0.135130 -0.414248 0.070922 0.030426 -0.317362 -0.112841 -0.201974 0.065334 0.244367 0.380006 0.216120 0.011058 -0.386311 0.304218 -0.144789 -0.152029 0.440664 0.319048 -0.448714 -0.165960 0.172296 0.457705 -0.304840 -0.447164 -0.487087 0.039875 0.055318 0.297620 0.160015 -0.576774 -0.339665 -0.157601 -0.148022 -0.122661 -0.499359 -0.186000 -0.228353 -0.344105 0.137662 0.499234 0.289173 -0.094338 0.017494 0.102546 0.393866 0.505482 0.032309 -0.527205 -0.064456 -0.063395 0.437478 0.181574 -0.019422 0.315248 0.322227 -0.019256 -0.101584 0.241605 0.341289 -0.285971 -0.286280 -0.059568 -0.098454 0.154726 0.052124 -0.448379 0.232568 -0.081469 -0.383602 0.070853 0.103573 0.216494 0.132564 0.067285 0.351881 -0.580423 0.244086 -0.631929 -0.033049 0.022999 -0.297569 0.404391 0.451047 -0.125893 -0.130141 0.570731 -0.259921 -0.240561 -0.157713 -0.233405 -0.169752 -0.713179 -0.176339 0.163639 -0.307213 -0.247091
216 -0.226350 -0.066238 -0.186263 -0.213529 0.346743 0.450002 -0.479803 0.045608 -0.724975 0.121623 -0.086178 -0.079279 -0.526040 -0.126108 0.002517 -0.127871 -0.096544 0.451536 -0.046524 -0.502259 -0.116781 -0.092121 -0.237282 0.568696 -0.058997 0.363548 0.108739 -0.519130 0.133335 0.011061 -0.047325 0.074020 0.395283 0.078389 -0.095671 -0.195457 -0.021226 -0.053475 0.188007 -0.163471 0.328177 0.624173 -0.254627 0.550044 -0.070868 0.379532 -0.551877 0.179621 0.430471 0.180164 -0.058762 -0.137620 0.686810 0.984516 0.257100 -0.033726 -0.532159 0.084974 0.022567 -0.400795 0.223466 -0.212358 -0.605827 -0.002613 -0.291914 0.572969 0.084106 0.108801 -0.222186 -0.149417 -0.137548 0.485897 0.555784 0.132898 -0.280464 -0.053510 0.756150 0.691957 0.311399 -0.437667 0.280880 -0.505208 -0.032053 0.576321 -0.787422 0.016588 -0.079936 -0.749146 -0.023195 0.381256 0.217042 -0.121481 -0.538360 -0.638676 0.156530 0.252843 -0.056220 -0.862157 -0.365307 -0.243869 -0.231777 -0.233871 -0.198736 0.001540 0.734743 0.434299 0.268872 -0.499131 -0.095529 -0.616932 -0.199936 -0.602752 -0.342047 0.098561 -0.006157 -0.273544 -0.039774 -0.052405 -0.808736 -0.061585 -0.358662 -0.221382 -0.128276 0.067924 -0.413038 0.560551 -0.528444 0.144802
